tree
version=v4
num_class=1
num_tree_per_iteration=1
label_index=0
max_feature_idx=24
objective=regression
feature_names=Column_0 Column_1 Column_2 Column_3 Column_4 Column_5 Column_6 Column_7 Column_8 Column_9 Column_10 Column_11 Column_12 Column_13 Column_14 Column_15 Column_16 Column_17 Column_18 Column_19 Column_20 Column_21 Column_22 Column_23 Column_24
feature_infos=[1:7] [-0.97492791218182362:0.97492791218182362] [-0.90096886790241903:1] [1:31] [28:31] [-1:1] [-1:1] [1:12] [-1:1] [-1:1] [29:1080] [0:244.71428571428572] [0:227.85714285714286] [0.033333333333333333:217.86666666666667] [0:358.75] [0:385] [0:394] [0:344] [0:385] [0:376] [0:366] [0:356] [0:1] [0:1] [0:1]
tree_sizes=2903 2941 2948 2935 2951 2952 2942 2945 2966 2952 2962 2966 2971 2976 2937 2980 2957 2948 2940 2972 2946 2951 2969 2927 2925 2918 2951 2986 2927 2942 2935 2967 2916 2955 2940 2938 2946 2919 2921 2931 2901 2949 2940 2896 2906 2939 2933 2910 2903 2847 2905 2944 2926 2926 2883 2953 2898 2921 2887 2911 2937 2917 2897 2917 2912 2935 2946 2904 2974 2926 2938 2900 2924 2926 2962 2993 2893 2876 2943 2879 2911 2901 2862 2971 2901 2916 2915 2959 2915 2859 2858 2988 2943 2945 2929 2905 2887 2867 2901 2968

Tree=0
num_leaves=31
num_cat=0
split_feature=13 0 13 13 0 11 13 0 13 13 12 13 0 13 13 13 11 0 1 0 13 1 0 0 13 1 1 0 13 0
split_gain=1.51525e+08 7.83312e+07 3.03487e+07 2.69404e+07 2.18328e+07 1.11825e+07 9.49772e+06 7.21139e+06 6.08953e+06 4.01413e+06 1.33385e+06 1.2927e+06 1.09498e+06 951105 860703 810489 800498 692478 673557 668505 662805 523747 511643 448874 433918 419474 409273 408792 265548 251098
threshold=27.850000000000005 2.5000000000000004 63.050000000000004 12.116666666666669 2.5000000000000004 110.92857142857144 41.416666666666671 2.5000000000000004 5.8500000000000005 19.516666666666669 81.821428571428598 53.050000000000004 1.5000000000000002 2.9833333333333338 8.8500000000000032 34.95000000000001 139.50000000000003 3.5000000000000004 -0.21694186955877909 3.5000000000000004 15.216666666666667 -0.21694186955877909 3.5000000000000004 1.5000000000000002 23.083333333333339 -0.21694186955877909 -0.21694186955877909 3.5000000000000004 93.88333333333334 3.5000000000000004
decision_type=2 2 2 2 2 2 2 2 2 2 2 2 2 2 2 2 2 2 2 2 2 2 2 2 2 2 2 2 2 2
left_child=3 12 6 7 23 10 15 -1 13 20 17 18 -2 -9 -10 27 25 -4 -8 -13 -6 28 -11 -5 -24 -7 -18 -3 -12 -17
right_child=1 2 5 4 9 16 11 8 14 22 21 19 -14 -15 -16 29 26 -19 -20 -21 -22 -23 24 -25 -26 -27 -28 -29 -30 -31
leaf_value=12.215667830073185 12.75441115863074 13.869092233416811 15.934134636097209 12.444604844165875 13.076551199609737 21.481654354399538 15.552961361244897 12.309585448109781 12.671368876047859 13.425187716888422 18.262809642831538 15.251716508251098 12.183529461019896 12.491537883226124 12.865419565191125 14.30831392528783 23.849756595723814 17.054411442722632 14.998640601937984 16.184151635422673 13.328099206068687 17.244252890008219 13.641471292006491 12.182511762086003 13.940253691054201 19.20883132983651 21.424328484775053 14.355193247696835 19.753038852208331 14.827319827493731
leaf_weight=208181 16062 5472 1823 31690 53436 525 13832 129461 135852 12615 739 2446 17607 161313 98629 2929 428 5669 9076 8977 51353 832 25756 33718 23006 331 293 20634 502 11404
leaf_count=208181 16062 5472 1823 31690 53436 525 13832 129461 135852 12615 739 2446 17607 161313 98629 2929 428 5669 9076 8977 51353 832 25756 33718 23006 331 293 20634 502 11404
internal_value=12.8212 14.5 15.3012 12.6132 13.0833 17.7356 14.9384 12.4647 12.5634 13.3879 17.0924 15.55 12.4559 12.4105 12.753 14.4192 21.6367 16.7818 15.3333 15.9845 13.1998 18.2149 13.709 12.3095 13.7824 20.6028 22.8641 14.2533 18.8656 14.7213
internal_weight=0 119581 85912 965010 231574 11142 74770 733436 525255 166166 9565 34331 33669 290774 234481 40439 1577 7492 22908 11423 104789 2073 61377 65408 48762 856 721 26106 1241 14333
internal_count=1084591 119581 85912 965010 231574 11142 74770 733436 525255 166166 9565 34331 33669 290774 234481 40439 1577 7492 22908 11423 104789 2073 61377 65408 48762 856 721 26106 1241 14333
is_linear=0
shrinkage=1


Tree=1
num_leaves=31
num_cat=0
split_feature=13 0 13 13 0 13 11 0 13 13 13 0 13 11 13 13 0 1 0 0 13 11 13 0 1 0 0 11 6 0
split_gain=1.36751e+08 7.06939e+07 2.74042e+07 2.43137e+07 1.97041e+07 9.73282e+06 8.85256e+06 6.50828e+06 5.5019e+06 3.63084e+06 1.39912e+06 988221 954264 892377 891710 761708 734069 713654 601382 590296 533955 470962 466823 405109 387475 368935 341371 270027 269669 266953
threshold=27.850000000000005 2.5000000000000004 66.116666666666688 12.116666666666669 2.5000000000000004 42.583333333333343 110.92857142857144 2.5000000000000004 5.5833333333333339 18.81666666666667 53.050000000000004 1.5000000000000002 34.95000000000001 87.642857142857153 8.3833333333333346 2.7166666666666672 3.5000000000000004 -0.21694186955877909 3.5000000000000004 3.5000000000000004 22.483333333333338 139.50000000000003 15.216666666666667 1.5000000000000002 -0.21694186955877909 3.5000000000000004 3.5000000000000004 139.50000000000003 0.57622690609284799 3.5000000000000004
decision_type=2 2 2 2 2 2 2 2 2 2 2 2 2 2 2 2 2 2 2 2 2 2 2 2 2 2 2 2 2 2
left_child=3 11 5 7 23 12 13 -1 15 22 18 -2 25 19 -10 -9 -12 21 -7 -4 -11 -8 -6 -5 -15 -3 -22 -19 -20 -14
right_child=1 2 6 4 9 10 17 8 14 20 16 -13 29 24 -16 -17 -18 27 28 -21 26 -23 -24 -25 -26 -27 -28 -29 -30 -31
leaf_value=-0.57524580120403734 -0.063439638721009245 0.99550737557573277 3.0864929502367868 -0.35775564588011538 0.24259338463478902 1.8829803840478636 8.2396144355393925 -0.49644411335085759 -0.16332230180537313 0.67932115356818745 2.3757126800809152 -0.60577727638761791 1.4464034705319895 6.0339063070438534 0.026520206951877436 -0.32819153667142431 3.2657930794640309 6.0859109943738288 2.4252095185714584 4.2584309509046134 0.64797192218290811 10.477138083449034 0.46264545532333812 -0.60674404926296233 4.3791129326183533 1.4573033056319125 1.0392373761888589 8.1729814083909833 2.869699631438217 1.9453697037483808
leaf_weight=208181 16062 5472 1415 31690 53436 4158 522 115087 131422 34976 2957 17607 3357 864 116854 161892 10693 329 11585 4465 7038 428 43903 33718 599 20634 26813 293 4837 13304
leaf_count=208181 16062 5472 1415 31690 53436 4158 522 115087 131422 34976 2957 17607 3357 864 116854 161892 10693 329 11585 4465 7038 428 43903 33718 599 20634 26813 293 4837 13304
internal_value=0 1.59492 2.35597 -0.197637 0.249012 2.05211 4.98036 -0.338661 -0.244892 0.538378 2.68047 -0.347052 1.54919 4.25135 -0.0739707 -0.398102 3.07297 8.38565 2.42013 3.97641 0.816328 9.24768 0.341844 -0.48611 5.35638 1.36051 0.957889 7.06905 2.55613 1.84483
internal_weight=0 119581 85912 965010 231574 76997 8915 733436 525255 166166 34230 33669 42767 7343 248276 276979 13650 1572 20580 5880 68827 950 97339 65408 1463 26106 33851 622 16422 16661
internal_count=1084591 119581 85912 965010 231574 76997 8915 733436 525255 166166 34230 33669 42767 7343 248276 276979 13650 1572 20580 5880 68827 950 97339 65408 1463 26106 33851 622 16422 16661
is_linear=0
shrinkage=0.05


Tree=2
num_leaves=31
num_cat=0
split_feature=13 0 13 13 0 12 13 0 13 13 13 11 1 0 13 0 13 13 13 13 1 1 13 0 1 1 1 0 13 11
split_gain=1.23442e+08 6.4538e+07 2.68255e+07 1.99412e+07 1.70369e+07 1.0984e+07 7.27107e+06 5.10587e+06 4.13362e+06 3.51313e+06 1.27847e+06 1.04769e+06 932271 919258 698036 690017 644959 607725 584476 521247 493266 432575 398518 355272 333355 283235 268021 267575 261326 247922
threshold=26.450000000000003 2.5000000000000004 58.150000000000006 11.15 2.5000000000000004 101.39285714285715 39.050000000000004 2.5000000000000004 5.4500000000000011 17.450000000000003 77.250000000000014 139.50000000000003 -0.21694186955877909 1.5000000000000002 48.016666666666673 3.5000000000000004 2.5833333333333339 31.31666666666667 8.0500000000000025 21.583333333333339 -0.21694186955877909 -0.21694186955877909 13.91666666666667 1.5000000000000002 -0.21694186955877909 -0.21694186955877909 -0.21694186955877909 3.5000000000000004 66.116666666666688 53.357142857142868
decision_type=2 2 2 2 2 2 2 2 2 2 2 2 2 2 2 2 2 2 2 2 2 2 2 2 2 2 2 2 2 2
left_child=3 13 6 7 23 10 17 -1 16 22 15 20 14 -2 -8 -4 -9 26 -10 -11 -7 -12 -6 -5 -13 -19 -3 -21 -17 -14
right_child=1 2 5 4 9 11 12 8 18 19 21 24 29 -15 -16 28 -18 25 -20 27 -22 -23 -24 -25 -26 -27 -28 -29 -30 -31
leaf_value=-0.54853760638541016 -0.072817087845253148 1.2809390790356354 2.5757346169794086 -0.35456084614152777 0.16330299420239966 7.4702599188783667 2.2405869271248755 -0.47672980680802363 -0.16791727062622483 0.58018358288008742 5.0169471038880671 9.9532815904260801 1.8503237086516842 -0.57551972097050319 2.8218017992752795 3.2946586645278533 -0.31901545837776873 1.663176092192989 -0.0086569041075107121 0.56855975375643353 5.397696381386071 3.6694248818429283 0.35866859575677051 -0.57695186761756689 7.7643325706390804 1.2898557944824161 0.92038195622710972 0.9134844818515151 3.852823043865464 2.3308844706860374
leaf_weight=198907 17379 13183 2554 34888 57448 728 10995 108058 124579 42842 1653 428 9893 19076 9744 5477 162014 12907 107166 7094 474 931 47841 37008 293 8379 8463 27108 3398 3683
leaf_count=198907 17379 13183 2554 34888 57448 728 10995 108058 124579 42842 1653 428 9893 19076 9744 5477 162014 12907 107166 7094 474 931 47841 37008 293 8379 8463 27108 3398 3683
internal_value=0 1.44775 2.14553 -0.196536 0.182792 4.01332 1.76021 -0.33416 -0.249187 0.439815 3.52704 7.55684 2.30281 -0.335869 2.51366 3.29995 -0.382118 1.32652 -0.0942704 0.696386 6.65296 4.53144 0.252073 -0.469035 9.06374 1.51622 1.13997 0.841942 3.50836 1.98069
internal_weight=0 129638 93183 954953 254229 15936 77247 700724 501817 182333 14013 1923 34315 36455 20739 11429 270072 42932 231745 77044 1202 2584 105289 71896 721 21286 21646 34202 8875 13576
internal_count=1084591 129638 93183 954953 254229 15936 77247 700724 501817 182333 14013 1923 34315 36455 20739 11429 270072 42932 231745 77044 1202 2584 105289 71896 721 21286 21646 34202 8875 13576
is_linear=0
shrinkage=0.05


Tree=3
num_leaves=31
num_cat=0
split_feature=13 0 13 13 0 11 13 1 13 13 13 1 0 13 13 13 1 13 0 13 13 0 11 2 13 11 0 0 11 0
split_gain=1.11441e+08 5.75846e+07 2.24277e+07 1.98314e+07 1.64287e+07 8.2647e+06 7.00116e+06 4.92683e+06 4.0715e+06 3.41334e+06 1.01224e+06 995224 806972 755160 634512 599251 585736 584653 497750 476386 458089 401123 377903 339513 297625 292304 290698 261000 218228 215671
threshold=27.850000000000005 2.5000000000000004 63.050000000000004 11.583333333333334 2.5000000000000004 110.92857142857144 41.416666666666671 0.6078576107927941 5.4500000000000011 18.583333333333339 77.250000000000014 -0.21694186955877909 1.5000000000000002 50.416666666666671 8.1833333333333353 34.150000000000006 -0.21694186955877909 2.7833333333333337 3.5000000000000004 23.083333333333339 14.616666666666669 3.5000000000000004 139.50000000000003 1.0000000180025095e-35 93.88333333333334 53.357142857142868 3.5000000000000004 3.5000000000000004 139.50000000000003 3.5000000000000004
decision_type=2 2 2 2 2 2 2 2 2 2 2 2 2 2 2 2 2 2 2 2 2 2 2 2 2 2 2 2 2 2
left_child=3 12 6 7 23 10 15 8 17 20 21 13 -2 -8 -10 26 22 -1 -12 -11 -6 -4 -7 -5 -20 -13 -3 -21 -18 -17
right_child=1 2 5 4 9 16 11 -9 14 19 18 25 -14 -15 -16 29 28 -19 24 27 -22 -23 -24 -25 -26 -27 -28 -29 -30 -31
leaf_value=-0.44612793936921397 -0.05662681215534679 0.86800763651299973 2.6122335196440929 -0.54787468908541881 0.18635884012726103 7.4538881915864499 2.2722236819650874 -0.52026609192875173 -0.15612003391471224 0.6220941445506204 3.300110294314341 1.822999284139986 -0.54671241135267479 2.8744044047471093 0.0059079998708646787 1.246013697017549 5.5025447717245974 -0.29789803616520272 4.4503886508090158 0.592939768784851 0.39374269724596089 3.5366173773497454 9.4556170971594131 -0.32798325626290842 5.742746247674269 2.3044001689051057 1.2978726998134915 0.96189010213149873 7.376115676892903 1.6910184006089537
leaf_weight=118637 16062 4971 1524 36196 57294 525 11057 203309 130150 42312 723 8379 17607 9839 112782 3430 331 151435 1596 6055 49750 5104 428 34084 618 5056 18834 23006 293 13204
leaf_count=118637 16062 4971 1524 36196 57294 525 11057 203309 130150 42312 723 8379 17607 9839 112782 3430 331 151435 1596 6055 49750 5104 428 34084 618 5056 18834 23006 293 13204
internal_value=0 1.43977 2.12665 -0.178412 0.206266 4.2194 1.8148 -0.311968 -0.229418 0.461321 3.66647 2.3399 -0.312914 2.55576 -0.080898 1.369 7.57314 -0.363012 4.43916 0.729149 0.282743 3.32407 8.35288 -0.441233 4.81113 2.00417 1.20811 0.885018 6.38228 1.59926
internal_weight=0 119581 85912 965010 248697 11142 74770 716313 513004 178417 9565 34331 33669 20896 242932 40439 1577 270072 2937 71373 107044 6628 953 70280 2214 13435 23805 29061 624 16634
internal_count=1084591 119581 85912 965010 248697 11142 74770 716313 513004 178417 9565 34331 33669 20896 242932 40439 1577 270072 2937 71373 107044 6628 953 70280 2214 13435 23805 29061 624 16634
is_linear=0
shrinkage=0.05


Tree=4
num_leaves=31
num_cat=0
split_feature=13 0 13 13 0 13 11 0 13 13 13 13 13 0 1 0 13 0 1 13 1 13 11 0 13 1 6 6 7 1
split_gain=1.00634e+08 5.12628e+07 1.98044e+07 1.89007e+07 1.56079e+07 6.73057e+06 5.33797e+06 5.03539e+06 4.38377e+06 3.00974e+06 1.1269e+06 789894 772218 715698 578992 574948 556924 530253 521511 452859 444485 423316 336213 318216 299673 270640 260501 247044 225648 213799
threshold=29.483333333333338 2.5000000000000004 12.516666666666667 70.350000000000009 2.5000000000000004 44.81666666666667 110.92857142857144 2.5000000000000004 6.3166666666666673 20.016666666666669 56.31666666666667 3.3166666666666669 36.850000000000009 1.5000000000000002 -0.21694186955877909 3.5000000000000004 9.4500000000000011 3.5000000000000004 -0.21694186955877909 93.88333333333334 -0.21694186955877909 16.216666666666672 139.50000000000003 1.5000000000000002 24.416666666666668 -0.21694186955877909 0.57622690609284799 0.57622690609284799 11.500000000000002 -0.21694186955877909
decision_type=2 2 2 2 2 2 2 2 2 2 2 2 2 2 2 2 2 2 2 2 2 2 2 2 2 2 2 2 2 2
left_child=2 13 7 5 23 12 14 -1 11 21 15 -9 25 -2 19 -7 -10 -12 22 -5 24 29 -8 -4 -11 -3 28 -19 -17 -6
right_child=1 3 4 6 9 10 18 8 16 20 17 -13 -14 -15 -16 26 -18 27 -20 -21 -22 -23 -24 -25 -26 -27 -28 -29 -30 -31
leaf_value=-0.49284896741654016 -0.03738746818490906 1.3993360425425561 -0.29832795690108921 4.0235376978876998 0.32313985805069567 1.6809580892858138 7.0914973172940128 -0.40837366256586138 -0.096722830296184226 0.75996612555479892 2.1815150466791651 -0.24960721861741067 1.7104910708452625 -0.51954927762609948 3.1867740118609453 2.2626187424888906 0.066627907605406267 2.828925242657649 6.0808082116014912 5.6315629457459693 0.60819371834129621 0.4521735520718963 8.9828365325927741 -0.51996794020576809 1.0419202431795307 1.0520862282835284 2.6423928475146661 3.4048806744138691 1.356823036407127 0.1268414450983838
leaf_weight=211568 14719 14396 31415 2689 35034 4244 521 147940 133983 22366 2536 166524 16426 16131 1914 10653 85461 6221 621 523 24993 43195 428 33425 16286 9195 4829 2657 735 22963
leaf_count=211568 14719 14396 31415 2689 35034 4244 521 147940 133983 22366 2536 166524 16426 16131 1914 10653 85461 6221 621 523 24993 43195 428 33425 16286 9195 4829 2657 735 22963
internal_value=0 1.43768 -0.161346 2.11569 0.244604 1.87904 4.65645 -0.286416 -0.204615 0.503114 2.42111 -0.324299 1.44727 -0.289503 3.87516 2.19906 -0.033107 2.81915 7.20733 4.28537 0.772515 0.333674 7.94449 -0.412583 0.878767 1.26399 2.33465 3.0013 2.20416 0.245419
internal_weight=0 109438 975153 78588 229677 71892 6696 745476 533908 164837 31875 314464 40017 30850 5126 20461 219444 11414 1570 3212 63645 101192 949 64840 38652 23591 16217 8878 11388 57997
internal_count=1084591 109438 975153 78588 229677 71892 6696 745476 533908 164837 31875 314464 40017 30850 5126 20461 219444 11414 1570 3212 63645 101192 949 64840 38652 23591 16217 8878 11388 57997
is_linear=0
shrinkage=0.05


Tree=5
num_leaves=31
num_cat=0
split_feature=13 0 13 13 0 12 13 0 13 13 13 11 1 0 11 0 13 13 13 1 13 0 1 1 0 0 6 1 11 6
split_gain=9.08858e+07 4.74734e+07 1.98191e+07 1.47036e+07 1.26931e+07 8.12924e+06 5.33979e+06 3.56102e+06 2.88688e+06 2.81821e+06 934198 774029 691357 678777 574232 517771 513364 448587 420319 374135 362375 335111 329462 309411 269551 254341 240410 232830 231411 224707
threshold=26.450000000000003 2.5000000000000004 58.150000000000006 10.850000000000003 2.5000000000000004 101.39285714285715 40.250000000000007 2.5000000000000004 4.8500000000000005 17.016666666666669 77.250000000000014 139.50000000000003 -0.21694186955877909 1.5000000000000002 34.500000000000007 3.5000000000000004 7.3833333333333337 21.31666666666667 48.016666666666673 -0.21694186955877909 2.101724137931035 3.5000000000000004 -0.21694186955877909 -0.21694186955877909 1.5000000000000002 3.5000000000000004 0.57622690609284799 -0.21694186955877909 15.071428571428573 0.57622690609284799
decision_type=2 2 2 2 2 2 2 2 2 2 2 2 2 2 2 2 2 2 2 2 2 2 2 2 2 2 2 2 2 2
left_child=3 13 6 7 24 10 14 -1 20 23 15 19 18 -2 22 -4 -10 -11 -8 -7 -9 -12 29 28 -5 -13 -17 -19 -6 -3
right_child=1 2 5 4 9 11 12 8 16 17 21 25 -14 -15 -16 26 -18 27 -20 -21 -22 -23 -24 -25 -26 -27 -28 -29 -30 -31
leaf_value=-0.47100671157086488 -0.061450387127716756 1.0399796667318195 2.2063550180409135 -0.30572745626865983 0.20620363232645836 6.4295050777904281 1.9576634943764912 -0.42819260517769442 -0.17329034597920764 0.4801164053404211 2.8971089740377938 5.9728873550891883 1.7173680861345417 -0.49342292663763332 1.4103697813674954 2.8451313261042994 -0.031627301534358013 0.81640838066621235 2.4245791008239284 4.624487281600131 -0.29890868197482562 4.214129051185342 0.82080109551675806 0.092194774209704858 -0.49526090187853705 8.2752204586625719 3.4147023936240908 0.55805411336656652 0.41515495603844466 1.4067977529688127
leaf_weight=195694 17379 12495 2554 36383 47215 728 9538 83693 127779 45700 643 152 12600 19076 15301 6240 128028 22230 9744 474 153815 1941 11299 42920 38726 569 2635 14350 18420 6270
leaf_count=195694 17379 12495 2554 36383 47215 728 9538 83693 127779 45700 643 152 12600 19076 15301 6240 128028 22230 9744 474 153815 1941 11299 42920 38726 569 2635 14350 18420 6270
internal_value=0 1.24225 1.84072 -0.16864 0.147157 3.44616 1.50952 -0.290531 -0.218938 0.363865 3.02782 6.49463 2.0054 -0.287491 1.16102 2.8337 -0.10239 0.584567 2.19362 5.71771 -0.344466 3.8864 1.03411 0.196583 -0.40345 7.78985 3.01424 0.715058 0.264844 1.16255
internal_weight=0 129638 93183 954953 265944 15936 77247 689009 493315 190835 14013 1923 31882 36455 45365 11429 255807 82280 19282 1202 237508 2584 30064 108555 75109 721 8875 36580 65635 18765
internal_count=1084591 129638 93183 954953 265944 15936 77247 689009 493315 190835 14013 1923 31882 36455 45365 11429 255807 82280 19282 1202 237508 2584 30064 108555 75109 721 8875 36580 65635 18765
is_linear=0
shrinkage=0.05


Tree=6
num_leaves=31
num_cat=0
split_feature=13 0 13 11 0 13 0 13 11 13 13 13 13 0 0 13 1 0 0 1 1 13 0 6 6 0 11 6 1 6
split_gain=8.20944e+07 4.1775e+07 1.61606e+07 1.55542e+07 1.25653e+07 6.48491e+06 4.23572e+06 3.74494e+06 3.00309e+06 2.27358e+06 1.10364e+06 936654 712089 586440 512653 457312 442844 431151 386264 381079 330784 304603 299392 280235 270327 258848 255947 249856 249267 247791
threshold=29.483333333333338 2.5000000000000004 12.783333333333337 79.214285714285737 2.5000000000000004 48.016666666666673 2.5000000000000004 6.5166666666666675 110.92857142857144 20.016666666666669 37.916666666666671 60.38333333333334 3.5833333333333339 1.5000000000000002 3.5000000000000004 9.6500000000000004 -0.21694186955877909 3.5000000000000004 3.5000000000000004 -0.21694186955877909 -0.21694186955877909 24.81666666666667 3.5000000000000004 0.81489021779111204 0.57622690609284799 1.5000000000000002 139.50000000000003 0.57622690609284799 -0.21694186955877909 0.57622690609284799
decision_type=2 2 2 2 2 2 2 2 2 2 2 2 2 2 2 2 2 2 2 2 2 2 2 2 2 2 2 2 2 2
left_child=2 13 6 5 25 10 -1 12 19 20 28 14 -8 -2 -7 -9 23 -13 -11 27 -6 -20 -12 26 -16 -4 -10 -5 -3 -19
right_child=1 3 4 8 9 11 7 15 16 18 22 17 -14 -15 24 -17 -18 29 21 -21 -22 -23 -24 -25 -26 -27 -28 -29 -30 -31
leaf_value=-0.44463186140536648 -0.032445577627874374 1.2854711642040071 -0.26587061331420742 3.9506356804068461 0.38650648394298814 1.6292991983118221 -0.36240071858305489 -0.078191823369260852 5.9984641335227273 0.45499333193349129 1.2640090977210421 2.1448753690362703 -0.21421768713949568 -0.46890068356841241 2.1374045556143559 0.071260393018522342 5.4679040154771945 2.747422459996951 0.66309838801011634 3.1309691378848283 0.19664624057046998 0.91598161422354674 1.7425163872397764 9.1860631281015834 2.6122007697059266 -0.46919613180414521 7.7840473226738496 5.3579223068526192 0.96787662317570344 3.3843162865575716
leaf_weight=213734 14719 15793 30356 1356 57667 3841 163439 131020 440 13135 4057 2146 160874 16131 9975 84003 627 4667 31284 1227 38097 19226 16828 147 4286 32318 369 411 10148 2270
leaf_count=213734 14719 15793 30356 1356 57667 3841 163439 131020 440 13135 4057 2146 160874 16131 9975 84003 627 4667 31284 1227 38097 19226 16828 147 4286 32318 369 411 10148 2270
internal_value=0 1.29851 -0.145727 1.91057 0.229092 1.73564 -0.256263 -0.181614 4.73918 0.464915 1.37903 2.3499 -0.288895 -0.260661 2.14201 -0.0198054 6.50055 2.76423 0.696541 3.8079 0.310976 0.759355 1.64956 7.17781 2.2801 -0.370716 6.8129 4.27797 1.16123 2.95583
internal_weight=0 109438 975153 78588 222083 74011 753070 539336 4577 159409 46826 27185 324313 30850 18102 215023 1583 9083 63645 2994 95764 50510 20885 956 14261 62674 809 1767 25941 6937
internal_count=1084591 109438 975153 78588 222083 74011 753070 539336 4577 159409 46826 27185 324313 30850 18102 215023 1583 9083 63645 2994 95764 50510 20885 956 14261 62674 809 1767 25941 6937
is_linear=0
shrinkage=0.05


Tree=7
num_leaves=31
num_cat=0
split_feature=13 0 13 13 0 13 11 0 13 13 13 13 0 13 13 1 0 11 0 11 13 0 13 0 1 1 1 6 0 7
split_gain=7.41049e+07 3.79314e+07 1.43721e+07 1.41192e+07 1.11297e+07 5.32921e+06 3.91756e+06 3.69669e+06 3.23026e+06 2.04029e+06 818767 637898 531777 531044 468077 444801 441017 395022 383789 367390 347534 330351 238644 229274 226730 218648 214808 213198 210161 206134
threshold=28.916666666666668 2.5000000000000004 70.350000000000009 12.516666666666667 2.5000000000000004 44.81666666666667 110.92857142857144 2.5000000000000004 6.0500000000000007 20.016666666666669 54.616666666666674 36.850000000000009 1.5000000000000002 3.0500000000000003 9.339080459770118 -0.21694186955877909 3.5000000000000004 139.50000000000003 3.5000000000000004 17.642857142857149 93.88333333333334 3.5000000000000004 24.083333333333339 1.5000000000000002 -0.21694186955877909 -0.21694186955877909 -0.21694186955877909 0.57622690609284799 3.5000000000000004 4.5000000000000009
decision_type=2 2 2 2 2 2 2 2 2 2 2 2 2 2 2 2 2 2 2 2 2 2 2 2 2 2 2 2 2 2
left_child=3 12 5 7 23 11 15 -1 13 19 18 24 -2 -9 -10 20 -12 25 -7 26 -4 -11 -23 -5 29 -8 -6 -18 -19 -3
right_child=1 2 6 4 9 10 17 8 14 21 16 -13 -14 -15 -16 -17 27 28 -20 -21 -22 22 -24 -25 -26 -27 -28 -29 -30 -31
leaf_value=-0.42267528611102395 -0.036035850734763966 1.490039540516606 3.4674092711453413 -0.25629842959307808 0.29268354561809251 1.4089616404530534 6.0976289998089293 -0.35849063705448553 -0.091588622599580394 0.4252617111001043 1.8343529797697931 1.4645812390468997 -0.44542095023279082 -0.2247755080457822 0.054323812201417021 2.7338743824648013 2.3745581684384303 5.4008478828950937 1.9746923141003334 0.43025728765877558 4.8760831297697571 0.61470791570478012 0.83819160874067444 -0.44581808609758777 0.88162469281869749 4.4496900913192006 0.11270868720819718 2.8637212680716608 7.4936856988863285 1.0781070962574879
leaf_weight=211568 15172 4095 2689 30962 43249 3781 521 133045 143905 12666 2999 16426 16624 168029 88929 1914 7442 152 14474 31057 523 27449 21149 32932 10123 328 26886 3179 569 11754
leaf_count=211568 15172 4095 2689 30962 43249 3781 521 133045 143905 12666 2999 16426 16624 168029 88929 1914 7442 152 14474 31057 523 27449 21149 32932 10123 328 26886 3179 569 11754
internal_value=0 1.2133 1.78796 -0.140784 0.205082 1.58794 4.00655 -0.2458 -0.175711 0.424961 2.07641 1.22071 -0.250076 -0.283864 -0.0358586 3.33724 2.36978 6.19185 1.85752 0.287088 3.69678 0.65269 0.711964 -0.35398 1.06647 5.46097 0.223691 2.52097 7.05248 1.18454
internal_weight=0 112765 80969 971826 226350 74273 6696 745476 533908 162456 31875 42398 31796 301074 232834 5126 13620 1570 18255 101192 3212 61264 48598 63894 25972 849 70135 10621 721 15849
internal_count=1084591 112765 80969 971826 226350 74273 6696 745476 533908 162456 31875 42398 31796 301074 232834 5126 13620 1570 18255 101192 3212 61264 48598 63894 25972 849 70135 10621 721 15849
is_linear=0
shrinkage=0.05


Tree=8
num_leaves=31
num_cat=0
split_feature=13 0 11 13 0 13 13 0 13 13 11 1 1 0 6 13 11 11 13 0 13 7 1 6 0 13 6 1 0 6
split_gain=6.69066e+07 3.49147e+07 1.47965e+07 1.08502e+07 9.36698e+06 5.86204e+06 4.196e+06 2.57146e+06 2.18281e+06 2.10812e+06 772428 666383 551228 501390 452952 447528 387697 380784 355008 322782 289648 259105 238874 227084 206120 204416 203542 198149 195234 193292
threshold=26.450000000000003 2.5000000000000004 60.357142857142868 10.750000000000002 2.5000000000000004 93.88333333333334 40.250000000000007 2.5000000000000004 16.616666666666671 4.8500000000000005 139.50000000000003 -0.21694186955877909 -0.21694186955877909 1.5000000000000002 0.57622690609284799 32.650000000000006 7.6428571428571432 21.785714285714288 70.350000000000009 3.5000000000000004 1.9166666666666667 11.500000000000002 -0.21694186955877909 0.57622690609284799 1.5000000000000002 51.750000000000007 0.57622690609284799 -0.21694186955877909 3.5000000000000004 0.64631020410879603
decision_type=2 2 2 2 2 2 2 2 2 2 2 2 2 2 2 2 2 2 2 2 2 2 2 2 2 2 2 2 2 2
left_child=3 13 6 7 24 12 15 -1 22 20 19 14 18 -2 21 28 -11 23 -4 -7 -9 25 -6 -10 -5 -8 -17 -18 -3 -21
right_child=1 2 5 4 8 10 11 9 17 16 -12 -13 -14 -15 -16 26 27 -19 -20 29 -22 -23 -24 -25 -26 -27 -28 -29 -30 -31
leaf_value=-0.40429425143941189 -0.051768824945010131 0.59427297796726852 2.6269961049453734 -0.26093412751889294 0.21713751047704025 3.3712746870482775 1.6715173842921029 -0.37859420949012207 0.33500095340937674 -0.14629384132502654 6.7104794624622164 1.4502753072740493 2.1997024682568074 -0.42303087229803937 2.2535620267529981 1.0727780962881535 0.032386577780836687 0.62290669297760937 3.356697551353522 4.664495695125626 -0.25933403920736342 0.98166453707433132 0.063965452598981828 0.5543109111673491 -0.42546009587176492 2.096875569185165 1.4313768146765931 -0.10003788745089084 0.93003681181893139 5.9808359409513931
leaf_weight=194581 17379 5465 4809 36914 64412 341 8680 73915 34826 136256 718 12758 5003 19076 6550 13402 68647 34561 2551 830 163593 1019 42084 17855 39308 4187 5615 48001 20835 420
leaf_count=194581 17379 5465 4809 36914 64412 341 8680 73915 34826 136256 718 12758 5003 19076 6550 13402 68647 34561 2551 830 163593 1019 42084 17855 39308 4187 5615 48001 20835 420
internal_value=0 1.06585 1.57909 -0.144693 0.123775 3.03657 1.30672 -0.250498 0.308512 -0.189476 5.34916 1.73381 2.60465 -0.246041 1.91082 0.993878 -0.0890144 0.493939 2.87991 4.73481 -0.296449 1.74915 0.156609 0.409331 -0.345781 1.80993 1.17866 -0.0221065 0.860267 5.10679
internal_weight=0 129638 93183 954953 269960 14672 78511 684993 193738 490412 2309 33194 12363 36455 20436 45317 252904 87242 7360 1591 237508 13886 106496 52681 76222 12867 19017 116648 26300 1250
internal_count=1084591 129638 93183 954953 269960 14672 78511 684993 193738 490412 2309 33194 12363 36455 20436 45317 252904 87242 7360 1591 237508 13886 106496 52681 76222 12867 19017 116648 26300 1250
is_linear=0
shrinkage=0.05


Tree=9
num_leaves=31
num_cat=0
split_feature=13 0 13 11 0 13 0 13 11 11 11 13 13 0 0 6 1 11 1 1 7 1 1 6 6 3 1 13 1 6
split_gain=6.04327e+07 3.07147e+07 1.19616e+07 1.16439e+07 9.07422e+06 4.81076e+06 3.27514e+06 2.97634e+06 2.19225e+06 1.47524e+06 812114 708356 591206 458909 434306 376477 357320 334460 317174 304591 288405 278186 264030 247843 246447 232418 220914 212463 206781 202461
threshold=29.483333333333338 2.5000000000000004 13.250000000000002 79.214285714285737 2.5000000000000004 48.016666666666673 2.5000000000000004 6.7833333333333341 110.92857142857144 20.642857142857149 40.071428571428577 63.050000000000004 3.6500000000000004 3.5000000000000004 1.5000000000000002 0.57622690609284799 -0.21694186955877909 10.785714285714286 -0.21694186955877909 -0.21694186955877909 11.500000000000002 -0.21694186955877909 -0.21694186955877909 0.57622690609284799 0.81489021779111204 17.500000000000004 -0.21694186955877909 18.116666666666671 -0.21694186955877909 0.57622690609284799
decision_type=2 2 2 2 2 2 2 2 2 2 2 2 2 2 2 2 2 2 2 2 2 2 2 2 2 2 2 2 2 2
left_child=2 14 6 5 -4 10 -1 12 21 18 15 13 -8 -7 -2 20 24 26 27 -11 -3 29 -13 -15 -10 -22 -9 -6 -12 -5
right_child=1 3 4 8 9 11 7 17 16 19 28 22 -14 23 -16 -17 -18 -19 -20 -21 25 -23 -24 -25 -26 -27 -28 -29 -30 -31
leaf_value=-0.38107780984385076 -0.026433072426905652 0.95588825223669172 -0.31501360939591377 3.3975723881455782 0.29482909043897121 1.4157536231738879 -0.31052119457117716 0.0028519294496886539 5.8573523746285368 0.7046971659894995 1.6071692285074499 2.6991670481376473 -0.17811949364447949 1.8655277132887438 -0.40203304655915062 1.2743568967592882 4.6636117677083995 0.090322946678213611 0.17255076622802579 0.47389332849331195 0.7436215363492138 2.7122340454904403 2.0453277982475346 2.293276353164543 8.0828554724349466 -0.44938200913063853 -0.12331982647226432 0.50108736376312901 1.2552617739719467 4.6643736191982192
leaf_weight=217172 14719 18149 59236 1356 37440 4362 167188 89250 809 34892 9707 4278 170087 11292 16131 9931 627 64769 35418 24215 1045 1227 2416 4837 147 670 56754 18732 7324 411
leaf_count=217172 14719 18149 59236 1356 37440 4362 167188 89250 809 34892 9707 4278 170087 11292 16131 9931 627 64769 35418 24215 1045 1227 2416 4837 147 670 56754 18732 7324 411
internal_value=0 1.1141 -0.125032 1.63892 0.209303 1.48757 -0.216755 -0.151639 4.08629 0.415402 1.18042 2.01663 -0.243751 1.87075 -0.222829 1.02299 5.5912 -0.00424263 0.289728 0.610141 0.897323 3.29061 2.46318 1.99381 6.19956 0.27755 -0.046193 0.363611 1.45584 3.69223
internal_weight=0 109438 975153 78588 209933 74011 765220 548048 4577 150697 46826 27185 337275 20491 30850 29795 1583 210773 91590 59107 19864 2994 6694 16129 956 1715 146004 56172 17031 1767
internal_count=1084591 109438 975153 78588 209933 74011 765220 548048 4577 150697 46826 27185 337275 20491 30850 29795 1583 210773 91590 59107 19864 2994 6694 16129 956 1715 146004 56172 17031 1767
is_linear=0
shrinkage=0.05


Tree=10
num_leaves=31
num_cat=0
split_feature=13 0 11 11 0 13 13 0 13 11 11 1 11 13 13 0 1 1 13 6 0 13 9 6 13 1 0 0 11 6
split_gain=5.4598e+07 2.84737e+07 1.21549e+07 8.86592e+06 7.34037e+06 4.14111e+06 4.04055e+06 2.37108e+06 2.00025e+06 1.52941e+06 647692 626000 474020 441516 435168 412626 350587 301241 270250 269935 267593 254038 205604 197387 195930 192584 181758 180565 179575 171958
threshold=26.450000000000003 2.5000000000000004 64.785714285714292 11.642857142857144 2.5000000000000004 41.416666666666671 93.88333333333334 2.5000000000000004 5.0500000000000007 17.785714285714288 139.50000000000003 -0.21694186955877909 34.928571428571438 51.750000000000007 8.7500000000000018 1.5000000000000002 -0.21694186955877909 -0.21694186955877909 1.9833333333333336 0.57622690609284799 3.5000000000000004 15.016666666666667 0.93301270189221952 0.57622690609284799 77.250000000000014 -0.21694186955877909 3.5000000000000004 1.5000000000000002 24.071428571428573 0.57622690609284799
decision_type=2 2 2 2 2 2 2 2 2 2 2 2 2 2 2 2 2 2 2 2 2 2 2 2 2 2 2 2 2 2
left_child=3 15 5 7 27 12 16 -1 18 21 20 13 19 -7 25 -2 24 28 -9 22 -8 -6 -3 -15 -4 -10 -12 -5 -11 -13
right_child=1 2 6 4 9 11 10 8 14 17 26 29 -14 23 -16 -17 -18 -19 -20 -21 -22 -23 -24 -25 -26 -27 -28 -29 -30 -31
leaf_value=-0.36523603359374684 -0.045650253562248444 0.74500620413114393 2.5795924381895929 -0.22621452097625463 0.11572465006427793 1.6105179752030407 3.0390907679436476 -0.34175529814184952 -0.06965854000098963 0.49515597251282845 4.5621009603927005 1.2439785605169291 1.1349013350953541 1.904552745607768 0.02231068785482165 -0.38244940152309381 2.110419490049932 0.35214146186671619 -0.22909105795948359 1.0097062603754721 4.6253254794816145 0.28379220399850719 0.16827495222090788 2.4043498328739581 3.2913327639694359 -0.17832111218314847 6.5094752077500306 -0.38753879688264153 0.72298536435620298 1.6328585122302248
leaf_weight=201413 17379 19280 3861 35112 65415 12420 338 77242 101834 32556 152 9130 16257 5872 91047 19076 3520 30812 171201 10466 1246 34259 1680 2977 1290 68006 566 34278 11778 4128
leaf_count=201413 17379 19280 3861 35112 65415 12420 338 77242 101834 32556 152 9130 16257 5872 91047 19076 3520 30812 171201 10466 1246 34259 1680 2977 1290 68006 566 34278 11778 4128
internal_value=0 0.962831 1.42632 -0.130707 0.129198 1.21769 2.98938 -0.220011 -0.162582 0.301901 4.85151 1.63472 0.915716 1.80281 -0.0658875 -0.221889 2.49502 0.472225 -0.264119 0.80233 4.28685 0.173491 0.69878 2.0727 2.75784 -0.113168 6.09722 -0.305907 0.555682 1.36506
internal_weight=0 129638 93183 954953 244210 82210 10973 710743 509330 174820 2302 34527 47683 21269 260887 36455 8671 75146 248443 31426 1584 99674 20960 8849 5151 169840 718 69390 44334 13258
internal_count=1084591 129638 93183 954953 244210 82210 10973 710743 509330 174820 2302 34527 47683 21269 260887 36455 8671 75146 248443 31426 1584 99674 20960 8849 5151 169840 718 69390 44334 13258
is_linear=0
shrinkage=0.05


Tree=11
num_leaves=31
num_cat=0
split_feature=11 0 11 13 0 11 13 0 11 13 1 11 11 13 0 13 11 1 1 1 1 1 13 11 7 1 0 11 1 7
split_gain=4.93304e+07 2.52858e+07 1.00643e+07 9.04836e+06 7.56376e+06 3.3126e+06 3.28348e+06 2.11136e+06 1.84142e+06 1.7168e+06 569862 430514 426365 376959 372723 347723 324550 303915 303625 276734 275620 229314 205768 178472 171678 160621 160608 159966 156502 153350
threshold=28.642857142857149 2.5000000000000004 67.214285714285737 11.440804597701151 2.5000000000000004 110.92857142857144 43.716666666666676 2.5000000000000004 6.0714285714285721 19.516666666666669 -0.21694186955877909 40.071428571428577 87.642857142857153 3.916666666666667 1.5000000000000002 54.616666666666674 15.785714285714286 -0.21694186955877909 -0.21694186955877909 -0.21694186955877909 -0.21694186955877909 -0.21694186955877909 24.81666666666667 139.50000000000003 4.5000000000000009 -0.21694186955877909 1.5000000000000002 9.7857142857142865 -0.21694186955877909 11.500000000000002
decision_type=2 2 2 2 2 2 2 2 2 2 2 2 2 2 2 2 2 2 2 2 2 2 2 2 2 2 2 2 2 2
left_child=3 14 6 7 26 12 11 -1 13 16 15 19 21 -9 -2 24 28 22 23 -3 27 -4 -11 -7 -8 -14 -5 -10 -6 -12
right_child=1 2 5 4 9 18 10 8 20 17 29 -13 25 -15 -16 -17 -18 -19 -20 -21 -22 -23 -24 -25 -26 -27 -28 -29 -30 -31
leaf_value=-0.34577187848250768 -0.027795750203509093 0.98799349407537018 2.617449676830307 -0.21829481255991748 0.18861501444289588 5.0048469523588821 1.9615975081317225 -0.27961787733583815 -0.028959016640847407 0.51825755416881025 1.3999811215174176 1.2458889452973831 3.7383423696834228 -0.16622148321135075 -0.36251755059708302 2.0745046493977126 0.30072542478961029 0.37812913565965095 4.2040779669271515 0.69414084824234956 -0.10946994295440647 2.0032021847683659 0.75676528715835489 6.3787143085604523 1.5270270716182257 2.6885980094713688 -0.3678032176930448 0.095996096041061976 0.039037747076759804 0.61800146330406058
leaf_weight=201966 16517 19821 3795 34254 45860 528 3019 179022 86249 25560 11236 9826 888 124088 16752 7099 45931 24355 627 13448 83852 2534 13994 428 9193 618 37769 36432 28266 664
leaf_count=201966 16517 19821 3795 34254 45860 528 3019 179022 86249 25560 11236 9826 888 124088 16752 7099 45931 24355 627 13448 83852 2534 13994 428 9193 618 37769 36432 28266 664
internal_value=0 0.969755 1.43312 -0.117254 0.137674 2.97294 1.23795 -0.20896 -0.154743 0.307731 1.62851 0.955098 2.55144 -0.233195 -0.196339 1.79623 0.19629 0.517082 5.05913 0.869212 -0.0396045 2.37152 0.60264 5.61993 1.63446 3.30757 -0.296697 0.00814832 0.131578 1.35635
internal_weight=0 116993 83724 967598 255989 9418 74306 711609 509643 183966 31211 43095 7835 303110 33269 19311 120057 63909 1583 33269 206533 6329 39554 956 12212 1506 72023 122681 74126 11900
internal_count=1084591 116993 83724 967598 255989 9418 74306 711609 509643 183966 31211 43095 7835 303110 33269 19311 120057 63909 1583 33269 206533 6329 39554 956 12212 1506 72023 122681 74126 11900
is_linear=0
shrinkage=0.05


Tree=12
num_leaves=31
num_cat=0
split_feature=13 0 11 11 0 11 1 13 11 13 13 13 11 6 1 7 0 1 1 1 6 6 0 13 7 6 1 11 6 2
split_gain=4.46012e+07 2.26192e+07 8.87126e+06 8.65768e+06 6.71167e+06 3.84237e+06 2.35822e+06 2.1514e+06 1.23758e+06 1.17378e+06 730632 616234 430832 367691 342995 336366 322716 283182 274022 251346 225199 223754 218837 198777 185657 182337 178924 163119 159792 159662
threshold=29.483333333333338 2.5000000000000004 13.214285714285717 82.785714285714292 2.5000000000000004 47.500000000000007 0.6078576107927941 6.7833333333333341 110.92857142857144 21.050000000000004 63.050000000000004 37.916666666666671 3.9285714285714293 0.57622690609284799 -0.21694186955877909 11.500000000000002 1.5000000000000002 -0.21694186955877909 -0.21694186955877909 -0.21694186955877909 0.57622690609284799 0.81489021779111204 3.5000000000000004 9.9500000000000011 4.5000000000000009 0.67904876271727266 -0.21694186955877909 17.785714285714288 0.64631020410879603 1.0000000180025095e-35
decision_type=2 2 2 2 2 2 2 2 2 2 2 2 2 2 2 2 2 2 2 2 2 2 2 2 2 2 2 2 2 2
left_child=2 16 6 5 29 11 7 12 25 19 14 26 -1 15 28 -13 -2 23 21 27 -12 -10 -11 -9 -24 -5 -3 -6 -7 -4
right_child=1 3 4 8 9 10 -8 17 18 22 20 13 -14 -15 -16 -17 -18 -19 -20 -21 -22 -23 24 -25 -26 -27 -28 -29 -30 -31
leaf_value=-0.26027116478232948 -0.020889066394798879 0.94633243087822683 -0.34893897970576138 2.7422666132386282 0.25280442046289053 1.6620065170618021 -0.3281636573229671 -0.010333760769028304 5.0128589586510204 0.34240175655114219 1.9843690010790103 1.1350875304648091 -0.14626433760036953 1.4960879973677785 1.3572570527649608 0.28169587072334251 -0.34466024796062705 -0.078577172968525164 3.9938740827060011 0.15689216622423061 2.5834379727041901 7.1334254764375231 0.77129851085536061 0.1177492610532356 0.53106188262586862 3.8667170455539805 0.67473363516140139 0.42270034339294782 2.0761103203727953 -0.18769938085208512
leaf_weight=189725 14719 15553 30398 1751 37763 9790 214989 75119 809 10975 4925 11792 147132 7220 8942 1280 16131 80907 627 41842 2302 147 10847 50761 31101 454 9939 22573 3057 31021
leaf_count=189725 14719 15553 30398 1751 37763 9790 214989 75119 809 10975 4925 11792 147132 7220 8942 1280 16131 80907 627 41842 2302 147 10847 50761 31101 454 9939 22573 3057 31021
internal_value=0 0.957111 -0.107413 1.40749 0.174875 1.28939 -0.187981 -0.132544 3.73954 0.350053 1.73954 1.0041 -0.210475 1.2097 1.59504 1.05152 -0.190184 -0.00559336 4.80618 0.251061 2.17519 5.33893 0.541177 0.0413156 0.593183 2.97379 0.84044 0.316366 1.76054 -0.267501
internal_weight=0 109438 975153 78588 216520 74800 758633 543644 3788 155101 29016 45784 336857 20292 21789 13072 30850 206787 1583 102178 7227 956 52923 125880 41948 2205 25492 60336 12847 61419
internal_count=1084591 109438 975153 78588 216520 74800 758633 543644 3788 155101 29016 45784 336857 20292 21789 13072 30850 206787 1583 102178 7227 956 52923 125880 41948 2205 25492 60336 12847 61419
is_linear=0
shrinkage=0.05


Tree=13
num_leaves=31
num_cat=0
split_feature=11 1 11 13 1 13 13 1 13 13 11 6 6 1 7 1 3 7 11 1 1 13 3 1 2 7 1 13 13 6
split_gain=4.02919e+07 2.08886e+07 8.92697e+06 6.72965e+06 5.82438e+06 3.87925e+06 2.03488e+06 1.57666e+06 1.43079e+06 1.16173e+06 514128 469028 421634 399761 314062 313480 312305 297573 285266 241114 238975 225510 224891 220687 216861 200516 186982 186026 180030 172668
threshold=27.214285714285719 0.6078576107927941 57.785714285714292 10.750000000000002 0.6078576107927941 93.88333333333334 39.050000000000004 -1.0000000180025095e-35 17.016666666666669 4.6500000000000012 139.50000000000003 0.57622690609284799 0.57622690609284799 -0.21694186955877909 11.500000000000002 0.87837969732492682 17.500000000000004 11.500000000000002 70.357142857142875 -0.21694186955877909 1.0000000180025095e-35 7.9166666666666679 17.500000000000004 -0.21694186955877909 -0.22252093395631442 4.5000000000000009 1.0000000180025095e-35 1.7500000000000002 25.616666666666671 0.79542423842148879
decision_type=2 2 2 2 2 2 2 2 2 2 2 2 2 2 2 2 2 2 2 2 2 2 2 2 2 2 2 2 2 2
left_child=3 2 6 7 8 13 19 9 26 27 23 14 17 18 20 -3 -16 -10 -4 25 -8 -11 -19 -7 -9 -2 -5 -1 -14 -12
right_child=1 15 5 4 -6 10 11 24 12 21 29 -13 28 -15 16 -17 -18 22 -20 -21 -22 -23 -24 -25 -26 -27 -28 -29 -30 -31
leaf_value=-0.30046106206246259 1.0810009663220719 -0.032426428306517895 1.9701697406241234 0.15865982341259008 -0.27053387084293412 4.1204875936826788 1.3093144871747711 -0.22150344771910563 0.35433072862590037 -0.090309212549234186 4.942147133603001 1.5721849749054633 0.49704402390182767 1.6550891151228482 0.9193530469309199 -0.32727565096620026 -0.6229103252125372 0.18984157020095505 2.5583947641280984 0.62058917953956594 0.89533072034540062 0.015887580774528866 -0.5539443550203853 2.9022007057543946 -0.31324118082908531 0.76973379890448923 -0.0014602668971268567 -0.18943774081997933 0.82202623172106692 7.0637636084305617
leaf_weight=53318 7530 17886 5788 88225 76621 999 15988 96306 53071 130806 604 10404 22058 6095 1228 18175 448 2902 3201 16869 4458 80912 1564 592 194576 16536 22982 129053 5282 114
leaf_count=53318 7530 17886 5788 88225 76621 999 15988 96306 53071 130806 604 10404 22058 6095 1228 18175 448 2902 3201 16869 4458 80912 1564 592 194576 16536 22982 129053 5282 114
internal_value=0 0.837141 1.24127 -0.110941 0.0991203 2.25984 1.0001 -0.194572 0.243565 -0.1294 4.16838 1.29532 0.398164 1.96768 1.16511 -0.181033 0.507101 0.321345 2.17964 0.76553 1.21905 -0.0497241 -0.0706334 3.66717 -0.282868 0.867126 0.125569 -0.221897 0.55983 5.27901
internal_weight=0 126915 90854 957676 272705 17393 73461 684971 196084 394089 2309 32526 84877 15084 22122 36061 1676 57537 8989 40935 20446 211718 4466 1591 290882 24066 111207 182371 27340 718
internal_count=1084591 126915 90854 957676 272705 17393 73461 684971 196084 394089 2309 32526 84877 15084 22122 36061 1676 57537 8989 40935 20446 211718 4466 1591 290882 24066 111207 182371 27340 718
is_linear=0
shrinkage=0.05


Tree=14
num_leaves=31
num_cat=0
split_feature=13 0 13 12 1 13 1 11 11 13 0 11 13 13 11 6 0 6 7 1 1 3 7 0 11 6 7 6 7 6
split_gain=3.64535e+07 1.81866e+07 7.77554e+06 6.87873e+06 5.70127e+06 2.81317e+06 2.05621e+06 1.98644e+06 959563 948150 469908 438770 424659 328668 304105 303933 270391 238913 237533 229266 204324 204054 182655 181841 183031 179678 189059 167391 166438 165680
threshold=30.716666666666672 2.5000000000000004 13.750000000000002 81.821428571428598 0.6078576107927941 49.183333333333344 0.6078576107927941 6.3571428571428585 110.92857142857144 21.883333333333336 3.5000000000000004 41.785714285714292 63.050000000000004 3.916666666666667 9.9285714285714306 0.57622690609284799 1.5000000000000002 0.73539920077185827 11.500000000000002 1.0000000180025095e-35 -0.21694186955877909 17.500000000000004 6.5000000000000009 3.5000000000000004 139.50000000000003 0.57622690609284799 11.500000000000002 0.67904876271727266 4.5000000000000009 0.57622690609284799
decision_type=2 2 2 2 2 2 2 2 2 2 2 2 2 2 2 2 2 2 2 2 2 2 2 2 2 2 2 2 2 2
left_child=2 16 6 5 9 11 7 13 27 19 -7 15 22 -1 -9 18 -2 23 -3 25 28 -20 -12 -10 -25 26 -4 -5 -11 -14
right_child=1 3 4 8 -6 10 -8 14 17 20 12 -13 29 -15 -16 -17 -18 -19 21 -21 -22 -23 -24 24 -26 -27 -28 -29 -30 -31
leaf_value=-0.241284415286522 -0.0053219326392990153 0.78418888428253619 0.26924364550742796 2.4812603928801185 -0.24064045507556933 1.2186909035983495 -0.29519555748131449 -0.053140944982947191 2.8414553280784052 0.79709303124484887 1.7842845019991973 1.1728961827216455 1.9108334091797978 -0.13862252444392528 0.061431934090534296 1.074452098153077 -0.3112179303656461 5.6609331408718182 0.5962394813388151 0.099792758110080371 0.395151183438047 -0.5255676249524851 1.4261662735149503 3.7441465548166253 5.0687791120260961 0.40951677525557006 -0.081881464477782578 3.5601580847660785 0.53204346579808914 2.4881397713850375
leaf_weight=179806 13792 17324 49570 1633 57751 5742 220545 140589 247 7969 6472 15715 3829 137640 98489 9532 15170 285 1061 19451 19997 656 7915 571 480 22835 4155 461 23069 1840
leaf_count=179806 13792 17324 49570 1633 57751 5742 220545 140589 247 7969 6472 15715 3829 137640 98489 9532 15170 285 1061 19451 19997 656 7915 571 480 22835 4155 461 23069 1840
internal_value=0 0.896179 -0.0937603 1.31305 0.18032 1.20246 -0.165994 -0.114793 3.42107 0.345648 1.61751 0.960686 1.73169 -0.196772 -0.00594226 0.843972 -0.165547 4.35005 0.728592 0.253081 0.519792 0.16764 1.58727 4.06222 4.34912 0.292026 0.242088 2.71878 0.600095 2.09821
internal_weight=0 102725 981866 73763 204797 70086 777069 556524 3677 147046 25798 44288 20056 317446 239078 28573 28962 1583 19041 96011 51035 1717 14387 1298 1051 76560 53725 2094 31038 5669
internal_count=1084591 102725 981866 73763 204797 70086 777069 556524 3677 147046 25798 44288 20056 317446 239078 28573 28962 1583 19041 96011 51035 1717 14387 1298 1051 76560 53725 2094 31038 5669
is_linear=0
shrinkage=0.05


Tree=15
num_leaves=31
num_cat=0
split_feature=11 0 11 13 0 11 0 13 11 13 6 1 13 6 1 0 1 1 11 7 1 0 12 1 6 12 6 3 11 2
split_gain=3.29671e+07 1.65122e+07 6.859e+06 6.29389e+06 5.14271e+06 2.45542e+06 1.78696e+06 1.68376e+06 1.14138e+06 913164 513384 390005 348334 252562 247880 243207 239420 235831 220676 217904 216196 197013 193280 188393 176010 162795 159597 142792 141001 134952
threshold=30.642857142857149 2.5000000000000004 13.500000000000002 77.250000000000014 2.5000000000000004 49.785714285714292 2.5000000000000004 6.847701149425288 110.92857142857144 22.483333333333338 0.57622690609284799 -0.21694186955877909 2.508620689655173 0.57622690609284799 -0.21694186955877909 1.5000000000000002 -0.21694186955877909 -0.21694186955877909 60.357142857142868 11.500000000000002 -0.21694186955877909 3.5000000000000004 39.678571428571438 -0.21694186955877909 0.81489021779111204 40.678571428571438 0.57622690609284799 16.500000000000004 18.071428571428573 1.0000000180025095e-35
decision_type=2 2 2 2 2 2 2 2 2 2 2 2 2 2 2 2 2 2 2 2 2 2 2 2 2 2 2 2 2 2
left_child=2 15 6 5 29 10 -1 12 21 16 14 18 -8 19 25 -2 28 26 -7 -11 24 -5 -12 -14 -10 -3 -9 -21 -6 -4
right_child=1 3 4 8 9 11 7 17 20 13 22 -13 23 -15 -16 -17 -18 -19 -20 27 -22 -23 -24 -25 -26 -27 -28 -29 -30 -31
leaf_value=-0.28143919556778119 -0.0099734310767295806 0.80027628641951221 -0.30486283101279915 1.7531255468985218 0.23491346441394692 1.5289813741982625 -0.256628583165949 0.0042467778498966663 4.3309621759695025 0.46182060326370467 0.99921845792861486 1.2856127603273626 -0.11007265447422317 0.67675631542451364 0.63713249561433705 -0.29560809236425473 0.14697094204705682 -0.066539647448188077 1.924683799323778 0.31178020455574124 3.4190167420192972 2.7062236079348301 1.3843074375224127 -0.20112261074960874 6.2195260851350547 1.0936707556296177 0.1247315214173796 -0.47189065791561363 0.38488316955514301 -0.15520435443294781
leaf_weight=217189 14840 12000 30434 719 37263 8466 104448 86965 796 27632 7234 9822 140299 14488 13355 14970 44335 81717 6035 1296 616 2205 5929 95474 146 7802 40186 1054 27051 29825
leaf_count=217189 14840 12000 30434 719 37263 8466 104448 86965 796 27632 7234 9822 140299 14488 13355 14970 44335 81717 6035 1296 616 2205 5929 95474 146 7802 40186 1054 27051 29825
internal_value=0 0.842275 -0.0902196 1.23737 0.160496 1.12209 -0.160034 -0.112013 3.05429 0.314485 0.908483 1.52889 -0.180616 0.505342 0.803602 -0.153414 0.236367 -0.000266381 1.69366 0.422511 4.14738 2.47186 1.17267 -0.146942 4.62367 0.915874 0.0423259 -0.0397045 0.297992 -0.23079
internal_weight=0 104935 979656 75125 213378 70643 766278 549089 4482 153119 46320 24323 340221 44470 33157 29810 108649 208868 14501 29982 1558 2924 13163 235773 942 19802 127151 2350 64314 60259
internal_count=1084591 104935 979656 75125 213378 70643 766278 549089 4482 153119 46320 24323 340221 44470 33157 29810 108649 208868 14501 29982 1558 2924 13163 235773 942 19802 127151 2350 64314 60259
is_linear=0
shrinkage=0.05


Tree=16
num_leaves=31
num_cat=0
split_feature=13 0 11 13 1 11 13 0 11 13 6 11 13 7 3 7 0 1 6 0 1 7 1 1 0 6 11 3 6 1
split_gain=2.97992e+07 1.56031e+07 7.14382e+06 4.59731e+06 4.0428e+06 2.97328e+06 1.67366e+06 1.06505e+06 1.06465e+06 741637 408542 388223 345899 322604 301084 242275 237543 216864 205467 203634 195895 191665 182535 171889 157317 156287 151387 150340 149412 142884
threshold=25.616666666666671 2.5000000000000004 57.071428571428577 10.050000000000002 0.6078576107927941 96.214285714285737 37.916666666666671 3.5000000000000004 16.214285714285719 4.3166666666666673 0.57622690609284799 139.50000000000003 70.350000000000009 11.500000000000002 17.500000000000004 4.5000000000000009 1.5000000000000002 -0.21694186955877909 0.57622690609284799 3.5000000000000004 -0.21694186955877909 11.500000000000002 -0.21694186955877909 -0.21694186955877909 3.5000000000000004 0.64631020410879603 7.5000000000000009 17.500000000000004 0.57622690609284799 0.87837969732492682
decision_type=2 2 2 2 2 2 2 2 2 2 2 2 2 2 2 2 2 2 2 2 2 2 2 2 2 2 2 2 2 2
left_child=3 16 6 7 8 12 15 29 18 -9 13 20 22 19 -15 -3 -2 -10 21 -8 25 -5 -4 -12 -17 -7 -11 -23 -14 -1
right_child=1 2 5 4 -6 11 10 9 17 26 23 -13 28 14 -16 24 -18 -19 -20 -21 -22 27 -24 -25 -26 -27 -28 -29 -30 -31
leaf_value=-0.22197863846343477 -0.033156215488806449 0.81625301893428837 1.7025432149437987 0.063831488844409506 -0.23044866376685613 3.2226712045429231 0.72871194844096765 -0.19718927890604612 0.37834099450483433 -0.090887654467033022 1.4894545833835271 4.562259574509361 1.8680878173202211 0.74512194974396073 -0.64880247592950635 0.34342795668659254 -0.28234624736650099 0.21932694107630002 0.17992230995341871 1.1015621778838403 2.478471751347894 -0.031525529900063784 1.3014283294060283 1.0855289959237675 0.60917730419261906 4.6659802331480869 -0.0044644448177106394 -0.51561366632410521 2.5140005191507884 -0.29801473219865349
leaf_weight=184993 18264 11832 6845 75935 83050 687 4682 166456 52404 125304 6835 721 2963 1316 549 7064 20076 36290 39203 16810 630 4297 4843 4285 26312 258 85076 2559 1283 92769
leaf_count=184993 18264 11832 6845 75935 83050 687 4682 166456 52404 125304 6835 721 2963 1316 549 7064 20076 36290 39203 16810 630 4297 4843 4285 26312 258 85076 2559 1283 92769
internal_value=0 0.691424 1.02624 -0.0993424 0.0649995 1.91914 0.821961 -0.173088 0.181461 -0.118332 1.08436 3.60132 1.67675 0.965598 0.334792 0.621849 -0.16364 0.313279 0.085624 1.02034 3.16142 0.0409721 1.53634 1.33381 0.552932 3.61672 -0.0559388 -0.212211 2.06326 -0.247374
internal_weight=0 136255 97915 948336 293738 18230 79685 654598 210688 376836 34477 2296 15934 23357 1865 45208 38340 88694 121994 21492 1575 82791 11688 11120 33376 945 210380 6856 4246 277762
internal_count=1084591 136255 97915 948336 293738 18230 79685 654598 210688 376836 34477 2296 15934 23357 1865 45208 38340 88694 121994 21492 1575 82791 11688 11120 33376 945 210380 6856 4246 277762
is_linear=0
shrinkage=0.05


Tree=17
num_leaves=31
num_cat=0
split_feature=11 0 13 13 1 13 12 0 11 13 0 11 11 13 7 6 1 0 0 13 11 5 10 7 6 1 3 7 6 6
split_gain=2.69682e+07 1.37376e+07 5.64468e+06 4.98192e+06 3.69749e+06 1.82479e+06 1.74692e+06 1.54619e+06 1.27565e+06 520523 356362 258907 258020 251914 244916 243265 226399 210718 208915 201384 195270 194638 252691 192409 180659 167007 161143 188747 160209 152475
threshold=28.642857142857149 2.5000000000000004 66.116666666666688 13.750000000000002 0.6078576107927941 43.716666666666676 101.39285714285715 3.5000000000000004 6.3571428571428585 21.31666666666667 3.5000000000000004 139.50000000000003 37.071428571428577 2.2500000000000004 6.5000000000000009 0.57622690609284799 0.87837969732492682 3.5000000000000004 1.5000000000000002 6.3166666666666673 9.6428571428571441 0.99661920126966319 369.50000000000006 11.500000000000002 0.57622690609284799 1.0000000180025095e-35 9.5000000000000018 11.500000000000002 0.57622690609284799 0.57622690609284799
decision_type=2 2 2 2 2 2 2 2 2 2 2 2 2 2 2 2 2 2 2 2 2 2 2 2 2 2 2 2 2 2
left_child=3 18 5 7 9 12 17 16 13 25 -7 29 28 -9 21 23 19 -4 -2 -1 -10 -12 -23 -11 -19 -5 -16 -28 -3 -8
right_child=1 2 6 4 -6 10 11 8 20 15 14 -13 -14 -15 26 -17 -18 24 -20 -21 -22 22 -24 -25 -26 -27 27 -29 -30 -31
leaf_value=-0.23756262425931382 -0.01630674867510792 0.53896087738512044 1.3889167031150498 0.24419041879181103 -0.2103217912082346 0.8784956405020673 2.7844429515647118 -0.23418585885688539 -0.031117245582223996 0.37130499613259982 1.4896442114432278 4.3341465833034993 0.86706902056799928 -0.12417730861725525 1.4007350625586461 0.57680949568957884 -0.28312643241702073 1.8410583354225603 -0.26690387447865427 -0.1410685586530589 0.069922209681788056 -2.3442502689361571 2.1177023228732024 -0.087667802284960253 2.4723261292181311 0.075329177392437094 1.1002565723591948 0.26262740866782575 0.81033916568934294 4.0437676114541992
leaf_weight=123951 16517 19969 1654 72022 53462 6612 864 73162 105483 28678 10947 721 15690 180259 4449 15566 110775 3689 16752 95909 87471 75 55 2481 1636 18379 8828 728 7474 333
leaf_count=123951 16517 19969 1654 72022 53462 6612 864 73162 105483 28678 10947 721 15690 180259 4449 15566 110775 3689 16752 95909 87471 75 55 2481 1636 18379 8828 728 7474 333
internal_value=0 0.717019 1.05856 -0.0866953 0.142384 0.916993 2.24918 -0.142885 -0.0821815 0.279896 1.20504 3.58564 0.705337 -0.155936 1.29112 0.415396 -0.224838 1.88188 -0.14249 -0.195469 0.0146865 1.4668 -0.456501 0.33476 2.035 0.20986 1.15217 1.03644 0.61287 3.13478
internal_weight=0 116993 83724 967598 190588 74827 8897 777010 446375 137126 31694 1918 43133 253421 25082 46725 330635 6979 33269 219860 192954 11077 130 31159 5325 90401 14005 9556 27443 1197
internal_count=1084591 116993 83724 967598 190588 74827 8897 777010 446375 137126 31694 1918 43133 253421 25082 46725 330635 6979 33269 219860 192954 11077 130 31159 5325 90401 14005 9556 27443 1197
is_linear=0
shrinkage=0.05


Tree=18
num_leaves=31
num_cat=0
split_feature=13 1 11 11 1 13 1 13 11 11 6 1 11 7 6 3 7 1 1 6 1 7 3 10 11 3 6 1 1 6
split_gain=2.43917e+07 1.20196e+07 5.37616e+06 4.60296e+06 3.87908e+06 1.78889e+06 1.41209e+06 1.36374e+06 693096 646117 326278 317307 303193 262001 239767 210778 256105 192687 191305 185867 184915 177224 193072 170594 154225 153293 152369 145764 139027 136257
threshold=31.31666666666667 0.6078576107927941 14.071428571428573 82.785714285714292 0.6078576107927941 50.416666666666671 0.6078576107927941 7.116666666666668 22.642857142857149 110.92857142857144 0.57622690609284799 1.0000000180025095e-35 4.0714285714285721 4.5000000000000009 0.57622690609284799 9.5000000000000018 11.500000000000002 -0.21694186955877909 -0.21694186955877909 0.64631020410879603 0.87837969732492682 11.500000000000002 16.500000000000004 48.500000000000007 64.785714285714292 17.500000000000004 0.81489021779111204 -0.21694186955877909 1.0000000180025095e-35 0.57622690609284799
decision_type=2 2 2 2 2 2 2 2 2 2 2 2 2 2 2 2 2 2 2 2 2 2 2 2 2 2 2 2 2 2
left_child=2 3 6 5 8 11 7 12 14 -5 15 13 -1 23 -4 -7 28 26 29 21 -3 -15 -23 -2 -12 -18 -11 -10 -17 -9
right_child=1 20 4 9 -6 10 -8 18 27 17 24 -13 -14 19 -16 16 25 -19 -20 -21 -22 22 -24 -25 -26 -27 -28 -29 -30 -31
leaf_value=-0.19367060383579804 0.17150959401608479 0.0033892014862977036 0.1625998147925134 2.2325681783971874 -0.1936127237506112 1.5601539850535726 -0.24227310620238157 0.012507070315047273 0.51340736237205042 3.7342329673644055 1.502533973783386 0.54378446274772951 -0.10028556644245903 0.75768834804165042 0.33658198887181345 1.2705977026505106 0.71057732535023732 2.8753988173684815 -0.050892843728654637 1.0013876627631999 -0.25354744615312685 0.66011056848145822 -0.36823984755308103 1.1384500189868727 2.05113518379722 -0.97269830627100817 5.4841351599920367 0.33888098379602849 0.86310250188015258 0.12466302759177772
leaf_weight=197890 479 13374 70048 2205 58083 3648 221102 85835 29078 809 5437 9010 154993 16075 27607 9265 380 627 80456 7405 14699 1136 763 9561 1676 210 147 20327 2704 39562
leaf_count=197890 479 13374 70048 2205 58083 3648 221102 85835 29078 809 5437 9010 154993 16075 27607 9265 380 627 80456 7405 14699 1136 763 9561 1676 210 147 20327 2704 39562
internal_value=0 0.745626 -0.0754043 1.08969 0.15235 0.994856 -0.135317 -0.0929924 0.288992 2.78586 1.34949 0.808715 -0.152654 0.876109 0.211784 1.22559 1.12841 3.55656 0.00928249 0.790576 -0.131143 0.703725 0.246929 1.09232 1.6318 0.111445 4.00331 0.441601 1.17854 0.0478916
internal_weight=0 99610 984981 71537 205143 67749 779838 558736 147060 3788 23320 44429 352883 35419 97655 16207 12559 1583 205853 25379 28073 17974 1899 10040 7113 590 956 49405 11969 125397
internal_count=1084591 99610 984981 71537 205143 67749 779838 558736 147060 3788 23320 44429 352883 35419 97655 16207 12559 1583 205853 25379 28073 17974 1899 10040 7113 590 956 49405 11969 125397
is_linear=0
shrinkage=0.05


Tree=19
num_leaves=31
num_cat=0
split_feature=11 1 13 11 0 11 1 13 11 13 6 6 1 6 13 1 1 13 6 13 9 6 9 0 1 0 3 3 1 11
split_gain=2.2047e+07 1.09071e+07 4.79073e+06 4.20783e+06 3.46368e+06 1.54765e+06 1.32021e+06 1.09275e+06 754447 553931 362344 337080 230727 227346 224945 194170 181277 177967 177469 175021 173505 168144 168296 164556 150417 147311 139302 133224 128577 127361
threshold=31.357142857142858 0.6078576107927941 14.083333333333334 79.214285714285737 2.5000000000000004 49.785714285714292 -1.0000000180025095e-35 6.5166666666666675 110.92857142857144 22.483333333333338 0.57622690609284799 0.67904876271727266 -0.21694186955877909 0.57622690609284799 2.183333333333334 0.87837969732492682 -0.21694186955877909 9.6500000000000004 0.73539920077185827 6.5166666666666675 0.93301270189221952 0.57622690609284799 0.93301270189221952 1.5000000000000002 -0.21694186955877909 3.5000000000000004 17.500000000000004 16.500000000000004 -0.21694186955877909 139.50000000000003
decision_type=2 2 2 2 2 2 2 2 2 2 2 2 2 2 2 2 2 2 2 2 2 2 2 2 2 2 2 2 2 2
left_child=2 3 6 5 -4 10 7 14 24 21 16 12 -7 20 -1 19 -2 -9 25 -8 -11 22 -6 -3 -5 -10 -24 -22 -12 -27
right_child=1 23 4 8 9 11 15 17 18 13 28 -13 -14 -15 -16 -17 -18 -19 -20 -21 27 -23 26 -25 -26 29 -28 -29 -30 -31
leaf_value=-0.21471209673090552 0.7608388673899299 -0.001470879505633338 -0.18680022354888676 2.3244690430211326 0.18752110838898528 1.2939225435399468 -0.21424817741794633 -0.024126535478768214 2.0319011737701866 0.37406191698860536 1.1109996809074902 1.5934242412396882 0.93540136419364028 0.57242864504305324 -0.1101500721152795 -0.25694373889040428 0.51541204427277942 0.073385283801565587 4.5085442099027473 -0.12441343606925635 0.26450678871637273 0.3100491580630968 0.056251666342284824 -0.24085238753743529 1.6046172028524155 2.884237997276927 -0.51675178712066838 -0.46945385862559513 0.78198589261048779 3.9892103919883568
leaf_weight=70400 18693 14257 55897 1772 61842 11135 127892 104761 247 29446 7525 5546 7517 15697 190949 111880 12592 84560 285 94117 1402 28276 3657 14461 1229 571 1494 1106 4905 480
leaf_count=70400 18693 14257 55897 1772 61842 11135 127892 104761 247 29446 7525 5546 7517 15697 190949 111880 12592 84560 285 94117 1402 28276 3657 14461 1229 571 1494 1106 4905 480
internal_value=0 0.702666 -0.0723226 1.02934 0.146906 0.930377 -0.127878 -0.0720501 2.49554 0.277421 0.752793 1.25119 1.14943 0.416605 -0.138316 -0.203232 0.662056 0.019427 3.37873 -0.176164 0.340059 0.207804 0.16465 -0.122012 2.02967 3.13066 -0.109943 -0.0591617 0.981168 3.38889
internal_weight=0 101215 983376 72497 198817 67913 784559 450670 4584 142920 43715 24198 18652 47651 261349 333889 31285 189321 1583 222009 31954 95269 66993 28718 3001 1298 5151 2508 12430 1051
internal_count=1084591 101215 983376 72497 198817 67913 784559 450670 4584 142920 43715 24198 18652 47651 261349 333889 31285 189321 1583 222009 31954 95269 66993 28718 3001 1298 5151 2508 12430 1051
is_linear=0
shrinkage=0.05


Tree=20
num_leaves=31
num_cat=0
split_feature=13 0 11 11 0 0 13 11 13 11 6 11 13 7 7 3 1 1 1 5 6 0 0 1 7 0 3 1 6 6
split_gain=1.99364e+07 9.81191e+06 4.39102e+06 3.77907e+06 3.16537e+06 1.16058e+06 1.14239e+06 1.12832e+06 1.0216e+06 572133 285795 265096 222278 220146 194194 202247 190221 187908 177776 157066 153894 152226 150955 147747 144686 142460 136293 130919 128463 127399
threshold=31.31666666666667 2.5000000000000004 14.071428571428573 70.357142857142875 2.5000000000000004 2.5000000000000004 93.88333333333334 6.5000000000000009 46.95000000000001 21.785714285714288 0.57622690609284799 139.50000000000003 4.2500000000000009 4.5000000000000009 11.500000000000002 17.500000000000004 -0.21694186955877909 -0.21694186955877909 -0.21694186955877909 -0.81970999721622462 0.10452846326765323 1.5000000000000002 3.5000000000000004 -0.21694186955877909 11.500000000000002 3.5000000000000004 30.500000000000004 -0.21694186955877909 0.57622690609284799 0.79542423842148879
decision_type=2 2 2 2 2 2 2 2 2 2 2 2 2 2 2 2 2 2 2 2 2 2 2 2 2 2 2 2 2 2
left_child=2 21 5 8 -4 -1 27 12 13 16 14 25 -7 18 22 -16 28 -9 -3 24 -21 -2 -10 -11 -15 -8 -20 -5 -6 -13
right_child=1 3 4 6 9 7 11 17 10 23 -12 29 -14 19 15 -17 -18 -19 26 20 -22 -23 -24 -25 -26 -27 -28 -29 -30 -31
leaf_value=-0.21928088376320096 0.0039944786810446643 1.0446081385273656 -0.17485812793077204 1.8396494276018509 0.19384859542463689 -0.17718868237561861 1.6873925495647386 0.036462659193629697 0.75259464367550077 0.45388277943756972 1.34284022236808 3.4739683684603073 -0.092418268719510088 0.44889452423060483 0.74276187396596516 -0.82114258406683804 0.094766655252452175 -0.055107659631103083 0.66659861263723863 0.5450178070290046 0.8123144014857715 -0.22912771580076169 1.1084080585666352 0.28917084326913117 -0.47130177499698739 2.8509074432162014 -1.6403270442669209 1.3392100422470845 0.36363651536900221 5.2963712767550817
leaf_weight=221102 13374 6570 58083 3196 38865 198493 334 140284 3852 33204 8191 604 126684 4591 790 280 36297 93275 4266 11270 10312 14699 13181 23077 471 1239 65 2211 15617 114
leaf_count=221102 13374 6570 58083 3196 38865 198493 334 140284 3852 33204 8191 604 126684 4591 790 280 36297 93275 4266 11270 10312 14699 13181 23077 471 1239 65 2211 15617 114
internal_value=0 0.674098 -0.0681707 0.984965 0.137661 -0.122317 2.03149 -0.083946 0.858769 0.261094 1.09778 2.96723 -0.144163 0.691383 0.986896 0.333516 0.183441 -0.000107207 0.880668 0.61394 0.672734 -0.118068 1.02794 0.386346 0.363274 2.60385 0.631976 1.63501 0.242517 3.76332
internal_weight=0 99610 984981 71537 205143 779838 7698 558736 63839 147060 26294 2291 325177 37545 18103 1070 90779 233559 10901 26644 21582 28073 17033 56281 5062 1573 4331 5407 54482 718
internal_count=1084591 99610 984981 71537 205143 779838 7698 558736 63839 147060 26294 2291 325177 37545 18103 1070 90779 233559 10901 26644 21582 28073 17033 56281 5062 1573 4331 5407 54482 718
is_linear=0
shrinkage=0.05


Tree=21
num_leaves=31
num_cat=0
split_feature=11 1 13 11 0 11 11 1 13 13 6 11 0 1 6 6 7 0 13 0 3 7 3 7 6 1 1 10 1 13
split_gain=1.80442e+07 9.32684e+06 4.32234e+06 2.95663e+06 2.51185e+06 1.77524e+06 933885 742427 616114 419200 244260 239744 235700 208943 202671 196938 181110 177504 182826 154204 153119 148013 141460 172447 141099 125924 122605 118212 112601 110578
threshold=26.642857142857149 0.6078576107927941 56.31666666666667 10.785714285714286 2.5000000000000004 96.214285714285737 40.071428571428577 -0.21694186955877909 16.616666666666671 4.2500000000000009 0.57622690609284799 139.50000000000003 3.5000000000000004 -0.21694186955877909 0.57622690609284799 0.57622690609284799 11.500000000000002 2.5000000000000004 4.7166666666666677 1.5000000000000002 17.500000000000004 4.5000000000000009 10.500000000000002 11.500000000000002 0.57622690609284799 -0.8783796973249266 -0.21694186955877909 966.50000000000011 -0.21694186955877909 8.7500000000000018
decision_type=2 2 2 2 2 2 2 2 2 2 2 2 2 2 2 2 2 2 2 2 2 2 2 2 2 2 2 2 2 2
left_child=3 2 6 7 -5 12 14 9 28 -1 16 24 -4 21 26 22 -10 -9 -19 -3 -18 -8 -14 -24 -7 -13 -2 -26 -6 -11
right_child=1 19 5 4 8 11 13 17 10 29 -12 25 15 -15 -16 -17 20 18 -20 -21 -22 -23 23 -25 27 -27 -28 -29 -30 -31
leaf_value=-0.14331446728528521 0.52136823383776265 -0.016933310306897841 0.96473261757323547 -0.17820657080226754 0.12272890674595038 2.1713948059211692 1.1855740434389863 -0.21086817787650092 0.22754218879627014 -0.04529128856756745 0.38395205443963087 4.9012557650955628 1.6300410829748231 0.70819489792596946 0.6782556926427955 1.7308870619009333 0.10307972741603875 -0.19364945998826047 -0.096772576512022326 -0.22032767466134576 -0.51446416692347652 0.87637068999478451 1.2239948240486482 -0.11898684575181291 3.4660337183243612 3.2397230000693562 0.32521635786330916 0.30814350321888928 0.020338959292326278 0.045748317430788374
leaf_weight=119440 19735 18500 3576 77284 65535 1132 5693 192697 53579 127577 26971 142 2288 12436 12536 3699 3026 93546 101589 18777 1502 12089 5971 249 401 579 13359 32 45490 45161
leaf_count=119440 19735 18500 3576 77284 65535 1132 5693 192697 53579 127577 26971 142 2288 12436 12536 3699 3026 93546 101589 18777 1502 12089 5971 249 401 579 13359 32 45490 45161
internal_value=0 0.549777 0.815377 -0.0756531 0.0632144 1.51034 0.649818 -0.131482 0.158358 -0.0712907 0.2596 2.81257 1.32173 0.865412 0.507043 1.42631 0.201881 -0.176829 -0.143215 -0.119386 -0.101768 0.975364 1.29389 1.17023 2.46502 3.56696 0.442188 3.23266 0.0807769 -0.0214897
internal_weight=0 131194 93917 953397 273387 18069 75848 680010 196103 292178 85078 2286 15783 30218 45630 12207 58107 387832 195135 37277 4528 17782 8508 6220 1565 721 33094 433 111025 172738
internal_count=1084591 131194 93917 953397 273387 18069 75848 680010 196103 292178 85078 2286 15783 30218 45630 12207 58107 387832 195135 37277 4528 17782 8508 6220 1565 721 33094 433 111025 172738
is_linear=0
shrinkage=0.05


Tree=22
num_leaves=31
num_cat=0
split_feature=13 0 13 12 0 11 0 13 11 11 6 6 7 5 13 6 6 7 1 0 13 5 1 7 0 0 2 6 19 7
split_gain=1.63188e+07 7.93951e+06 3.72237e+06 3.06386e+06 2.60348e+06 1.16799e+06 1.03888e+06 877722 417486 409095 305270 249871 239022 216565 213721 209374 195893 177162 159928 148441 145877 142429 139058 126935 126749 126455 121400 116120 107293 105382
threshold=31.983333333333338 2.5000000000000004 14.616666666666669 81.821428571428598 2.5000000000000004 52.071428571428577 3.5000000000000004 7.2373563218390808 139.50000000000003 24.071428571428573 0.57622690609284799 0.51448200516348142 11.500000000000002 -0.15123342103804657 2.6500000000000004 0.57622690609284799 0.57622690609284799 11.500000000000002 0.87837969732492682 3.5000000000000004 6.9833333333333343 -0.34685948904333841 -0.21694186955877909 6.5000000000000009 1.5000000000000002 3.5000000000000004 1.0000000180025095e-35 0.79542423842148879 65.500000000000014 1.5000000000000002
decision_type=2 2 2 2 2 2 2 2 2 2 2 2 2 2 2 2 2 2 2 2 2 2 2 2 2 2 2 2 2 2
left_child=2 24 6 5 26 10 18 14 16 15 12 22 19 -14 -8 17 -5 -6 20 -3 -1 -19 -7 -9 -2 -12 -4 -10 -21 -11
right_child=1 3 4 8 9 11 7 23 27 29 25 -13 13 -15 -16 -17 -18 21 -20 28 -22 -23 -24 -25 -26 -27 -28 -29 -30 -31
leaf_value=-0.18256033401783553 0.0097220990415916048 0.41356620114267256 -0.22883768405158167 1.8108711977116005 0.17084073674256209 1.1461413219633554 -0.17574382336648295 0.07768069141886387 3.1136230289911517 0.71991580904385932 0.57754311658191615 1.3973047399981087 -0.46299915639243311 0.49734226809146764 -0.082951372340583474 0.30370247324628069 2.7491815610797539 -0.49097898150511443 -0.22299778113113564 0.64639272453228225 -0.100158405827425 0.051247395544093133 0.83811750893900039 -0.0093752461880149927 -0.20660223975788111 0.94715109405241305 -0.079278532811621047 4.8528055218228126 0.95974713856881333 0.36570281098523971
leaf_weight=136821 12931 6087 27942 2213 60358 8994 90114 79526 607 2220 2914 6203 973 1480 199272 30956 743 1795 113504 18238 88419 3723 6183 88435 14215 11242 26377 114 3213 38779
leaf_count=136821 12931 6087 27942 2213 60358 8994 90114 79526 607 2220 2914 6203 973 1480 199272 30956 743 1795 113504 18238 88419 3723 6183 88435 14215 11242 26377 114 3213 38779
internal_value=0 0.621136 -0.0605586 0.905404 0.136961 0.826595 -0.108233 -0.0590762 2.30984 0.2525 0.679692 1.12993 0.589361 0.116416 -0.111847 0.196449 2.04672 0.146049 -0.174601 0.631489 -0.150213 -0.125138 1.02065 0.0318439 -0.103556 0.871068 -0.156213 3.38861 0.693328 0.384883
internal_weight=0 96350 988241 69204 192150 65527 796091 457347 3677 137831 44147 21380 29991 2453 289386 96832 2956 65876 338744 27538 225240 5518 15177 167961 27146 14156 54319 721 21451 40999
internal_count=1084591 96350 988241 69204 192150 65527 796091 457347 3677 137831 44147 21380 29991 2453 289386 96832 2956 65876 338744 27538 225240 5518 15177 167961 27146 14156 54319 721 21451 40999
is_linear=0
shrinkage=0.05


Tree=23
num_leaves=31
num_cat=0
split_feature=13 0 11 13 1 13 13 11 1 11 6 0 7 3 15 1 0 6 7 7 7 3 0 1 10 4 10 3 1 6
split_gain=1.47633e+07 7.73586e+06 3.87445e+06 2.18715e+06 1.94434e+06 1.44598e+06 961082 515561 513466 295046 266447 230461 202486 202910 190815 188878 176824 168930 165060 161647 146631 133310 132270 128945 134836 269968 132271 126732 126495 121110
threshold=24.81666666666667 2.5000000000000004 57.785714285714292 9.6500000000000004 0.6078576107927941 93.88333333333334 36.850000000000009 17.071428571428573 -0.21694186955877909 4.7857142857142865 0.57622690609284799 3.5000000000000004 11.500000000000002 16.500000000000004 207.00000000000003 -0.21694186955877909 3.5000000000000004 0.57622690609284799 11.500000000000002 4.5000000000000009 4.5000000000000009 17.500000000000004 1.5000000000000002 -0.21694186955877909 112.50000000000001 30.500000000000004 882.50000000000011 9.5000000000000018 -0.21694186955877909 0.052264231633826527
decision_type=2 2 2 2 2 2 2 2 2 2 2 2 2 2 2 2 2 2 2 2 2 2 2 2 2 2 2 2 2 2
left_child=3 22 6 8 7 15 16 17 9 -1 12 -7 27 -14 -13 19 -3 18 -5 -4 -18 -20 -2 26 25 -25 -12 -8 -9 -21
right_child=1 2 5 4 -6 11 10 28 -10 -11 23 14 13 -15 -16 -17 20 -19 21 29 -22 -23 -24 24 -26 -27 -28 -29 -30 -31
leaf_value=-0.12216593134390302 -0.01951010821642616 0.22902722559654701 1.7223230248529706 0.045200755679667803 -0.16279894598248779 1.5899710237775868 0.93442775421900903 0.28015592520648491 -0.16349174073338613 -0.01771143495589822 1.1846972949790755 2.5952368043336609 0.56220575050388577 -0.47700821164693386 4.0380594968020258 0.99013247950287209 0.63151065551589758 0.14195958195015373 -0.04087999308482082 1.04888202210328 0.40702727824221763 -0.46775380969192554 -0.20096977518362108 1.2973975481918536 0.81376501107531718 -1.635471672069527 0.66211342460332345 0.64529392681913889 0.14681162305031417 1.4767337103346021
leaf_weight=142591 19192 10007 2208 91633 86444 493 4746 43198 364745 128554 5878 1547 1286 740 269 6092 9830 46066 5184 3913 27981 2826 21065 148 4352 167 1525 18813 30233 2865
leaf_count=142591 19192 10007 2208 91633 86444 493 4746 43198 364745 128554 5878 1547 1286 740 269 6092 9830 46066 5184 3913 27981 2826 21065 148 4352 167 1525 18813 30233 2865
internal_value=0 0.473138 0.703111 -0.0719235 0.0380103 1.38349 0.564706 0.117223 -0.124753 -0.0726425 0.753645 2.54869 0.662291 0.182631 2.80896 1.20506 0.415924 0.0627799 0.0261743 1.35077 0.465388 -0.191485 -0.114461 0.947288 0.741461 -0.257489 1.07705 0.70354 0.225255 1.22973
internal_weight=0 143117 102860 941474 305584 17387 85473 219140 635890 271145 37655 2309 25585 2026 1816 15078 47818 145709 99643 8986 37811 8010 40257 12070 4667 315 7403 23559 73431 6778
internal_count=1084591 143117 102860 941474 305584 17387 85473 219140 635890 271145 37655 2309 25585 2026 1816 15078 47818 145709 99643 8986 37811 8010 40257 12070 4667 315 7403 23559 73431 6778
is_linear=0
shrinkage=0.05


Tree=24
num_leaves=31
num_cat=0
split_feature=11 0 11 11 1 12 1 13 13 11 0 1 1 1 7 7 13 5 1 1 13 1 15 3 7 13 0 14 19 0
split_gain=1.33676e+07 6.51847e+06 3.00824e+06 2.58762e+06 2.29136e+06 753520 706956 667953 555459 508495 192728 181734 179609 156026 160276 154026 148821 146542 141859 121816 119177 117844 117424 116055 109690 109592 106515 104991 104017 101830
threshold=32.071428571428577 2.5000000000000004 12.785714285714286 70.357142857142875 0.6078576107927941 101.39285714285715 -1.0000000180025095e-35 48.016666666666673 5.9166666666666679 19.785714285714288 3.5000000000000004 -0.21694186955877909 -0.21694186955877909 -0.21694186955877909 4.5000000000000009 6.5000000000000009 1.4166666666666667 0.99661920126966319 -0.21694186955877909 -0.21694186955877909 10.15 0.87837969732492682 207.00000000000003 8.5000000000000018 4.5000000000000009 5.7120689655172425 4.5000000000000009 1.6250000000000002 55.500000000000007 1.5000000000000002
decision_type=2 2 2 2 2 2 2 2 2 2 2 2 2 2 2 2 2 2 2 2 2 2 2 2 2 2 2 2 2 2
left_child=2 29 6 7 9 19 8 13 16 18 -9 24 22 14 -3 17 -1 28 -4 27 -10 25 -7 -17 -11 -8 -24 -5 -12 -2
right_child=1 3 4 5 -6 12 21 10 20 11 15 -13 -14 -15 -16 23 -18 -19 -20 -21 -22 -23 26 -25 -26 -27 -28 -29 -30 -31
leaf_value=-0.20088353014088323 0.0056440693045346803 0.85331679838693653 0.16907801593770577 2.9440585263073444 -0.14717091297571083 2.6536273127321053 -0.17334437816503426 0.65064091484992392 -0.023727812725764214 0.47861317861498409 1.0155312499656786 0.19771666551537936 1.9432413944707063 0.4590337914883823 0.56940215876306211 1.1348714666803301 -0.095806179702345826 -1.3933619831289565 0.045132479117590787 1.114421376063899 0.064487275533098812 -0.20368245474010613 3.1389703562922691 0.76267583094314528 0.30676613312682421 -0.10125505290906998 5.2495990922715929 1.5266861005883472 1.3786171436491381 -0.1860260546708094
leaf_weight=40682 13752 7444 57741 136 67896 888 111909 5340 138010 12987 4540 30286 766 15927 14962 2890 196243 56 38463 2325 52986 107444 178 7608 32584 99678 90 3324 3488 13968
leaf_count=40682 13752 7444 57741 136 67896 888 111909 5340 138010 12987 4540 30286 766 15927 14962 2890 196243 56 38463 2325 52986 107444 178 7608 32584 99678 90 3324 3488 13968
internal_value=0 0.557951 -0.0552247 0.81505 0.0987919 1.67929 -0.104702 0.70806 -0.0627017 0.19585 0.915381 0.292649 2.53702 0.578679 0.663728 0.99146 -0.113849 1.1555 0.119524 1.39432 0.000744766 -0.161038 2.93047 0.865138 0.35574 -0.139383 3.84776 1.5824 1.17328 -0.0909378
internal_weight=0 97682 986909 69962 239957 7707 746952 62255 427921 172061 23922 75857 1922 38333 22406 18582 236925 8084 96204 5785 190996 319031 1156 10498 45571 211587 268 3460 8028 27720
internal_count=1084591 97682 986909 69962 239957 7707 746952 62255 427921 172061 23922 75857 1922 38333 22406 18582 236925 8084 96204 5785 190996 319031 1156 10498 45571 211587 268 3460 8028 27720
is_linear=0
shrinkage=0.05


Tree=25
num_leaves=31
num_cat=0
split_feature=11 0 13 11 0 11 11 13 0 13 6 6 0 6 18 0 7 7 3 10 7 6 3 10 0 0 6 7 7 5
split_gain=1.20848e+07 6.26437e+06 3.16933e+06 1.83628e+06 1.64945e+06 1.1145e+06 807123 453786 424843 304409 193417 178474 176517 168303 163141 154855 148070 141214 152816 166603 132907 125214 116133 115271 116215 111610 110183 149740 105448 101789
threshold=25.500000000000004 2.5000000000000004 58.150000000000006 9.7857142857142865 2.5000000000000004 96.214285714285737 40.071428571428577 16.016666666666669 3.5000000000000004 4.2500000000000009 0.57622690609284799 0.57622690609284799 3.5000000000000004 0.9162516346314159 170.50000000000003 3.5000000000000004 11.500000000000002 4.5000000000000009 7.5000000000000009 130.50000000000003 7.5000000000000009 0.9162516346314159 17.500000000000004 42.500000000000007 3.5000000000000004 1.5000000000000002 0.57622690609284799 11.500000000000002 11.500000000000002 -0.20460510545321003
decision_type=2 2 2 2 2 2 2 2 2 2 2 2 2 2 2 2 2 2 2 2 2 2 2 2 2 2 2 2 2 2
left_child=3 25 6 8 -5 15 11 -6 -1 -10 16 -3 -7 23 21 -4 -9 -17 -19 -20 -16 -14 -18 -8 -25 -2 27 -11 -21 -30
right_child=1 2 5 4 7 12 13 10 9 26 -12 -13 14 -15 20 17 22 18 19 28 -22 -23 -24 24 -26 -27 -28 -29 29 -31
leaf_value=-0.15998611168894045 -0.013821597320236143 0.3430536456097969 0.80892302966887852 -0.14838789804931993 0.051405008370352771 1.4425142549763443 -0.37969511140229217 0.17093864132375161 -0.12829951707562384 -0.044798764779525227 0.30815167760686979 0.54978486750779987 2.1108418591416038 1.052302040046637 4.1270596602048535 1.6044394693207467 0.055144170035841461 1.5028293803800352 -1.7073994930301393 1.0773804528253423 2.3579964204974799 3.6980430879832613 -0.46799186003906246 0.47940503608631035 0.73652749027975428 -0.18125215378627924 0.017420871633397152 -0.22230902528060079 -0.95854854484399166 0.85759685031845034
leaf_weight=272435 19764 37971 3109 86807 133801 465 255 53876 163026 124293 27435 14399 1248 3364 251 1871 3172 2046 56 6213 184 138 1594 5415 23322 20052 64568 13136 126 199
leaf_count=272435 19764 37971 3109 86807 133801 465 255 53876 163026 124293 27435 14399 1248 3364 251 1871 3172 2046 56 6213 184 138 1594 5415 23322 20052 64568 13136 126 199
internal_value=0 0.43273 0.642775 -0.0643717 0.0361593 1.29039 0.521196 0.109018 -0.112738 -0.0774739 0.198573 0.399894 2.31198 0.71753 2.53401 1.11892 0.147308 1.21061 1.12533 1.00819 3.37877 2.26887 -0.11982 0.678686 0.688077 -0.0981424 -0.036454 -0.0617659 1.03145 0.153491
internal_weight=0 140448 100632 944143 306685 15906 84726 219878 637458 365023 86077 52370 2286 32356 1821 13620 58642 10511 8640 6594 435 1386 4766 28992 28737 39816 201997 137429 6538 325
internal_count=1084591 140448 100632 944143 306685 15906 84726 219878 637458 365023 86077 52370 2286 32356 1821 13620 58642 10511 8640 6594 435 1386 4766 28992 28737 39816 201997 137429 6538 325
is_linear=0
shrinkage=0.05


Tree=26
num_leaves=31
num_cat=0
split_feature=13 0 13 11 0 13 0 11 11 13 0 1 13 1 7 7 10 7 0 18 1 5 5 7 13 0 13 1 1 13
split_gain=1.09598e+07 5.29253e+06 2.49269e+06 2.11014e+06 1.80223e+06 714148 652880 550749 374444 326976 196660 162508 156018 155499 154980 152097 142037 140899 130870 124283 113723 104761 104000 103421 100935 100829 99534 93964.8 93252.4 87869
threshold=31.983333333333338 2.5000000000000004 13.750000000000002 79.214285714285737 2.5000000000000004 51.750000000000007 3.5000000000000004 7.0714285714285721 139.50000000000003 22.483333333333338 3.5000000000000004 -0.21694186955877909 1.6103448275862071 -0.21694186955877909 4.5000000000000009 4.5000000000000009 48.500000000000007 4.5000000000000009 3.5000000000000004 156.50000000000003 0.87837969732492682 -0.81970999721622462 -0.81970999721622462 4.5000000000000009 4.9166666666666679 1.5000000000000002 44.81666666666667 -0.21694186955877909 -0.8783796973249266 70.350000000000009
decision_type=2 2 2 2 2 2 2 2 2 2 2 2 2 2 2 2 2 2 2 2 2 2 2 2 2 2 2 2 2 2
left_child=2 -2 6 5 25 10 20 12 13 17 -3 15 -8 19 16 -7 -12 27 -11 -5 24 -16 -17 -20 -1 -4 -23 -6 -10 -24
right_child=1 3 4 8 9 11 7 -9 28 18 14 -13 -14 -15 21 22 -18 -19 23 -21 -22 26 29 -25 -26 -27 -28 -29 -30 -31
leaf_value=-0.16226088403740629 -0.082650871363660325 0.34758227593030355 -0.063326461153266844 1.6817747943820014 0.30687293542888511 1.3780210012201328 -0.17645594594130454 0.020181096449493049 3.9726838932910433 0.14118850936933289 -0.071020475877606778 0.73169144815885845 -0.077502048044955252 1.1980448215245285 0.33049668432039647 0.60937607977621211 0.81755828705957689 0.10454829336328747 0.47722911054603706 2.6748282049829513 -0.18558696203308764 0.51543742156329619 0.95227354594055802 0.29248700431170732 -0.093883114496229395 -0.19348689900583865 0.74906598253818046 0.12382645070925964 2.5428547275826876 1.4309586788585613
leaf_weight=95117 27146 9036 28904 1918 17760 2454 48131 167215 142 10526 472 7573 231065 1561 4711 1933 9531 71702 10148 377 110783 13967 7073 29885 124758 30663 6768 11584 579 1109
leaf_count=95117 27146 9036 28904 1918 17760 2454 48131 167215 142 10526 472 7573 231065 1561 4711 1933 9531 71702 10148 377 110783 13967 7073 29885 124758 30663 6768 11584 579 1109
internal_value=0 0.509032 -0.0496288 0.741125 0.102701 0.66765 -0.0910251 -0.0515812 1.7786 0.19426 0.555809 0.914658 -0.0945609 1.58304 0.608886 1.0249 0.77563 0.142319 0.298069 1.8449 -0.144277 0.543337 0.939228 0.339317 -0.123463 -0.130328 0.591695 0.234612 2.82446 1.01716
internal_weight=0 96350 988241 69204 211172 64627 777069 446411 4577 151605 44485 20142 279196 3856 35449 12569 10003 101046 50559 2295 330658 25446 10115 40033 219875 59567 20735 29344 721 8182
internal_count=1084591 96350 988241 69204 211172 64627 777069 446411 4577 151605 44485 20142 279196 3856 35449 12569 10003 101046 50559 2295 330658 25446 10115 40033 219875 59567 20735 29344 721 8182
is_linear=0
shrinkage=0.05


Tree=27
num_leaves=31
num_cat=0
split_feature=11 1 11 13 1 1 11 11 11 13 6 1 11 6 1 1 6 1 6 7 6 1 1 1 7 13 7 1 1 10
split_gain=9.9035e+06 4.7254e+06 2.34739e+06 1.87735e+06 1.67741e+06 639744 600437 424359 327024 311091 213019 176159 210279 160955 132480 129706 121980 117362 115049 107666 101921 98001.2 97911 97471.2 96944 95057 88444.6 85443.9 85184.6 83377.2
threshold=33.214285714285722 0.6078576107927941 14.357142857142859 77.250000000000014 0.6078576107927941 -0.21694186955877909 51.500000000000007 5.2142857142857153 110.92857142857144 23.750000000000004 0.57622690609284799 0.6078576107927941 6.6428571428571432 0.9162516346314159 -0.21694186955877909 -0.21694186955877909 0.73539920077185827 -0.21694186955877909 0.57622690609284799 4.5000000000000009 0.57622690609284799 -0.21694186955877909 1.0000000180025095e-35 1.0000000180025095e-35 4.5000000000000009 1.4166666666666667 11.500000000000002 0.87837969732492682 0.87837969732492682 130.50000000000003
decision_type=2 2 2 2 2 2 2 2 2 2 2 2 2 2 2 2 2 2 2 2 2 2 2 2 2 2 2 2 2 2
left_child=2 3 5 6 9 7 10 25 22 15 21 12 -7 17 20 19 23 24 26 -4 -11 -2 -5 -10 -8 -1 -9 -6 -3 -26
right_child=1 28 4 8 27 11 13 18 16 14 -12 -13 -14 -15 -16 -17 -18 -19 -20 -21 -22 -23 -24 -25 29 -27 -28 -29 -30 -31
leaf_value=-0.17391846577563905 0.5373333727163393 0.017400790840309856 0.28920019132508273 1.5614336547199763 -0.062007698423928483 -0.13369231621445885 1.1648477797698413 0.0048973972100715317 2.2973145154067232 0.30659218965230078 0.71700725452046665 -0.15610647342730624 -0.035566801388584611 1.2770895329599403 0.19471521592372087 0.079501383913546442 3.232131620640653 0.66752600751092739 0.081147014601627668 0.14763497798335365 0.51346408921033404 0.34926785845863551 0.88953214097251243 1.1859950202532479 -0.27006872509207047 -0.07468664619444855 -0.15562351004613373 -0.18318877452797241 -0.1629785014717523 0.85485695778094239
leaf_weight=29747 17218 12980 19816 2205 28887 133085 2955 118520 1031 18232 11401 222887 92576 2100 16591 42299 283 7880 52578 41682 8841 11590 719 244 168 127891 9251 29301 13203 8430
leaf_count=29747 17218 12980 19816 2205 28887 133085 2955 118520 1031 18232 11401 222887 92576 2100 16591 42299 283 7880 52578 41682 8841 11590 719 244 168 127891 9251 29301 13203 8430
internal_value=0 0.495079 -0.0461092 0.719901 0.104296 -0.0854344 0.648175 -0.0334865 1.70797 0.193998 0.53407 -0.124578 -0.0934369 0.861245 0.305969 0.146896 2.29307 0.816307 0.0188929 0.19325 0.374149 0.461671 1.39622 2.08464 0.917787 -0.0934121 -0.00672479 -0.123029 -0.073557 0.832877
internal_weight=0 92407 992184 66224 205649 786535 61742 337987 4482 147461 40209 448548 225661 21533 43664 103797 1558 19433 180349 61498 27073 28808 2924 1275 11553 157638 127771 58188 26183 8598
internal_count=1084591 92407 992184 66224 205649 786535 61742 337987 4482 147461 40209 448548 225661 21533 43664 103797 1558 19433 180349 61498 27073 28808 2924 1275 11553 157638 127771 58188 26183 8598
is_linear=0
shrinkage=0.05


Tree=28
num_leaves=31
num_cat=0
split_feature=13 0 13 11 1 13 0 11 11 11 6 0 6 13 6 7 5 7 7 5 1 6 10 5 7 6 6 6 1 7
split_gain=8.96126e+06 4.27975e+06 2.11607e+06 1.70711e+06 1.46567e+06 669503 582352 612791 242397 206228 180047 174787 156165 148595 136468 141860 135615 175479 128566 118315 117663 110316 124055 105337 95420.5 102846 93485 90841.9 90601.7 87200.1
threshold=32.650000000000006 2.5000000000000004 14.616666666666669 87.642857142857153 0.6078576107927941 53.050000000000004 2.5000000000000004 7.2142857142857153 23.214285714285719 139.50000000000003 0.57622690609284799 3.5000000000000004 0.57622690609284799 1.7500000000000002 0.57622690609284799 11.500000000000002 0.81970999721622506 11.500000000000002 11.500000000000002 0.050584160993716654 -0.21694186955877909 0.64631020410879603 882.50000000000011 -0.15123342103804657 1.5000000000000002 0.9162516346314159 0.79542423842148879 0.57622690609284799 -0.21694186955877909 4.5000000000000009
decision_type=2 2 2 2 2 2 2 2 2 2 2 2 2 2 2 2 2 2 2 2 2 2 2 2 2 2 2 2 2 2
left_child=2 -2 6 5 8 11 -1 13 12 20 16 -3 18 -8 15 -13 17 29 -4 -17 21 -5 -23 -20 -10 -26 -11 -9 -15 -7
right_child=1 3 4 9 -6 10 7 27 24 26 -12 14 -14 28 -16 19 -18 -19 23 -21 -22 22 -24 -25 25 -27 -28 -29 -30 -31
leaf_value=-0.14820606482728763 -0.071578807947994913 0.32189999438103867 0.11784105202255613 1.6321197400354848 -0.1148987374486371 1.0284971994753922 -0.16124562283957708 -0.0062810043180829972 0.57629558845005546 2.3240309694257166 1.1005200921925546 0.53884725413991397 0.23578763273772899 -0.055334593285026261 0.7198139505640726 -0.32205477531444238 1.029349585781987 -0.32028830534986713 -0.41079144735068768 0.47222490003843476 1.1744436418061193 3.004999113951337 0.32524495929479602 0.043897234280848407 0.23769664200385707 0.48520432773518851 3.884524065778967 0.06708028967189722 -0.11236567645589864 0.6441735917066751
leaf_weight=225793 26297 9018 56260 1044 55168 1828 65966 156205 2554 607 5904 22923 29387 174362 10482 911 3673 425 2139 966 950 317 50 3149 42008 4663 114 57817 115948 7663
leaf_count=225793 26297 9018 56260 1044 55168 1828 65966 156205 2554 607 5904 22923 29387 174362 10482 911 3673 425 2139 966 950 317 50 3149 42008 4663 114 57817 115948 7663
internal_value=0 0.468821 -0.0440591 0.681321 0.103412 0.625794 -0.0802423 -0.053334 0.18934 1.83064 0.869981 0.518347 0.140962 -0.0935049 0.568558 0.504628 0.769819 0.673686 0.0956861 0.0867221 1.60462 1.89425 2.63991 -0.140025 0.278711 0.262426 2.57077 0.0135372 -0.0781125 0.718196
internal_weight=0 93172 991419 66875 195328 63793 796091 570298 140160 3082 19493 44300 90935 356276 35282 24800 13589 9916 61548 1877 2361 1411 367 5288 49225 46671 721 214022 290310 9491
internal_count=1084591 93172 991419 66875 195328 63793 796091 570298 140160 3082 19493 44300 90935 356276 35282 24800 13589 9916 61548 1877 2361 1411 367 5288 49225 46671 721 214022 290310 9491
is_linear=0
shrinkage=0.05


Tree=29
num_leaves=31
num_cat=0
split_feature=11 0 11 13 0 12 13 1 11 11 6 7 6 3 0 6 1 6 1 1 13 7 10 7 3 7 3 5 2 7
split_gain=8.09551e+06 3.85635e+06 1.92995e+06 1.57615e+06 1.51689e+06 506420 424987 410776 321261 247302 167774 145289 137892 127795 123021 114543 109584 107759 103321 102527 116479 102342 97748.8 95307.9 91732.2 106428 90747.6 86919.1 84932.4 84896.4
threshold=33.214285714285722 2.5000000000000004 11.785714285714286 66.116666666666688 2.5000000000000004 101.39285714285715 20.016666666666669 -0.21694186955877909 47.500000000000007 4.9285714285714297 0.57622690609284799 11.500000000000002 0.57622690609284799 16.500000000000004 3.5000000000000004 0.10452846326765323 -0.21694186955877909 0.57622690609284799 -0.21694186955877909 0.87837969732492682 5.116666666666668 4.5000000000000009 962.50000000000011 4.5000000000000009 10.500000000000002 11.500000000000002 9.5000000000000018 -0.78630360970286417 1.0000000180025095e-35 1.5000000000000002
decision_type=2 2 2 2 2 2 2 2 2 2 2 2 2 2 2 2 2 2 2 2 2 2 2 2 2 2 2 2 2 2
left_child=2 -2 7 8 28 17 18 9 12 -1 11 26 -3 -13 -7 -16 21 24 23 20 -9 -10 27 -6 -5 -26 29 -17 -4 -8
right_child=1 3 4 5 6 14 10 19 16 -11 -12 13 -14 -15 15 22 -18 -19 -20 -21 -22 -23 -24 -25 25 -27 -28 -29 -30 -31
leaf_value=-0.087672118186778336 -0.066080146918108651 0.38990782214659103 -0.1675068692284444 1.2920211264502843 0.2084339736490034 1.1879541247227174 1.0564888054643995 -0.13404764902454078 0.99562507678091894 0.0020231482097502851 0.3486510774108782 0.13244102577882969 0.61553464033221583 -0.45178418418906913 1.8184926369342436 1.5248415814408174 0.56532896722235904 1.3700131560129596 0.031685917415320154 -0.16099594314974455 -0.072277169366438465 0.69817452823750192 0.19631358481742242 0.0856574700965929 0.86691996876930377 -0.46913418969951381 0.17575765762136022 3.1106038212863667 -0.063299898680106645 0.31496880291512841
leaf_weight=148867 26183 23823 39416 1354 23268 383 402 153392 4036 158846 23488 2282 9461 1587 883 104 9812 2116 50127 103042 151887 10200 37 49292 3348 156 37790 511 38802 9696
leaf_count=148867 26183 23823 39416 1354 23268 383 402 153392 4036 158846 23488 2282 9461 1587 883 104 9812 2116 50127 103042 151887 10200 37 49292 3348 156 37790 511 38802 9696
internal_value=0 0.447613 -0.0416884 0.650712 0.0706017 1.2701 0.144268 -0.0849949 0.554648 -0.0413701 0.237822 0.187526 0.454042 -0.107199 1.98961 2.18964 0.693893 1.07221 0.0868909 -0.117871 -0.103315 0.782504 2.69228 0.125029 0.942499 0.807438 0.211337 2.84244 -0.115812 0.344489
internal_weight=0 92407 992184 66224 276150 8892 197932 716034 57332 307713 75245 51757 33284 3869 1918 1535 24048 6974 122687 408321 305279 14236 652 72560 4858 3504 47888 615 78218 10098
internal_count=1084591 92407 992184 66224 276150 8892 197932 716034 57332 307713 75245 51757 33284 3869 1918 1535 24048 6974 122687 408321 305279 14236 652 72560 4858 3504 47888 615 78218 10098
is_linear=0
shrinkage=0.05


Tree=30
num_leaves=31
num_cat=0
split_feature=13 1 11 13 1 13 13 13 1 1 6 7 11 3 7 1 6 15 1 8 3 7 7 9 10 1 7 10 2 1
split_gain=7.33015e+06 3.82539e+06 2.01622e+06 1.12945e+06 994355 657322 548172 284476 249334 199265 157684 156296 146717 139376 162864 136540 128078 120371 102977 100399 99623.6 97160.4 94422.5 93678.2 88249.8 86638.3 86743.6 95633.9 277071 85635.8
threshold=24.81666666666667 0.6078576107927941 60.357142857142868 9.1500000000000004 1.0000000180025095e-35 93.88333333333334 40.250000000000007 15.813793103448278 -0.21694186955877909 0.87837969732492682 0.57622690609284799 4.5000000000000009 3.6428571428571437 9.5000000000000018 11.500000000000002 1.0000000180025095e-35 0.9162516346314159 207.00000000000003 1.0000000180025095e-35 1.0000000180025095e-35 17.500000000000004 4.5000000000000009 7.5000000000000009 0.86602540378443849 42.500000000000007 -0.21694186955877909 4.5000000000000009 130.50000000000003 1.0000000180025095e-35 0.87837969732492682
decision_type=2 2 2 2 2 2 2 2 2 2 2 2 2 2 2 2 2 2 2 2 2 2 2 2 2 2 2 2 2 2
left_child=3 2 6 8 7 16 11 21 12 -6 13 24 -1 -8 -15 17 25 23 -13 -9 -16 -5 -19 -7 -2 26 -4 28 -28 -3
right_child=1 29 5 4 9 15 10 19 -10 -11 -12 18 -14 14 20 -17 -18 22 -20 -21 -22 -23 -24 -25 -26 -27 27 -29 -30 -31
leaf_value=-0.098717694447492316 -0.17489671481238556 -0.0034138176438595 1.2814343679585578 0.12551892332627779 -0.033780930318345261 1.9376906122683153 0.73490360483689054 0.12295785360494954 -0.11842419157797734 -0.15909217524859495 0.72399480282476292 0.29830252103976901 -0.022477971511487324 0.46778563119450745 0.22629594914900319 1.074184626268325 1.40965277355103 3.6921511522645867 0.10217469589620275 0.2430755987657571 -0.7062644376714271 0.024071248495178513 1.7412568087123106 0.2488118123991051 0.47179984126406443 0.6756537921631075 1.4765269402047281 0.89131408159490233 -3.3824384002685548 -0.14942214676634155
leaf_weight=107249 548 19192 1581 32548 93774 1460 4633 37171 350911 47944 10632 31839 153309 16720 743 493 1094 172 8474 32700 466 85868 97 87 14127 4587 71 4986 50 21065
leaf_count=107249 548 19192 1581 32548 93774 1460 4633 37171 350911 47944 10632 31839 153309 16720 743 493 1094 172 8474 32700 466 85868 97 87 14127 4587 71 4986 50 21065
internal_value=0 0.33339 0.495108 -0.0506798 0.0238666 1.0377 0.404793 0.0991645 -0.0909119 -0.0761744 0.565244 0.307935 -0.0538592 0.490435 0.427263 1.81213 0.893131 2.01246 0.257075 0.179174 -0.133152 0.0519553 2.98867 1.84271 0.447651 0.843013 0.957798 0.857608 -0.53131 -0.0798146
internal_weight=0 143117 102860 941474 330005 14678 88182 188287 611469 141718 33194 54988 260558 22562 17929 2309 12369 1816 40313 69871 1209 118416 269 1547 14675 11275 6688 5107 121 40257
internal_count=1084591 143117 102860 941474 330005 14678 88182 188287 611469 141718 33194 54988 260558 22562 17929 2309 12369 1816 40313 69871 1209 118416 269 1547 14675 11275 6688 5107 121 40257
is_linear=0
shrinkage=0.05


Tree=31
num_leaves=31
num_cat=0
split_feature=13 0 11 11 0 1 11 13 13 11 6 1 11 3 7 1 6 7 13 6 8 1 3 3 7 6 6 5 7 0
split_gain=6.64354e+06 3.15597e+06 1.57052e+06 1.30367e+06 1.09163e+06 448701 372282 309859 294697 186535 142671 129237 148847 124967 133657 114781 112751 107324 105682 97637.7 93962.3 89405.7 106778 82953 80644.6 88716.4 79616.4 76117.2 88211.5 91959.1
threshold=32.650000000000006 2.5000000000000004 14.785714285714286 70.357142857142875 2.5000000000000004 -0.21694186955877909 110.92857142857144 7.6500000000000012 46.95000000000001 23.214285714285719 0.57622690609284799 0.6078576107927941 6.2142857142857153 9.5000000000000018 11.500000000000002 -0.21694186955877909 0.67904876271727266 4.5000000000000009 1.9166666666666667 0.73539920077185827 1.0000000180025095e-35 -0.21694186955877909 30.500000000000004 17.500000000000004 1.5000000000000002 0.51448200516348142 0.64631020410879603 -0.21521631238703642 11.500000000000002 4.5000000000000009
decision_type=2 2 2 2 2 2 2 2 2 2 2 2 2 2 2 2 2 2 2 2 2 2 2 2 2 2 2 2 2 2
left_child=2 -2 5 8 -4 7 16 18 17 15 13 12 -7 -10 -15 26 -5 21 -1 -8 -9 -3 -23 -16 -11 -26 -6 28 29 -19
right_child=1 3 4 6 9 11 19 20 10 24 -12 -13 -14 14 23 -17 -18 27 -20 -21 -22 22 -24 -25 25 -27 -28 -29 -30 -31
leaf_value=-0.13010825759626141 -0.060392010089222639 0.66933074486497557 -0.098864392310047275 0.91210395263472932 0.1289809367296528 -0.11187446538923965 1.6976269928130749 -0.00084724755206260708 0.80634963512357438 0.50795843427665854 0.80444987167799786 -0.12858416749542009 -0.030748766167765829 0.52117542682489182 0.23842200587606233 0.051521405534692727 1.4433952922897983 0.081047147065078345 -0.043496871212499962 2.7196469841087074 0.088835939838833172 0.39182807833739808 -1.7517951504658844 -0.84407556473842948 0.18196076697725361 0.33344533827708067 0.2640521371791722 0.4228711762645132 -0.26979488026764659 0.41628200297887707
leaf_weight=43774 26297 5858 55448 4858 39383 125130 1298 64563 3835 2679 8191 225513 103150 13507 481 36191 1257 3369 180237 285 53331 3780 59 280 33315 13615 15090 13826 783 5208
leaf_count=43774 26297 5858 55448 4858 39383 125130 1298 64563 3835 2679 8191 225513 103150 13507 481 36191 1257 3369 180237 285 53331 3780 59 280 33315 13615 15090 13826 783 5208
internal_value=0 0.403666 -0.0379359 0.586146 0.0889515 -0.0691469 1.19823 -0.0258905 0.506524 0.163193 0.631302 -0.101738 -0.0752172 0.552958 0.484851 0.120542 1.02132 0.406748 -0.0604216 1.88163 0.0397222 0.546426 0.358884 -0.159869 0.24114 0.225908 0.166398 0.348331 0.238226 0.284604
internal_weight=0 93172 991419 66875 195721 795698 7698 341905 59177 140273 26294 453793 228280 18103 14268 90664 6115 32883 224011 1583 117894 9697 3839 761 49609 46930 54473 23186 9360 8577
internal_count=1084591 93172 991419 66875 195721 795698 7698 341905 59177 140273 26294 453793 228280 18103 14268 90664 6115 32883 224011 1583 117894 9697 3839 761 49609 46930 54473 23186 9360 8577
is_linear=0
shrinkage=0.05


Tree=32
num_leaves=31
num_cat=0
split_feature=13 1 11 11 0 13 13 1 11 13 1 7 0 7 5 15 3 0 1 10 18 22 8 1 22 5 5 10 7 7
split_gain=5.99781e+06 3.0395e+06 1.38458e+06 1.20528e+06 941840 418944 352075 278442 257269 171797 151749 123688 121585 117636 160726 105057 91100.7 89811.6 89725.3 87122 86235.6 147526 81084.1 80218.7 77647.7 77128.1 75993 84203.2 235767 78168
threshold=28.916666666666668 0.6078576107927941 65.785714285714292 11.214285714285717 2.5000000000000004 93.88333333333334 43.716666666666676 -0.21694186955877909 19.071428571428573 3.3833333333333337 -0.21694186955877909 4.5000000000000009 3.5000000000000004 5.5000000000000009 0.99661920126966319 207.00000000000003 26.500000000000004 4.5000000000000009 -0.21694186955877909 42.500000000000007 2.5000000000000004 1.0000000180025095e-35 1.0000000180025095e-35 -0.21694186955877909 1.0000000180025095e-35 -0.81970999721622462 -0.40054624909455938 997.50000000000011 9.5000000000000018 11.500000000000002
decision_type=2 2 2 2 2 2 2 2 2 2 2 2 2 2 2 2 2 2 2 2 2 2 2 2 2 2 2 2 2 2
left_child=3 2 6 7 -5 -4 11 9 18 -1 13 19 -7 14 16 -14 24 -17 -6 -2 21 -18 -11 -10 -8 -13 27 29 -29 -15
right_child=1 -3 5 4 8 12 10 -9 23 22 -12 25 15 26 -16 17 20 -19 -20 -21 -22 -23 -24 -25 -26 -27 -28 28 -30 -31
leaf_value=-0.096512719702395069 -0.21362744943245843 -0.069069297739979704 0.87899575973369692 -0.098345283400841421 0.097520844590872638 0.94652597664570326 0.67625883483589078 -0.10256783299433014 0.22482280040576752 -0.043176403809099199 0.41490348469109534 0.10689498709762013 1.6752166165040152 0.52957183435764621 -2.3327259063720702 2.0982834106300796 0.8293604570465587 4.0345475843217633 0.010931306062450592 0.49933791548679712 1.5135870194018737 -3.4968070637096056 0.019189013189178584 0.11814611651114602 1.2288477763075403 0.315992721091928 0.65267025964298897 -3.2103761137577531 0.16870483051052476 -0.46903532817665927
leaf_weight=89834 446 31796 7951 78325 74871 490 4235 396866 43060 110817 11669 5440 1541 4023 40 179 189 90 49828 10908 807 22 98393 29832 748 23296 8085 57 547 206
leaf_count=89834 446 31796 7951 78325 74871 490 4235 396866 43060 110817 11669 5440 1541 4023 40 179 189 90 49828 10908 807 22 98393 29832 748 23296 8085 57 547 206
internal_value=0 0.345176 0.507847 -0.0400522 0.0483795 1.05091 0.429127 -0.0751138 0.106541 -0.0386791 0.556765 0.331613 1.64522 0.644079 0.826206 1.83437 0.847262 2.7461 0.0629209 0.471332 1.27828 0.378291 -0.0138455 0.181164 0.759208 0.276409 0.558908 0.402056 -0.150182 0.480928
internal_weight=0 112765 80969 971826 275916 10251 70718 695910 197591 299044 30628 40090 2300 18959 6041 1810 6001 269 124699 11354 1018 211 209210 72892 4983 28736 12918 4833 604 4229
internal_count=1084591 112765 80969 971826 275916 10251 70718 695910 197591 299044 30628 40090 2300 18959 6041 1810 6001 269 124699 11354 1018 211 209210 72892 4983 28736 12918 4833 604 4229
is_linear=0
shrinkage=0.05


Tree=33
num_leaves=31
num_cat=0
split_feature=11 0 11 11 1 11 11 11 1 1 6 6 6 6 6 7 11 1 7 3 2 1 15 0 7 7 3 6 10 0
split_gain=5.42468e+06 2.78381e+06 1.48537e+06 875780 788694 509173 377538 227220 181813 144956 143732 118271 116369 114002 99254.6 97556.5 96399.8 95572.7 81446.6 81143.5 78416.7 77093.9 74204.6 66930.8 62624.3 62279.1 68690.4 61956.5 81795.9 100619
threshold=25.500000000000004 2.5000000000000004 65.785714285714292 8.9285714285714306 0.6078576107927941 42.357142857142868 96.214285714285737 16.214285714285719 -0.21694186955877909 -0.21694186955877909 0.51448200516348142 0.57622690609284799 0.9162516346314159 0.57622690609284799 0.73539920077185827 4.5000000000000009 3.3571428571428572 -0.21694186955877909 11.500000000000002 16.500000000000004 1.0000000180025095e-35 -0.21694186955877909 245.50000000000003 1.5000000000000002 6.5000000000000009 11.500000000000002 16.500000000000004 0.32816112360988392 130.50000000000003 5.5000000000000009
decision_type=2 2 2 2 2 2 2 2 2 2 2 2 2 2 2 2 2 2 2 2 2 2 2 2 2 2 2 2 2 2
left_child=3 20 5 8 7 9 14 13 16 15 21 25 17 18 -4 -3 -1 22 -5 -20 -2 -7 -8 -6 -24 -9 -27 28 29 -17
right_child=1 2 6 4 23 10 12 11 -10 -11 -12 -13 -14 -15 -16 27 -18 -19 19 -21 -22 -23 24 -25 -26 26 -28 -29 -30 -31
