tree
version=v4
num_class=1
num_tree_per_iteration=1
label_index=0
max_feature_idx=24
objective=regression
feature_names=Column_0 Column_1 Column_2 Column_3 Column_4 Column_5 Column_6 Column_7 Column_8 Column_9 Column_10 Column_11 Column_12 Column_13 Column_14 Column_15 Column_16 Column_17 Column_18 Column_19 Column_20 Column_21 Column_22 Column_23 Column_24
feature_infos=[1:7] [-0.97492791218182362:0.97492791218182362] [-0.90096886790241903:1] [1:31] [28:31] [-1:1] [-1:1] [1:12] [-1:1] [-1:1] [29:1080] [0:244.71428571428572] [0:227.85714285714286] [0.033333333333333333:217.86666666666667] [0:358.75] [0:385] [0:394] [0:344] [0:385] [0:376] [0:366] [0:356] [0:1] [0:1] [0:1]
tree_sizes=2979 2991 3005 2995 2967 2988 2988 2960 2986 2947 2978 2985 2967 2976 2974 2974 2969 2945 2946 2951 2949 2939 2960 2951 2940 2967 2956 2956 2936 2927 2938 2913 2940 2902 2919 2916 2944 2926 2964 2903 2920 2895 2895 2950 2912 2918 2904 2901 2932 2959 2913 2924 2984 2914 2928 2879 2899 2924 2897 2933 2921 2958 2957 2865 2938 2925 2928 2925 2936 2964 2997 2894 2900 2979 2913 2926 2994 2960 2873 2910 2923 2900 2890 2972 2964 2945 2991 2871 2988 2922 2929 3006 2971 2939 2942 2962 2989 2951 2914 2959

Tree=0
num_leaves=31
num_cat=0
split_feature=13 2 1 13 13 2 13 12 1 13 13 2 13 1 11 13 0 13 0 11 2 13 0 13 13 13 13 0 0 1
split_gain=1.57168e+08 4.44595e+07 2.94923e+07 2.73204e+07 2.61614e+07 1.25715e+07 9.00335e+06 8.46159e+06 8.18813e+06 5.01662e+06 4.67881e+06 4.29016e+06 3.31276e+06 2.54675e+06 1.93213e+06 1.38059e+06 1.3569e+06 1.14256e+06 1.04052e+06 1.01949e+06 958270 806941 792802 791218 763717 645997 633838 517290 514802 476530
threshold=27.850000000000005 1.0000000180025095e-35 -0.21694186955877909 11.983333333333336 66.116666666666688 1.0000000180025095e-35 42.583333333333343 101.39285714285715 -0.21694186955877909 60.38333333333334 5.8500000000000005 1.0000000180025095e-35 18.81666666666667 -0.21694186955877909 110.92857142857144 40.250000000000007 2.5000000000000004 54.616666666666674 6.5000000000000009 139.50000000000003 1.0000000180025095e-35 34.95000000000001 2.5000000000000004 3.0500000000000003 19.283333333333335 8.8500000000000032 77.250000000000014 2.5000000000000004 2.5000000000000004 -0.21694186955877909
decision_type=2 2 2 2 2 2 2 2 2 2 2 2 2 2 2 2 2 2 2 2 2 2 2 2 2 2 2 2 2 2
left_child=3 4 9 10 6 12 21 22 24 15 20 25 -5 -13 -11 -3 -8 -18 -4 27 23 -2 -6 -1 -7 -12 -24 -9 -14 -22
right_child=1 2 18 5 7 8 16 19 -10 14 11 13 28 -15 -16 -17 17 -19 -20 -21 29 -23 26 -25 -26 -27 -28 -29 -30 -31
leaf_value=12.306413597422845 14.256236554987602 14.221781853607848 12.178849394583239 13.176170982855737 16.241652269245897 13.088283006786824 15.043161782676835 18.252793142406716 12.309760427554862 16.589575337093208 12.67261990913947 12.685549722805877 13.412380772919025 12.228807914283738 20.749799371133435 15.208671168733973 15.577091792560397 16.346778186625137 12.751758491996158 22.980865785454512 12.370017855841615 14.750504168650876 17.090809976980381 12.493937980222213 13.581800079109721 12.861465728247698 18.267632348408181 20.997049122738943 13.761654232377323 12.196890383042364
leaf_weight=103111 21562 7410 16062 81585 1540 20709 7036 226 64458 2183 108329 46018 14053 90623 320 6792 13898 7383 15645 596 59375 13383 2968 123769 12614 77814 1862 715 42322 120230
leaf_count=103111 21562 7410 16062 81585 1540 20709 7036 226 64458 2183 108329 46018 14053 90623 320 6792 13898 7383 15645 596 59375 13383 2968 123769 12614 77814 1862 715 42322 120230
internal_value=12.8164 14.5262 13.3573 12.6045 15.3214 13.0724 14.9825 18.033 12.6387 15.0575 12.4533 12.5954 13.3798 12.3826 17.1214 14.6938 15.6451 15.8441 12.4615 21.3628 12.3404 14.4455 17.2295 12.4087 13.2751 12.7516 17.5445 20.338 13.6746 12.2541
internal_weight=0 119581 48412 965010 71169 235741 63262 7907 97781 16705 729269 322784 137960 136641 2503 14202 28317 21281 31707 1537 406485 34945 6370 226880 33323 186143 4830 941 56375 179605
internal_count=1084591 119581 48412 965010 71169 235741 63262 7907 97781 16705 729269 322784 137960 136641 2503 14202 28317 21281 31707 1537 406485 34945 6370 226880 33323 186143 4830 941 56375 179605
is_linear=0
shrinkage=1


Tree=1
num_leaves=31
num_cat=0
split_feature=13 2 1 13 13 2 12 13 1 13 2 13 13 1 13 11 0 13 0 11 13 13 13 13 0 13 13 13 0 0
split_gain=1.41864e+08 4.0254e+07 2.67143e+07 2.42982e+07 2.38562e+07 1.14049e+07 8.75509e+06 7.64182e+06 7.46204e+06 4.67425e+06 3.6852e+06 3.70227e+06 3.52994e+06 1.97205e+06 1.74275e+06 1.33276e+06 1.16602e+06 1.01864e+06 949456 924219 878096 803821 785349 578115 577413 571121 522280 473117 464383 456734
threshold=27.350000000000005 1.0000000180025095e-35 -0.21694186955877909 63.050000000000004 11.15 1.0000000180025095e-35 101.39285714285715 40.250000000000007 -0.21694186955877909 66.116666666666688 1.0000000180025095e-35 5.3833333333333337 17.883333333333336 -0.21694186955877909 42.583333333333343 110.92857142857144 2.5000000000000004 51.750000000000007 6.5000000000000009 139.50000000000003 77.250000000000014 17.203448275862073 4.8500000000000005 2.7166666666666672 2.5000000000000004 22.183333333333337 7.7833333333333341 13.91666666666667 2.5000000000000004 2.5000000000000004
decision_type=2 2 2 2 2 2 2 2 2 2 2 2 2 2 2 2 2 2 2 2 2 2 2 2 2 2 2 2 2 2
left_child=4 3 9 7 10 12 20 24 21 14 11 23 27 22 -3 -11 -9 -18 -4 28 -5 -7 -12 -1 -2 -14 -13 -6 -8 -21
right_child=1 2 18 6 5 8 19 16 -10 15 13 26 25 -15 -16 -17 17 -19 -20 29 -22 -23 -24 -25 -26 -27 -28 -29 -30 -31
leaf_value=-0.49759034490977738 1.1027713500729805 1.3705964407178612 -0.60577773513116673 3.6805628511624064 0.17225897810491864 0.17579910681339952 5.1645727713023675 2.0227249053295231 -0.48736849007759375 3.9513473794108154 -0.45203273901931412 -0.18036021582963635 0.63459253738270494 -0.57723168206231201 2.4378839603846085 7.5672269334020861 2.4782645586084202 3.1699654401984283 -0.066016882836229251 7.3417210572844098 4.8073086943577916 0.64502462793776338 -0.17354880922839352 -0.32912983018551573 1.5844167104130191 0.93821715184675725 -0.013830395728391572 0.40185726036518821 7.7638363847506433 10.483986338830483
leaf_weight=89282 8262 8838 16517 5900 47246 20080 226 7437 71363 1283 48697 92348 34718 203060 6743 318 13801 8664 16078 157 2446 16733 52729 118553 25209 27962 96055 42730 717 439
leaf_count=89282 8262 8838 16517 5900 47246 20080 226 7437 71363 1283 48697 92348 34718 203060 6743 318 13801 8664 16078 157 2446 16733 52729 118553 25209 27962 96055 42730 717 439
internal_value=0 1.59862 0.501454 2.34412 -0.20455 0.203653 4.64977 1.98449 -0.189107 2.09684 -0.356497 -0.255981 0.481973 -0.487301 1.83249 4.66955 2.56538 2.74503 -0.339532 8.115 4.01078 0.389081 -0.307255 -0.401497 1.46553 0.770042 -0.095457 0.281296 7.1409 9.65624
internal_weight=0 123035 49777 73258 961556 260832 9885 63373 108176 17182 700724 396238 152656 304486 15581 1601 29902 22465 32595 1539 8346 36813 101426 207835 33471 62680 188403 89976 943 596
internal_count=1084591 123035 49777 73258 961556 260832 9885 63373 108176 17182 700724 396238 152656 304486 15581 1601 29902 22465 32595 1539 8346 36813 101426 207835 33471 62680 188403 89976 943 596
is_linear=0
shrinkage=0.05


Tree=2
num_leaves=31
num_cat=0
split_feature=13 2 13 1 13 2 1 13 11 13 13 2 13 1 13 11 13 2 0 13 13 13 0 0 13 13 0 0 13 0
split_gain=1.282e+08 3.57359e+07 2.46181e+07 2.36629e+07 1.98156e+07 1.10342e+07 7.19265e+06 6.98035e+06 5.64624e+06 4.12449e+06 3.84328e+06 3.60952e+06 3.03878e+06 2.16629e+06 1.22621e+06 1.20281e+06 1.18768e+06 897813 826260 811970 713256 702901 689061 646368 639925 547867 543394 498633 486223 468685
threshold=29.483333333333338 1.0000000180025095e-35 12.383333333333335 -0.21694186955877909 70.350000000000009 1.0000000180025095e-35 -0.21694186955877909 44.81666666666667 110.92857142857144 6.116666666666668 66.116666666666688 1.0000000180025095e-35 20.250000000000004 -0.21694186955877909 56.31666666666667 110.92857142857144 43.716666666666676 -0.22252093395631442 6.5000000000000009 93.88333333333334 37.916666666666671 19.516666666666669 2.5000000000000004 2.5000000000000004 3.183333333333334 9.1500000000000004 2.5000000000000004 2.5000000000000004 15.41666666666667 6.5000000000000009
decision_type=2 2 2 2 2 2 2 2 2 2 2 2 2 2 2 2 2 2 2 2 2 2 2 2 2 2 2 2 2 2
left_child=2 4 9 10 7 12 21 20 19 17 16 25 28 -13 23 -12 -3 24 -5 -6 -2 -7 -10 -9 -1 -11 -16 -14 -4 -8
right_child=1 3 5 18 8 6 29 14 22 11 15 13 27 -15 26 -17 -18 -19 -20 -21 -22 -23 -24 -25 -26 -27 -28 -29 -30 -31
leaf_value=-0.44259893961000008 1.4334473586604721 1.4203734843537799 0.25052978166605827 -0.57534152835038577 4.03471114170961 0.26459612306365576 -0.58787699342819355 1.8921601745538881 6.0734596184321816 -0.1150839091493942 3.7537799905262603 -0.10145905889238203 0.59028804093330367 -0.52766541776189124 2.4794370240601848 7.1888655404624702 2.3551410604909453 -0.48624114153344627 -0.041466453819454595 5.8007985753879083 1.9302705641224425 0.7336928589888746 8.7995376951284836 2.6083425194375138 -0.25202636759426139 0.060556463500441617 3.3406922131136008 0.95400057015937856 0.48813181801523353 -0.3170023095984123
leaf_weight=80989 21593 7444 41193 14719 3855 19550 31930 4191 308 106588 1283 44971 12549 88456 2422 318 6252 247860 14277 783 10856 13500 937 12689 96581 76095 7511 37833 45111 31947
leaf_count=80989 21593 7444 41193 14719 3855 19550 31930 4191 308 106588 1283 44971 12549 88456 2422 318 6252 247860 14277 783 10856 13500 937 12689 96581 76095 7511 37833 45111 31947
internal_value=0 1.62268 -0.182108 0.52693 2.3677 0.265482 -0.142586 2.09294 5.13541 -0.323115 2.11805 -0.186316 0.554851 -0.384014 2.68991 4.43608 1.84708 -0.424762 -0.312473 4.33287 1.59966 0.456209 8.12513 2.43053 -0.338946 -0.0419225 3.13069 0.863408 0.374724 -0.452404
internal_weight=0 109438 975153 44293 65145 233613 96927 59262 5883 741540 15297 316110 136686 133427 26813 1601 13696 425430 28996 4638 32449 33050 1245 16880 177570 182683 9933 50382 86304 63877
internal_count=1084591 109438 975153 44293 65145 233613 96927 59262 5883 741540 15297 316110 136686 133427 26813 1601 13696 425430 28996 4638 32449 33050 1245 16880 177570 182683 9933 50382 86304 63877
is_linear=0
shrinkage=0.05


Tree=3
num_leaves=31
num_cat=0
split_feature=13 2 1 13 13 2 13 1 13 13 13 2 13 12 1 11 13 0 0 0 13 13 13 13 0 13 13 13 13 0
split_gain=1.15781e+08 3.30227e+07 2.19656e+07 2.1002e+07 1.82892e+07 8.88394e+06 8.75414e+06 5.87873e+06 5.35021e+06 4.11031e+06 2.8712e+06 2.83952e+06 2.78055e+06 1.62728e+06 1.54875e+06 1.2e+06 975011 854729 796128 770245 677653 640953 582067 577763 517322 498588 490620 425138 412211 393350
threshold=26.450000000000003 -1.0000000180025095e-35 -0.21694186955877909 58.150000000000006 10.750000000000002 -1.0000000180025095e-35 93.88333333333334 -0.21694186955877909 40.250000000000007 56.31666666666667 16.81666666666667 1.0000000180025095e-35 5.0500000000000007 101.39285714285715 -0.21694186955877909 139.50000000000003 39.050000000000004 2.5000000000000004 6.5000000000000009 2.5000000000000004 70.350000000000009 17.016666666666669 32.650000000000006 4.7833333333333341 2.5000000000000004 49.183333333333344 22.183333333333337 7.5166666666666675 2.4500000000000006 6.5000000000000009
decision_type=2 2 2 2 2 2 2 2 2 2 2 2 2 2 2 2 2 2 2 2 2 2 2 2 2 2 2 2 2 2
left_child=4 3 9 8 11 10 17 21 22 16 -6 12 28 -11 23 24 -3 -5 -4 -10 -19 -7 -2 -13 -8 -21 -12 -14 -1 -9
right_child=1 2 18 6 5 7 15 29 19 13 26 14 27 -15 -16 -17 -18 20 -20 25 -22 -23 -24 -25 -26 -27 -28 -29 -30 -31
leaf_value=-0.46087764403166515 1.122589234370226 1.1266754515109598 -0.54711055808254061 2.5600856375889194 0.21156442826044503 0.14434387315040237 4.3527299735604261 -0.55914655366624222 1.7534494274429993 3.0292448036729307 0.54376009560742888 -0.4071492830478165 -0.17789703725590594 6.4928810122118925 -0.52407764815366531 8.7719342525065453 1.9456644134271894 3.2450544986940999 -0.06552304761333852 2.1557984058000668 4.1679993746169544 0.55921742621182247 1.5222184115519359 -0.16574102326838069 6.6249758936324215 2.6659828189772501 0.82344930077841261 -0.029565257439404365 -0.3121646770717223 -0.3280599662141841
leaf_weight=78221 21696 8319 17379 2905 89094 21803 328 36914 6468 2959 45128 47919 97148 383 199026 595 6453 6104 16953 10725 2950 16247 15709 51338 1060 8652 24028 96082 115259 36746
leaf_count=78221 21696 8319 17379 2905 89094 21803 328 36914 6468 2959 45128 47919 97148 383 199026 595 6453 6104 16953 10725 2950 16247 15709 51338 1060 8652 24028 96082 115259 36746
internal_value=0 1.4021 0.43396 2.05988 -0.19034 0.158213 3.81652 -0.183175 1.67267 1.84269 0.399202 -0.327707 -0.2383 3.42618 -0.443619 6.89333 1.48444 3.30633 -0.309305 2.2259 3.54577 0.321491 1.29042 -0.282287 6.08802 2.3836 0.640937 -0.10414 -0.372287 -0.443867
internal_weight=0 129638 52446 77192 954953 269960 13942 111710 63250 18114 158250 684993 386710 3342 298283 1983 14772 11959 34332 25845 9054 38050 37405 99257 1388 19377 69156 193230 193480 73660
internal_count=1084591 129638 52446 77192 954953 269960 13942 111710 63250 18114 158250 684993 386710 3342 298283 1983 14772 11959 34332 25845 9054 38050 37405 99257 1388 19377 69156 193230 193480 73660
is_linear=0
shrinkage=0.05


Tree=4
num_leaves=31
num_cat=0
split_feature=13 0 0 13 13 0 11 0 13 13 13 0 0 13 13 13 13 0 11 0 13 13 0 0 0 0 0 13 6 6
split_gain=1.0455e+08 2.67927e+07 2.20273e+07 2.01285e+07 1.94885e+07 8.75146e+06 6.56072e+06 6.35132e+06 5.7916e+06 3.462e+06 2.95624e+06 2.61185e+06 2.04081e+06 870808 838934 717784 680036 680056 643007 636358 522755 494912 444590 360098 354634 353873 326370 311353 286279 273232
threshold=29.483333333333338 1.5000000000000002 6.5000000000000009 12.516666666666667 66.116666666666688 1.5000000000000002 110.92857142857144 6.5000000000000009 44.81666666666667 6.5166666666666675 20.783333333333335 1.5000000000000002 6.5000000000000009 93.88333333333334 54.616666666666674 35.850000000000009 3.4500000000000006 1.5000000000000002 139.50000000000003 6.5000000000000009 15.616666666666669 9.4500000000000011 2.5000000000000004 2.5000000000000004 2.5000000000000004 2.5000000000000004 2.5000000000000004 24.416666666666668 0.39059449598118917 0.39059449598118917
decision_type=2 2 2 2 2 2 2 2 2 2 2 2 2 2 2 2 2 2 2 2 2 2 2 2 2 2 2 2 2 2
left_child=3 -2 4 9 8 -5 13 10 15 16 20 -11 21 22 24 -3 -1 -18 -8 -19 -7 -13 -6 -12 -10 -16 -20 -25 -26 -24
right_child=1 2 -4 5 6 7 18 -9 14 11 23 12 -14 -15 25 -17 17 19 26 -21 -22 -23 29 27 28 -27 -28 -29 -30 -31
leaf_value=-0.4406937589263924 -0.51921893920828144 1.2204552742457988 -0.036116992074618152 -0.53055546363893635 2.6602725398038563 0.22120894228966215 6.2237133765739578 -0.28436772740630117 1.6806816623562053 -0.52883849356108892 0.53187265303864562 -0.097708988525809087 -0.41966550323060248 5.0870751769861844 2.1166547834492695 1.6432441950198371 -0.52741990851221765 -0.24295377383457209 6.2323651441343273 -0.47745179559736872 0.44013613138298235 0.057978355424948308 3.3889040857619728 0.71981993414894374 2.0645557001644605 2.7927115121902193 8.8021403416271866 0.98107201156767854 2.52197610718913 4.117481940922235
leaf_weight=217974 14719 21612 14277 31415 1425 50925 827 31428 3697 40535 11511 124104 40885 917 2428 18747 33313 166958 157 34995 58694 86712 3599 23845 9587 9545 580 21859 5318 2003
leaf_count=217974 14719 21612 14277 31415 1425 50925 827 31428 3697 40535 11511 124104 40885 917 2428 18747 33313 166958 157 34995 58694 86712 3599 23845 9587 9545 580 21859 5318 2003
internal_value=0 1.46538 1.77378 -0.164455 2.09501 0.244803 4.2207 0.36766 1.81008 -0.290545 0.490489 -0.156357 -0.096371 3.63793 2.32915 1.41684 -0.377066 -0.318114 7.18078 -0.283588 0.338431 -0.0336723 3.44882 0.781819 2.11903 2.65561 8.25471 0.84477 2.22776 3.64941
internal_weight=0 109438 94719 975153 80442 229677 9508 198262 70934 745476 166834 292236 251701 7944 30575 40359 453240 235266 1564 201953 109619 210816 7027 57215 18602 11973 737 45704 14905 5602
internal_count=1084591 109438 94719 975153 80442 229677 9508 198262 70934 745476 166834 292236 251701 7944 30575 40359 453240 235266 1564 201953 109619 210816 7027 57215 18602 11973 737 45704 14905 5602
is_linear=0
shrinkage=0.05


Tree=5
num_leaves=31
num_cat=0
split_feature=13 2 1 13 13 11 2 1 13 13 13 2 13 11 1 12 11 0 13 0 0 0 13 13 0 13 13 0 13 13
split_gain=9.43962e+07 2.72413e+07 1.77523e+07 1.75908e+07 1.4487e+07 7.20399e+06 7.16862e+06 4.70586e+06 4.60431e+06 3.4062e+06 2.41589e+06 2.23926e+06 2.11882e+06 1.23011e+06 1.19241e+06 930617 853400 740210 669456 658308 647894 563527 530910 439441 437236 426891 407203 397142 374430 348450
threshold=26.033908045977018 1.0000000180025095e-35 -0.21694186955877909 58.150000000000006 10.450000000000001 96.214285714285737 1.0000000180025095e-35 -0.21694186955877909 40.250000000000007 58.150000000000006 16.416666666666668 1.0000000180025095e-35 4.6500000000000012 110.92857142857144 -0.21694186955877909 38.750000000000007 139.50000000000003 2.5000000000000004 77.250000000000014 6.5000000000000009 2.5000000000000004 2.5000000000000004 17.016666666666669 4.169540229885059 2.5000000000000004 31.31666666666667 49.183333333333344 2.5000000000000004 7.4408045977011499 21.31666666666667
decision_type=2 2 2 2 2 2 2 2 2 2 2 2 2 2 2 2 2 2 2 2 2 2 2 2 2 2 2 2 2 2
left_child=4 3 9 8 11 17 10 22 21 15 -6 12 -1 -11 23 -3 24 -5 -19 -4 -10 -2 -8 -13 -7 -23 -22 -12 -14 -29
right_child=1 2 19 5 6 16 7 -9 20 13 27 14 28 -15 -16 -17 -18 18 -20 -21 26 25 -24 -25 -26 -27 -28 29 -30 -31
leaf_value=-0.34711050865951304 0.82209514986115662 0.97498730098760389 -0.49400863904063458 2.3170434312850499 0.17278210582439535 3.9569477580163794 0.12002234340784571 -0.40263623426679795 1.5790278843544705 2.8345580261379411 0.35568212495579721 -0.38625719801136998 -0.17089936608080347 6.1180507263541228 -0.47492380605582618 1.7494021602263368 7.9248877319713573 3.028281957061528 4.1364805553061466 -0.06126993273640037 1.951097424809402 1.0726886429305478 0.49450203585128438 -0.17104631016490371 6.1520983346472402 1.4523103568146711 2.4121622169818306 0.52484671118442383 -0.034540979013389699 0.78607027364627857
leaf_weight=175434 9687 8292 17805 2934 92699 299 23531 76176 6468 2626 17817 40727 112833 320 195682 7290 596 7508 1665 17355 10725 14897 15833 56802 940 14726 8652 32230 90903 21139
leaf_count=175434 9687 8292 17805 2934 92699 299 23531 76176 6468 2626 17817 40727 112833 320 195682 7290 596 7508 1665 17355 10725 14897 15833 56802 940 14726 8652 32230 90903 21139
internal_value=0 1.24886 0.379599 1.83888 -0.174227 3.4508 0.128367 -0.173252 1.49396 1.63207 0.34101 -0.299977 -0.219738 3.19122 -0.40374 1.3373 6.37021 3.00832 3.22943 -0.280409 2.01233 1.15315 0.270646 -0.260916 5.62236 1.2614 2.15697 0.560078 -0.110059 0.628315
internal_weight=0 132785 53688 79097 951806 13942 279425 115540 65155 18528 163885 672381 379170 2946 293211 15582 1835 12107 9173 35160 25845 39310 39364 97529 1239 29623 19377 71186 203736 53369
internal_count=1084591 132785 53688 79097 951806 13942 279425 115540 65155 18528 163885 672381 379170 2946 293211 15582 1835 12107 9173 35160 25845 39310 39364 97529 1239 29623 19377 71186 203736 53369
is_linear=0
shrinkage=0.05


Tree=6
num_leaves=31
num_cat=0
split_feature=13 2 13 1 13 2 12 1 13 13 13 2 13 1 13 11 0 0 2 0 13 0 11 6 13 13 13 11 11 0
split_gain=8.52828e+07 2.40618e+07 1.59221e+07 1.56478e+07 1.36838e+07 7.16991e+06 4.65212e+06 4.55349e+06 4.21803e+06 2.83926e+06 2.65645e+06 2.47917e+06 1.79252e+06 1.49163e+06 854946 785648 711004 624404 618256 558865 543225 514451 507338 460264 432540 430503 407475 397306 367180 352418
threshold=28.916666666666668 1.0000000180025095e-35 12.516666666666667 -0.21694186955877909 66.116666666666688 1.0000000180025095e-35 101.39285714285715 -0.21694186955877909 44.81666666666667 5.9166666666666679 66.116666666666688 1.0000000180025095e-35 20.250000000000004 -0.21694186955877909 48.016666666666673 139.50000000000003 2.5000000000000004 2.5000000000000004 -0.22252093395631442 6.5000000000000009 36.850000000000009 2.5000000000000004 139.50000000000003 0.39059449598118917 2.508620689655173 20.250000000000004 8.9500000000000011 82.785714285714292 57.071428571428577 2.5000000000000004
decision_type=2 2 2 2 2 2 2 2 2 2 2 2 2 2 2 2 2 2 2 2 2 2 2 2 2 2 2 2 2 2
left_child=2 4 9 10 8 12 21 25 20 18 14 26 -4 -13 -3 -12 -10 -8 24 -5 -2 -6 -19 28 -1 -7 -11 -23 -18 -14
right_child=1 3 5 19 6 7 17 -9 16 11 15 13 29 -15 -16 -17 23 22 -20 -21 -22 27 -24 -25 -26 -27 -28 -29 -30 -31
leaf_value=-0.38583355329981922 1.1315043299609806 1.2119715835088058 0.31354756289457664 -0.46855490617424594 2.4663522985306656 0.2285912122468127 4.5775463473547848 -0.36811185503007282 1.6729999751911593 -0.10182277442419599 3.2772597130806482 -0.085632216427802943 0.46119249031015974 -0.42950305815149054 2.0512060026553391 7.1856122280688997 1.9242313685582983 6.0859706409827821 -0.40236362410846954 -0.036234322487706284 1.542347518681974 3.2724772679018979 8.2453863634878513 2.6293785876379565 -0.21953561873867017 0.6104422343187218 0.044626781584488566 4.3608522965565877 2.5196091455957332 0.77311411989187562
leaf_weight=60316 21554 9765 83986 15172 1540 20441 383 61931 6125 108798 1460 47571 12056 93560 4403 141 8295 715 239762 14736 12838 3750 439 6604 111171 11553 84298 1080 3765 36383
leaf_count=60316 21554 9765 83986 15172 1540 20441 383 61931 6125 108798 1460 47571 12056 93560 4403 141 8295 715 239762 14736 12838 3750 439 6604 111171 11553 84298 1080 3765 36383
internal_value=0 1.30159 -0.151029 0.416434 1.90425 0.216256 3.85786 -0.117886 1.64324 -0.262548 1.69093 -0.154309 0.453252 -0.313595 1.47278 3.62147 2.14044 6.32687 -0.350516 -0.255546 1.28487 3.26212 6.90745 2.29384 -0.278027 0.366477 -0.0378887 3.51584 2.1101 0.69548
internal_weight=0 112765 971826 45677 67088 226350 7907 93925 59181 745476 15769 334227 132425 141131 14168 1601 24789 1537 411249 29908 34392 6370 1154 18664 171487 31994 193096 4830 12060 48439
internal_count=1084591 112765 971826 45677 67088 226350 7907 93925 59181 745476 15769 334227 132425 141131 14168 1601 24789 1537 411249 29908 34392 6370 1154 18664 171487 31994 193096 4830 12060 48439
is_linear=0
shrinkage=0.05


Tree=7
num_leaves=31
num_cat=0
split_feature=13 2 1 13 13 13 0 0 13 13 13 2 13 11 11 13 0 0 13 13 0 0 0 13 0 0 6 7 0 0
split_gain=7.7022e+07 2.22134e+07 1.44715e+07 1.44535e+07 1.18218e+07 6.65591e+06 6.03797e+06 4.00253e+06 2.89373e+06 2.80559e+06 2.56202e+06 1.82066e+06 1.43706e+06 1.25115e+06 783818 705233 644588 579224 580153 563559 542215 501315 432583 421349 393163 391037 336001 327988 310855 298765
threshold=26.033908045977018 1.0000000180025095e-35 -0.21694186955877909 54.616666666666674 10.250000000000002 93.88333333333334 1.5000000000000002 6.5000000000000009 37.916666666666671 53.050000000000004 16.216666666666672 -0.22252093395631442 4.6500000000000012 96.214285714285737 139.50000000000003 70.350000000000009 1.5000000000000002 6.5000000000000009 4.169540229885059 34.95000000000001 6.5000000000000009 2.5000000000000004 2.5000000000000004 21.050000000000004 2.5000000000000004 2.5000000000000004 0.39059449598118917 4.5000000000000009 2.5000000000000004 2.5000000000000004
decision_type=2 2 2 2 2 2 2 2 2 2 2 2 2 2 2 2 2 2 2 2 2 2 2 2 2 2 2 2 2 2
left_child=4 3 9 8 11 15 -6 10 22 19 -8 12 -1 -11 25 24 -13 18 -18 -3 -4 -10 -2 -12 -5 -7 -23 -24 -17 -16
right_child=1 2 20 5 6 14 7 -9 21 13 23 16 -14 -15 29 28 17 -19 -20 -21 -22 26 27 -25 -26 -27 -28 -29 -30 -31
leaf_value=-0.29746304159101294 0.7004288975383498 0.81499034510764723 -0.4466231385088999 1.8786921074695693 -0.46492122113304069 3.4891897566071375 0.1346149122809969 -0.26302803715342399 1.317350933528292 2.3090596435915494 0.39718401541003212 -0.45776375834594224 -0.070434300168028083 5.0880088281657727 5.2956252707417608 2.3713477124289462 -0.35901183273748799 -0.40540828431485593 -0.18206407757480658 1.4427673063583135 -0.053890589238848791 1.6725409229252219 1.4001738962915766 0.61573623386297494 2.5474805063090127 5.4647202026169257 2.107029409617263 1.0011868926966736 3.4112885345576682 7.8378049841754525
leaf_weight=130921 8776 6897 17805 2916 39428 328 118667 39153 6418 3755 53528 94364 149069 454 157 950 79757 98913 110501 7422 17355 12510 6961 37505 8919 1060 6906 19808 2950 438
leaf_count=130921 8776 6897 17805 2916 39428 328 118667 39153 6418 3755 53528 94364 149069 454 157 950 79757 98913 110501 7422 17355 12510 6961 37505 8919 1060 6906 19808 2950 438
internal_value=0 1.12809 0.343136 1.66089 -0.157378 2.91888 0.109958 0.201041 1.29775 1.47397 0.287687 -0.273527 -0.176591 2.60881 5.64873 2.57485 -0.344293 -0.307265 -0.256241 1.14039 -0.25277 1.70045 1.00507 0.487226 2.3827 4.99788 1.82708 1.10494 3.15797 7.16701
internal_weight=0 132785 53688 79097 951806 17718 288281 248853 61379 18528 209700 663525 279990 4209 1983 15735 383535 289171 190258 14319 35160 25834 35545 91033 11835 1388 19416 26769 3900 595
internal_count=1084591 132785 53688 79097 951806 17718 288281 248853 61379 18528 209700 663525 279990 4209 1983 15735 383535 289171 190258 14319 35160 25834 35545 91033 11835 1388 19416 26769 3900 595
is_linear=0
shrinkage=0.05


Tree=8
num_leaves=31
num_cat=0
split_feature=13 2 13 1 11 2 13 1 13 13 2 11 13 1 13 13 2 13 13 0 0 11 0 0 0 13 6 0 0 6
split_gain=6.96485e+07 1.94814e+07 1.34677e+07 1.26935e+07 1.10091e+07 5.92272e+06 5.13409e+06 3.72429e+06 2.59481e+06 2.17728e+06 2.00933e+06 1.56244e+06 1.33902e+06 1.25989e+06 924883 899124 678469 642339 483754 454730 444983 427512 407085 335675 329867 322182 306923 304864 301436 298654
threshold=29.483333333333338 1.0000000180025095e-35 13.083333333333334 -0.21694186955877909 82.785714285714292 -1.0000000180025095e-35 48.016666666666673 -0.21694186955877909 6.7166666666666677 77.250000000000014 1.0000000180025095e-35 110.92857142857144 21.31666666666667 -0.21694186955877909 48.016666666666673 63.050000000000004 -0.22252093395631442 37.916666666666671 2.8500000000000005 6.5000000000000009 2.5000000000000004 139.50000000000003 2.5000000000000004 2.5000000000000004 2.5000000000000004 20.783333333333335 0.39059449598118917 2.5000000000000004 6.5000000000000009 0.64631020410879603
decision_type=2 2 2 2 2 2 2 2 2 2 2 2 2 2 2 2 2 2 2 2 2 2 2 2 2 2 2 2 2 2
left_child=2 4 8 9 6 12 17 25 16 14 -10 -6 24 -12 -3 22 18 -2 -1 -5 -13 -11 -8 -17 -4 -7 -24 -14 -9 -22
right_child=1 3 5 19 11 7 15 28 10 21 13 20 27 -15 -16 23 -18 -19 -20 -21 29 -23 26 -25 -26 -27 -28 -29 -30 -31
leaf_value=-0.33949828841873214 1.0593429237217507 1.1123386938277453 0.14815211963425293 -0.42279865113732706 3.7357476563713363 0.23151743586706838 1.5561109731514511 -0.44160180624118039 -0.00547674161722964 3.5440469325031603 -0.046761989219610424 4.3951606015236147 0.43359515327823461 -0.38455461763493715 1.9455994409969819 2.0350172542982041 -0.35714547039919181 1.4756116962912329 -0.1756404163721268 -0.02674139024993907 6.0829524390212679 6.5719312059118398 1.9377085344666931 2.8512715262143011 0.37867100571895224 0.5706902258809835 2.4435768619471716 0.74464322621429491 -0.21499744576568891 8.1777142032914103
leaf_weight=70583 21590 9293 20667 14719 1793 19287 4296 29293 170875 673 41713 310 10485 81610 5190 1661 271774 16237 124484 14277 718 141 8462 5211 62303 10992 4644 31677 29410 223
leaf_count=70583 21590 9293 20667 14719 1793 19287 4296 29293 170875 673 41713 310 10485 81610 5190 1661 271774 16237 124484 14277 718 141 8462 5211 62303 10992 4644 31677 29410 223
internal_value=0 1.19604 -0.134227 0.387001 1.74611 0.21609 1.60221 -0.0957566 -0.232787 1.55236 -0.116486 4.68196 0.437846 -0.270299 1.41094 2.16973 -0.306079 1.23802 -0.234931 -0.227789 6.03812 4.06853 1.9785 2.65398 0.321251 0.354645 2.11696 0.667291 -0.328074 6.57937
internal_weight=0 109438 975153 44293 65145 214114 62101 88982 761039 15297 294198 3044 125132 123323 14483 24274 466841 37827 195067 28996 1251 814 17402 6872 82970 30279 13106 42162 58703 941
internal_count=1084591 109438 975153 44293 65145 214114 62101 88982 761039 15297 294198 3044 125132 123323 14483 24274 466841 37827 195067 28996 1251 814 17402 6872 82970 30279 13106 42162 58703 941
is_linear=0
shrinkage=0.05


Tree=9
num_leaves=31
num_cat=0
split_feature=13 0 13 13 0 0 13 0 0 13 13 13 0 0 11 13 7 7 13 0 13 6 6 5 0 0 6 6 19 1
split_gain=6.28675e+07 1.67187e+07 1.40962e+07 9.3907e+06 7.15142e+06 6.9825e+06 6.74582e+06 4.86857e+06 3.21115e+06 2.639e+06 2.07864e+06 1.29521e+06 1.24504e+06 971489 866456 824955 394189 351871 345409 335567 313442 303538 290114 282316 280587 269779 256635 254532 293720 315900
threshold=25.616666666666671 1.5000000000000002 53.050000000000004 10.050000000000002 6.5000000000000009 6.5000000000000009 93.88333333333334 1.5000000000000002 6.5000000000000009 37.916666666666671 15.41666666666667 4.3166666666666673 1.5000000000000002 6.5000000000000009 139.50000000000003 66.116666666666688 11.500000000000002 4.5000000000000009 21.050000000000004 2.5000000000000004 7.3833333333333337 0.4669418695587792 0.39059449598118917 -0.7339688063532569 2.5000000000000004 2.5000000000000004 0.67904876271727266 0.39059449598118917 1.0000000180025095e-35 -0.8783796973249266
decision_type=2 2 2 2 2 2 2 2 2 2 2 2 2 2 2 2 2 2 2 2 2 2 2 2 2 2 2 2 2 2
left_child=3 -2 5 11 6 9 15 -5 10 17 -9 -1 -13 20 25 22 19 -3 -12 -11 -14 -19 -4 -18 -17 -8 -16 28 29 -26
right_child=1 2 4 7 -6 -7 14 8 -10 16 18 12 13 -15 26 24 23 21 -20 -21 -22 -23 -24 -25 27 -27 -28 -29 -30 -31
leaf_value=-0.32895670390409043 -0.40345766942995431 1.1070015133373727 1.8593221128655484 -0.42037293043491464 0.12933671495797858 -0.094552809573313926 3.1204519531530579 0.10381425340414932 -0.23962102399886037 1.1813909679582855 0.34757196768613297 -0.41548184504537877 -0.15475680797867419 -0.34510623843521149 6.0075435808094921 2.0639604941829108 -0.48399072557126788 0.68319729123456829 0.54306565293309073 1.6150536434068361 -0.042867345407741883 0.9944815209759359 2.3291296363033962 1.0767030659157726 -1.9460660261266374 4.7184572081584326 8.3740106206544702 3.2969938763791222 2.722161935823213 2.0090959949152811
leaf_weight=288344 18264 12072 9164 40234 3568 14241 328 114662 39972 5582 63922 51387 158245 53072 593 1438 342 22179 34948 22209 103550 12106 5123 1897 68 1356 142 2015 3372 196
leaf_count=288344 18264 12072 9164 40234 3568 14241 328 114662 39972 5582 63922 51387 158245 53072 593 1438 342 22179 34948 22209 103550 12106 5123 1897 68 1356 142 2015 3372 196
internal_value=0 1.00428 1.22219 -0.144293 2.21678 0.921892 2.52979 0.0905865 0.171682 1.11139 0.248675 -0.249691 -0.187286 -0.150044 5.03238 2.24658 1.47653 0.874853 0.416674 1.52795 -0.1105 0.793111 2.02778 0.838312 2.68754 4.40721 6.46474 2.84623 2.59642 0.990342
internal_weight=0 136255 117991 948336 27363 90628 23795 293738 253504 76387 213532 654598 366254 314867 2419 21376 30030 46357 98870 27791 261795 34285 14287 2239 7089 1684 735 5651 3636 264
internal_count=1084591 136255 117991 948336 27363 90628 23795 293738 253504 76387 213532 654598 366254 314867 2419 21376 30030 46357 98870 27791 261795 34285 14287 2239 7089 1684 735 5651 3636 264
is_linear=0
shrinkage=0.05


Tree=10
num_leaves=31
num_cat=0
split_feature=13 2 13 1 11 2 13 1 13 2 13 11 13 0 13 13 2 0 13 13 0 0 11 0 1 0 6 0 11 6
split_gain=5.68889e+07 1.5756e+07 1.17937e+07 1.01396e+07 8.76676e+06 5.09822e+06 3.68626e+06 3.13724e+06 2.26772e+06 1.8071e+06 1.69162e+06 1.27766e+06 1.1468e+06 765728 654578 633840 632108 555117 484912 433073 388023 370998 350878 333997 305022 301109 293818 265310 263540 256977
threshold=30.716666666666672 1.0000000180025095e-35 13.583333333333334 -0.21694186955877909 82.785714285714292 1.0000000180025095e-35 49.183333333333344 -0.21694186955877909 6.9166666666666679 -0.22252093395631442 77.250000000000014 110.92857142857144 22.483333333333338 1.5000000000000002 50.416666666666671 63.050000000000004 -0.22252093395631442 6.5000000000000009 40.250000000000007 3.183333333333334 2.5000000000000004 6.5000000000000009 139.50000000000003 2.5000000000000004 0.87837969732492682 2.5000000000000004 0.51448200516348142 2.5000000000000004 22.642857142857149 0.64631020410879603
decision_type=2 2 2 2 2 2 2 2 2 2 2 2 2 2 2 2 2 2 2 2 2 2 2 2 2 2 2 2 2 2
left_child=2 4 8 10 6 12 18 28 16 -10 14 -6 24 -11 -3 23 19 -15 27 -1 -13 -5 -12 -8 -4 -14 -17 -2 -7 -22
right_child=1 3 5 21 11 7 15 -9 9 13 22 20 25 17 -16 26 -18 -19 -20 -21 29 -23 -24 -25 -26 -27 -28 -29 -30 -31
leaf_value=-0.29570937101803169 0.72040101154109293 1.0749786879271728 0.37652054463685347 -0.38156412432614173 3.3895498893079825 0.23620924679057734 1.4118943718224373 -0.29272877838371414 0.043563934795414788 -0.39582372665155729 3.1828051025056201 3.9373486572696317 0.40803921038247798 -0.071877245697961903 1.8243853418640452 2.1471470125916698 -0.32266216487449118 -0.29701106049751996 1.4025665264286147 -0.14605484536412558 5.5164977543699383 -0.012145849409228129 5.9259134022056639 1.9507685323670572 0.15597066117759756 0.73382965615415741 2.8260347353662278 1.1279269188982153 0.55302727416270947 7.4596061244673795
leaf_weight=80989 5310 9254 63110 13792 1793 19744 3810 57200 127891 40463 673 310 9438 83794 4253 4360 279418 40670 14342 119922 718 13399 141 11723 20858 28536 2512 16112 9833 223
leaf_count=80989 5310 9254 63110 13792 1793 19744 3810 57200 127891 40463 673 310 9438 83794 4253 4360 279418 40670 14342 119922 718 13399 141 11723 20858 28536 2512 16112 9833 223
internal_value=0 1.11954 -0.117128 0.367587 1.62948 0.21639 1.4926 -0.0765462 -0.207165 -0.0974909 1.44435 4.2452 0.42485 -0.206871 1.31095 1.99548 -0.274025 -0.145442 1.17756 -0.206382 5.47156 -0.199525 3.65796 1.81859 0.321735 0.652858 2.39531 1.02691 0.341537 5.97698
internal_weight=0 102725 981866 41512 61213 208719 58169 86777 773147 292818 14321 3044 121942 164927 13507 22405 480329 124464 35764 200911 1251 27191 814 15533 83968 37974 6872 21422 29577 941
internal_count=1084591 102725 981866 41512 61213 208719 58169 86777 773147 292818 14321 3044 121942 164927 13507 22405 480329 124464 35764 200911 1251 27191 814 15533 83968 37974 6872 21422 29577 941
is_linear=0
shrinkage=0.05


Tree=11
num_leaves=31
num_cat=0
split_feature=13 2 13 1 11 0 0 13 13 2 13 13 13 0 11 0 0 13 11 7 11 13 0 13 13 2 0 0 0 13
split_gain=5.13609e+07 1.44731e+07 9.96473e+06 9.24568e+06 8.33744e+06 4.57708e+06 2.9975e+06 2.75611e+06 2.39782e+06 1.68084e+06 1.61771e+06 1.58944e+06 1.42618e+06 646742 569028 550643 543973 531065 503918 464250 418958 359210 336464 283018 271682 270925 261892 226238 225019 220762
threshold=29.483333333333338 1.0000000180025095e-35 12.116666666666669 -0.21694186955877909 70.357142857142875 1.5000000000000002 6.5000000000000009 45.81666666666667 93.88333333333334 -0.22252093395631442 70.350000000000009 19.516666666666669 5.7120689655172425 1.5000000000000002 47.500000000000007 6.5000000000000009 2.5000000000000004 4.7833333333333341 139.50000000000003 4.5000000000000009 139.50000000000003 58.150000000000006 6.5000000000000009 2.101724137931035 24.083333333333339 -0.22252093395631442 2.5000000000000004 2.5000000000000004 2.5000000000000004 8.4833333333333361
decision_type=2 2 2 2 2 2 2 2 2 2 2 2 2 2 2 2 2 2 2 2 2 2 2 2 2 2 2 2 2 2
left_child=2 4 9 10 7 -4 11 19 27 12 14 25 23 -11 -3 17 -9 -15 26 -2 -12 -18 -5 -1 -13 -7 -10 -6 -20 -14
right_child=1 3 5 22 8 6 -8 16 18 13 20 24 29 15 -16 -17 21 -19 28 -21 -22 -23 -24 -25 -26 -27 -28 -29 -30 -31
leaf_value=-0.32100541020124096 1.3199565184838524 0.92349773605207419 -0.38371659861598745 -0.36268737173568816 1.9585825757456883 0.27431897675224476 -0.18735456368605147 1.3082035992898504 2.9115519596951245 -0.38035138339617858 2.7325869936201017 0.4320279865462448 -0.063232016947864012 -0.27795821171250912 1.5785560960665821 -0.32836058808480179 1.7016738938206175 -0.11814271992585534 4.2912318727772707 0.91124425185066493 5.6296177789674582 2.1699872382427299 -0.022004270351570737 -0.17724735426425053 0.63140676970311815 0.11064869363782195 4.5546669134913484 2.7962697351477614 6.4974624119937152 0.060030371402746745
leaf_weight=48386 9700 8722 33033 14719 1084 63964 33021 6066 317 103845 1086 40135 76571 93934 5348 108123 12669 116390 157 24489 141 6050 14277 117077 29752 41812 1032 3143 438 69110
leaf_count=48386 9700 8722 33033 14719 1084 63964 33021 6066 317 103845 1086 40135 76571 93934 5348 108123 12669 116390 157 24489 141 6050 14277 117077 29752 41812 1032 3143 438 69110
internal_value=0 1.02708 -0.115266 0.329751 1.50121 0.16315 0.249714 1.31823 3.24984 -0.207023 1.32433 0.331874 -0.118841 -0.271995 1.17249 -0.23666 1.71969 -0.189519 4.70318 1.0272 3.0655 1.85303 -0.194942 -0.219286 0.516907 0.209622 4.16855 2.58145 5.91531 -0.00475724
internal_weight=0 109438 975153 44293 65145 241717 208684 58974 6171 733436 15297 175663 311144 422292 14070 318447 24785 210324 1944 34189 1227 18719 28996 165463 69887 105776 1349 4227 595 145681
internal_count=1084591 109438 975153 44293 65145 241717 208684 58974 6171 733436 15297 175663 311144 422292 14070 318447 24785 210324 1944 34189 1227 18719 28996 165463 69887 105776 1349 4227 595 145681
is_linear=0
shrinkage=0.05


Tree=12
num_leaves=31
num_cat=0
split_feature=13 2 13 1 13 2 1 13 13 11 2 11 13 0 2 13 0 0 0 7 6 13 19 0 0 0 11 0 0 11
split_gain=4.64098e+07 1.27524e+07 9.95494e+06 8.22615e+06 7.07758e+06 4.26708e+06 2.61365e+06 2.48699e+06 1.91008e+06 1.47117e+06 1.45775e+06 1.36791e+06 975105 638715 545340 522196 457219 447382 413917 409365 387415 376011 352793 495160 321993 304140 296050 272122 267602 264842
threshold=31.31666666666667 1.0000000180025095e-35 13.750000000000002 -0.21694186955877909 77.250000000000014 1.0000000180025095e-35 -0.21694186955877909 49.183333333333344 7.0500000000000007 110.92857142857144 -0.22252093395631442 82.785714285714292 23.083333333333339 1.5000000000000002 -0.22252093395631442 50.416666666666671 6.5000000000000009 2.5000000000000004 2.5000000000000004 4.5000000000000009 0.39059449598118917 3.3166666666666669 2.5000000000000004 4.5000000000000009 2.5000000000000004 6.5000000000000009 60.357142857142868 2.5000000000000004 2.5000000000000004 139.50000000000003
decision_type=2 2 2 2 2 2 2 2 2 2 2 2 2 2 2 2 2 2 2 2 2 2 2 2 2 2 2 2 2 2
left_child=2 4 8 11 7 12 -7 18 14 -6 -10 15 27 -12 21 -3 -15 -9 -2 -20 22 -1 23 -19 -11 -5 -24 -4 -14 -13
right_child=1 3 5 25 9 6 -8 17 10 24 13 29 28 16 -16 -17 -18 20 19 -21 -22 -23 26 -25 -26 -27 -28 -29 -30 -31
leaf_value=-0.26428305410055497 0.77848416411717081 0.98690227674491937 0.14768684885136529 -0.34442618200116737 2.8847462928039533 0.31730739827886673 -0.26307421151934329 1.3692315107475344 0.043724484479868347 3.5565700490039802 -0.35717287411887993 2.9459218443576973 0.37513445571413451 -0.059343286035068124 -0.29115418585194897 1.6583728745911472 -0.26556406053494647 1.7111147666155404 1.4978389963201453 1.0547951810874201 2.2283275011072923 -0.12685095939882501 1.5626062147379993 -1.6738908358041753 5.4236024074800033 -0.0048001749330836545 2.1217103653310363 0.35387007920794961 0.6915409515611759 5.3481367949898369
leaf_weight=85348 8460 8814 21296 13374 2740 29417 56956 5273 125737 307 39780 616 8883 82485 284458 4312 39870 268 7318 18133 5767 119391 6109 181 932 12999 3866 64384 26976 141
leaf_count=85348 8460 8814 21296 13374 2740 29417 56956 5273 125737 307 39780 616 8883 82485 284458 4312 39870 268 7318 18133 5767 119391 6109 181 932 12999 3866 64384 26976 141
internal_value=0 1.0285 -0.104011 0.341551 1.49441 0.203291 -0.0654073 1.34806 -0.186233 3.53126 -0.0840426 1.32668 0.394244 -0.183127 -0.246367 1.20749 -0.126541 1.76923 1.08147 1.18218 1.8995 -0.184141 1.71758 0.346558 4.96099 -0.177028 1.7793 0.302623 0.613161 3.39336
internal_weight=0 99610 984981 40256 59354 207912 86373 55375 777069 3979 287872 13883 121539 162135 489197 13126 122355 21464 33911 25451 16191 204739 10424 449 1239 26373 9975 85680 35859 757
internal_count=1084591 99610 984981 40256 59354 207912 86373 55375 777069 3979 287872 13883 121539 162135 489197 13126 122355 21464 33911 25451 16191 204739 10424 449 1239 26373 9975 85680 35859 757
is_linear=0
shrinkage=0.05


Tree=13
num_leaves=31
num_cat=0
split_feature=13 2 1 13 11 2 13 13 1 13 2 11 13 6 11 1 11 2 13 7 7 1 1 3 6 19 1 13 6 11
split_gain=4.1929e+07 1.19769e+07 7.67868e+06 7.41939e+06 7.36676e+06 3.52109e+06 2.59552e+06 2.28562e+06 2.20345e+06 1.46083e+06 1.21064e+06 1.12878e+06 994013 555962 543250 485459 426938 416051 405679 353324 301420 284342 269720 261647 255136 253571 322022 252721 251359 251154
threshold=27.850000000000005 1.0000000180025095e-35 -0.21694186955877909 11.250000000000002 64.785714285714292 -1.0000000180025095e-35 93.88333333333334 42.583333333333343 -0.21694186955877909 60.38333333333334 -0.22252093395631442 18.214285714285719 5.116666666666668 0.51448200516348142 110.92857142857144 -0.21694186955877909 139.50000000000003 1.0000000180025095e-35 40.250000000000007 4.5000000000000009 11.500000000000002 0.6078576107927941 0.87837969732492682 16.500000000000004 0.39059449598118917 5.5000000000000009 -0.60785761079279388 3.5833333333333339 0.39059449598118917 18.214285714285719
decision_type=2 2 2 2 2 2 2 2 2 2 2 2 2 2 2 2 2 2 2 2 2 2 2 2 2 2 2 2 2 2
left_child=3 4 9 10 7 11 -6 19 29 18 12 24 -1 20 -11 27 28 -17 -3 -2 22 -4 25 -22 -5 26 -9 -12 -8 -7
right_child=1 2 21 5 6 8 16 13 -10 14 15 -13 -14 -15 -16 17 -18 -19 -20 -21 23 -23 -24 -25 -26 -27 -28 -29 -30 -31
leaf_value=-0.21011607107527769 1.0934950902701059 0.69183594446547592 -0.028926925905532221 0.10040321289774229 2.1907572345469069 0.100185013964406 3.2172529699231576 -1.3111496295155707 -0.2620228246655647 1.9757073654073487 -0.26761105962113391 0.44467840746945175 -0.027556964965677389 1.7499332473310607 4.1816718795336785 -0.19812520187961635 5.3730005805231951 -0.32258381319226265 1.2268041473114109 0.73801071086004799 0.95932391747015044 -0.32841582014208615 0.98481195084495754 -0.6847890129552846 0.27023395252861238 1.4979945890969368 1.3809736306557983 -0.10020398072787469 4.6073952814903398 0.36374629018633137
leaf_weight=146669 9663 7410 15645 57863 6861 20878 822 185 71302 2183 33669 58894 151668 9725 320 100094 595 204009 6792 25268 939 16062 4092 326 35795 11877 278 68229 538 15940
leaf_count=146669 9663 7410 15645 57863 6861 20878 822 185 71302 2183 33669 58894 151668 9725 320 100094 595 204009 6792 25268 939 16062 4092 326 35795 11877 278 68229 538 15940
internal_value=0 0.883139 0.276429 -0.109436 1.29585 0.118458 2.64872 1.10457 -0.099824 1.14397 -0.193778 0.273163 -0.117307 1.44623 2.25773 -0.24997 4.25591 -0.281619 0.94768 0.836349 1.27934 -0.180641 1.33659 0.535624 0.165311 1.45324 0.305287 -0.155518 3.76718 0.214291
internal_weight=0 119581 48412 965010 71169 260672 8816 62353 108120 16705 704338 152552 298337 27422 2503 406001 1955 304103 14202 34931 17697 31707 16432 1265 93658 12340 463 101898 1360 36818
internal_count=1084591 119581 48412 965010 71169 260672 8816 62353 108120 16705 704338 152552 298337 27422 2503 406001 1955 304103 14202 34931 17697 31707 16432 1265 93658 12340 463 101898 1360 36818
is_linear=0
shrinkage=0.05


Tree=14
num_leaves=31
num_cat=0
split_feature=13 2 13 1 11 0 0 11 13 11 2 13 13 6 0 2 6 13 0 13 7 6 18 0 0 3 6 7 11 0
split_gain=3.79026e+07 1.04007e+07 8.14674e+06 6.7061e+06 5.85082e+06 3.50346e+06 2.14615e+06 2.00491e+06 1.7494e+06 1.29054e+06 1.22355e+06 1.14585e+06 857864 564197 558958 531350 497151 416088 379203 378382 304192 293906 265629 249599 248280 243424 240129 235386 234221 223219
threshold=31.31666666666667 1.0000000180025095e-35 14.41666666666667 -0.21694186955877909 76.500000000000014 1.5000000000000002 6.5000000000000009 49.785714285714292 7.6500000000000012 110.92857142857144 -0.22252093395631442 77.250000000000014 22.783333333333335 0.39059449598118917 1.5000000000000002 -0.22252093395631442 0.51448200516348142 48.016666666666673 6.5000000000000009 3.7833333333333337 11.500000000000002 0.67904876271727266 273.50000000000006 6.5000000000000009 2.5000000000000004 16.500000000000004 0.39059449598118917 11.500000000000002 139.50000000000003 2.5000000000000004
decision_type=2 2 2 2 2 2 2 2 2 2 2 2 2 2 2 2 2 2 2 2 2 2 2 2 2 2 2 2 2 2
left_child=2 4 8 11 7 -4 12 13 15 24 -10 17 26 20 -12 19 -9 -3 -16 -1 -2 22 -11 -5 -6 -22 27 -7 -13 -15
right_child=1 3 5 23 9 6 -8 16 10 21 14 28 -14 29 18 -17 -18 -19 -20 -21 25 -23 -24 -25 -26 -27 -28 -29 -30 -31
leaf_value=-0.22994726693198442 0.89651758861037179 0.85620555389508923 -0.33696436428385174 -0.31078408071594388 1.7987623090916252 0.24177281176941309 -0.13058516625468314 1.4632610138446873 0.061413114635066192 3.8166938963710524 -0.32522495568212229 2.6304614880043369 0.53500463614077975 0.89508581457345915 -0.036257664189081822 -0.26033670077916371 2.0248762125055992 1.4327923811935535 -0.23244768199435772 -0.098588178303435248 0.62121997776151838 5.9173546386279652 6.7270979193753977 -0.0031138244935806666 2.8389998601086144 -0.59100388620761857 0.37944031824787633 -0.12330373630846157 4.8716463543844561 1.3594648166690129
leaf_weight=100915 20501 7879 26476 13374 770 54817 26477 13077 116175 887 36459 673 46785 3432 75906 306043 5640 5190 36460 120023 1308 278 86 12999 2249 606 33643 4802 141 10520
leaf_count=100915 20501 7879 26476 13374 770 54817 26477 13077 116175 887 36459 673 46785 3432 75906 306043 5640 5190 36460 120023 1308 278 86 12999 2249 606 33643 4802 141 10520
internal_value=0 0.929467 -0.093996 0.309085 1.35023 0.197295 0.282238 1.21202 -0.164981 3.13324 -0.0601884 1.19855 0.360285 0.995612 -0.155112 -0.217678 1.63249 1.08518 -0.0999165 -0.158587 0.840237 4.48358 4.07393 -0.159136 2.57369 0.237412 0.272637 0.212368 3.01868 1.24523
internal_weight=0 99610 984981 40256 59354 193000 166524 55084 791981 4270 265000 13883 140047 36367 148825 526981 18717 13069 112366 220938 22415 1251 973 26373 3019 1914 93262 59619 814 13952
internal_count=1084591 99610 984981 40256 59354 193000 166524 55084 791981 4270 265000 13883 140047 36367 148825 526981 18717 13069 112366 220938 22415 1251 973 26373 3019 1914 93262 59619 814 13952
is_linear=0
shrinkage=0.05


Tree=15
num_leaves=31
num_cat=0
split_feature=13 2 11 1 13 11 0 0 13 13 11 2 13 12 6 11 6 0 1 18 0 19 0 0 0 0 13 7 6 2
split_gain=3.42529e+07 9.94098e+06 7.09108e+06 6.39892e+06 5.10218e+06 2.96066e+06 2.78026e+06 1.67465e+06 1.63001e+06 1.38686e+06 1.19904e+06 748641 565741 492567 424742 418855 385286 379213 350881 331420 319614 304980 512510 281596 272434 265349 262615 254143 239580 236381
threshold=25.216666666666672 -1.0000000180025095e-35 55.500000000000007 -0.21694186955877909 9.6500000000000004 96.214285714285737 1.5000000000000002 6.5000000000000009 39.050000000000004 58.150000000000006 16.214285714285719 -0.22252093395631442 4.0339080459770118 101.39285714285715 0.39059449598118917 38.928571428571438 0.51448200516348142 2.5000000000000004 0.87837969732492682 194.50000000000003 1.5000000000000002 5.5000000000000009 4.5000000000000009 2.5000000000000004 6.5000000000000009 6.5000000000000009 3.0500000000000003 4.5000000000000009 0.39059449598118917 -0.22252093395631442
decision_type=2 2 2 2 2 2 2 2 2 2 2 2 2 2 2 2 2 2 2 2 2 2 2 2 2 2 2 2 2 2
left_child=4 2 8 9 11 16 -6 10 18 15 28 12 -1 -11 -10 -3 21 -7 27 -19 -13 22 -4 -23 26 -5 -22 -2 -8 -12
right_child=1 3 5 25 6 17 7 -9 14 13 29 20 -14 -15 -16 -17 -18 19 -20 -21 24 23 -24 -25 -26 -27 -28 -29 -30 -31
leaf_value=-0.21250801752317658 0.98221247995621663 0.55366251111215559 1.6311185959228973 -0.29944758024386969 -0.31720249281667462 2.6586445264949354 0.031940730889903755 -0.17053525285239379 1.0046684740844425 1.7015608180972734 0.39232461430396448 -0.31697063081264848 -0.064862252014643337 3.6239669608754683 1.4234037001357127 1.0608805010811342 2.1801123237818101 3.725562656199167 0.40392662404299956 5.3281951022334404 -0.26586714705460651 1.2187082277338581 -1.9024534089433638 1.829583657077964 -0.27739550049172185 -0.031599093718688222 -0.13421840883669353 0.65669766803689766 0.16634149701410156 0.22196869155320767
leaf_weight=110063 8105 9365 277 18730 42448 458 86651 42191 15761 2563 49434 90419 158048 383 9835 7199 4179 872 10233 512 53680 2565 163 7132 94968 18262 128712 23046 53711 34626
leaf_count=110063 8105 9365 277 18730 42448 458 86651 42191 15761 2563 49434 90419 158048 383 9835 7199 4179 872 10233 512 53680 2565 163 7132 94968 18262 128712 23046 53711 34626
internal_value=0 0.730946 1.07873 0.219208 -0.108015 2.0189 0.0586372 0.118475 0.851929 0.951892 0.172809 -0.189013 -0.125473 1.95149 1.16556 0.774108 1.77612 3.90575 0.657947 4.31844 -0.235335 1.60958 0.322091 1.668 -0.208721 -0.167218 -0.172964 0.741391 0.0833706 0.322152
internal_weight=0 139640 83138 56502 944951 16158 309061 266613 66980 19510 224422 635890 268111 2946 25596 16564 14316 1842 41384 1384 367779 10137 440 9697 277360 36992 182392 31151 140362 84060
internal_count=1084591 139640 83138 56502 944951 16158 309061 266613 66980 19510 224422 635890 268111 2946 25596 16564 14316 1842 41384 1384 367779 10137 440 9697 277360 36992 182392 31151 140362 84060
is_linear=0
shrinkage=0.05


Tree=16
num_leaves=31
num_cat=0
split_feature=13 2 13 1 13 0 0 13 13 2 11 12 11 0 0 0 7 0 11 6 13 2 7 16 1 19 7 11 7 6
split_gain=3.09803e+07 8.48366e+06 6.6665e+06 5.46873e+06 4.85715e+06 2.91334e+06 1.78762e+06 1.72058e+06 1.3643e+06 1.09758e+06 960742 952768 779721 473977 358986 336107 329851 322419 305787 303932 303765 307044 288879 270935 256623 251452 520324 247821 247617 227581
threshold=31.31666666666667 1.0000000180025095e-35 13.91666666666667 -0.21694186955877909 77.250000000000014 1.5000000000000002 6.5000000000000009 50.416666666666671 6.3833333333333337 -0.22252093395631442 110.92857142857144 74.607142857142875 21.357142857142858 1.5000000000000002 2.5000000000000004 2.5000000000000004 4.5000000000000009 6.5000000000000009 48.071428571428577 0.39059449598118917 2.2500000000000004 1.0000000180025095e-35 4.5000000000000009 225.50000000000003 -0.21694186955877909 2.5000000000000004 5.5000000000000009 139.50000000000003 11.500000000000002 0.51448200516348142
decision_type=2 2 2 2 2 2 2 2 2 2 2 2 2 2 2 2 2 2 2 2 2 2 2 2 2 2 2 2 2 2
left_child=2 4 8 11 7 -4 12 14 20 -10 -6 18 19 -11 -2 -9 -16 -15 -3 28 -1 -22 -17 -12 -23 26 -24 -13 -7 -14
right_child=1 3 5 -5 10 6 -8 15 9 13 23 27 29 17 16 22 -18 -19 -20 -21 21 24 25 -25 -26 -27 -28 -29 -30 -31
leaf_value=-0.27442795236468448 0.62070792679350917 0.75725794872365404 -0.30457215304583135 -0.14280815209114359 2.3852292037809635 0.18338834062447806 -0.1217515534712568 1.1128145293558476 0.027131893470931451 -0.29334369310569958 3.5525417973887934 2.2033500603124332 0.39404365160416505 -0.057580949055261281 1.2626280868506548 2.0298251251536295 0.8752576231707403 -0.21729771521307645 1.2546963999465772 0.33736308488368688 -0.13939252746287631 -0.1421302728426152 -1.9654374128580097 5.1338880327194936 -0.28637281636648454 1.5314346352100765 1.5285327033201075 4.4468657436100303 -0.17903442309839879 0.61279065224862594
leaf_weight=126897 8988 7538 27973 26373 2740 50127 27989 4745 146725 46650 839 969 40940 96499 7683 3052 19301 46982 5235 35129 177991 46134 160 400 92986 11127 319 141 5202 16757
leaf_count=126897 8988 7538 27973 26373 2740 50127 27989 4745 146725 46650 839 969 40940 96499 7683 3052 19301 46982 5235 35129 177991 46134 160 400 92986 11127 319 141 5202 16757
internal_value=0 0.840315 -0.0849801 0.280016 1.22033 0.169441 0.244718 1.09908 -0.151485 -0.0756084 2.90768 1.08324 0.31395 -0.154894 0.894391 1.47857 0.985551 -0.109879 0.961133 0.222342 -0.209051 -0.18289 1.59697 4.06307 -0.23854 1.48315 0.361445 2.48834 0.149314 0.457575
internal_weight=0 99610 984981 40256 59354 204117 176144 55375 780864 336856 3979 13883 148155 190131 35972 19403 26984 143481 12773 90458 444008 317111 14658 1239 139120 11606 479 1110 55329 57697
internal_count=1084591 99610 984981 40256 59354 204117 176144 55375 780864 336856 3979 13883 148155 190131 35972 19403 26984 143481 12773 90458 444008 317111 14658 1239 139120 11606 479 1110 55329 57697
is_linear=0
shrinkage=0.05


Tree=17
num_leaves=31
num_cat=0
split_feature=13 2 13 1 11 2 13 13 0 2 11 0 13 14 2 1 0 6 6 11 13 19 0 1 11 7 11 0 0 19
split_gain=2.79853e+07 7.53104e+06 6.43384e+06 4.89176e+06 4.25873e+06 2.79715e+06 1.67183e+06 1.32525e+06 1.29059e+06 893436 831034 773738 560193 472801 426147 401878 358639 324799 321486 318367 308212 289697 396735 275718 263807 238418 233617 231933 229924 224390
threshold=32.650000000000006 1.0000000180025095e-35 14.41666666666667 -0.21694186955877909 87.642857142857153 -0.22252093395631442 51.750000000000007 7.9166666666666679 1.5000000000000002 -0.22252093395631442 87.642857142857153 6.5000000000000009 23.416666666666668 178.50000000000003 -0.22252093395631442 -0.21694186955877909 2.5000000000000004 0.39059449598118917 0.51448200516348142 54.785714285714292 2.183333333333334 8.5000000000000018 4.5000000000000009 0.87837969732492682 41.785714285714292 6.5000000000000009 23.214285714285719 2.5000000000000004 2.5000000000000004 28.500000000000004
decision_type=2 2 2 2 2 2 2 2 2 2 2 2 2 2 2 2 2 2 2 2 2 2 2 2 2 2 2 2 2 2
left_child=2 4 7 10 6 12 18 14 -7 -9 19 26 -4 28 20 -11 -8 21 24 -3 -1 22 -18 -17 -2 -23 -10 -15 -6 -30
right_child=1 3 5 -5 13 8 16 9 11 15 -12 -13 -14 27 -16 23 17 -19 -20 -21 -22 25 -24 -25 -26 -27 -28 -29 29 -31
leaf_value=-0.2427447743788132 0.62749404725805036 0.81609414516539336 0.29998868147383451 -0.13077938436232323 1.6313304118567 -0.28870681391161485 1.0979690210552258 0.06104725280224621 0.1383380943787087 0.016369141585371821 2.8676939941125692 -0.11192357062553777 0.57015283014451368 2.850700901603699 -0.22317004152035891 -0.23829594785175559 1.3728967970876553 1.9213750798577518 1.1100802062899373 1.3734176941050265 -0.10253184560927971 1.7863729620953923 -1.7094885421775239 -0.067447405988404943 0.97012252548828837 1.2573796424855177 0.35125375238893275 4.6462239354151462 0.37130094609550529 3.2121212312116256
leaf_weight=50280 12181 8777 59248 24669 380 27297 4609 109083 37540 35104 611 27360 28378 250 315392 68269 268 5178 11516 3619 177750 3787 171 36103 10427 4868 19615 641 74 1146
leaf_count=50280 12181 8777 59248 24669 380 27297 4609 109083 37540 35104 611 27360 28378 250 315392 68269 268 5178 11516 3619 177750 3787 171 36103 10427 4868 19615 641 74 1146
internal_value=0 0.828491 -0.0778603 0.282918 1.19888 0.175962 1.10393 -0.141778 0.0101956 -0.0461437 1.06753 0.106736 0.387482 3.21934 -0.185521 -0.129977 1.48143 1.60527 0.895049 0.978804 -0.133448 1.42528 0.172241 -0.179198 0.785517 1.48884 0.211409 4.14243 2.7053 3.03981
internal_weight=0 93172 991419 37676 55496 199438 53005 791981 111812 248559 13007 84515 87626 2491 543422 139476 18881 14272 34124 12396 228030 9094 439 104372 22608 8655 57155 891 1600 1220
internal_count=1084591 93172 991419 37676 55496 199438 53005 791981 111812 248559 13007 84515 87626 2491 543422 139476 18881 14272 34124 12396 228030 9094 439 104372 22608 8655 57155 891 1600 1220
is_linear=0
shrinkage=0.05


Tree=18
num_leaves=31
num_cat=0
split_feature=13 2 11 1 13 2 13 13 13 1 1 11 2 11 11 6 1 11 1 15 1 7 6 6 1 3 6 19 19 1
split_gain=2.52865e+07 7.31931e+06 5.39313e+06 4.7211e+06 3.81304e+06 2.0541e+06 1.8834e+06 1.57885e+06 1.04755e+06 799298 690038 666460 552092 423624 379659 365584 319564 314694 306202 277519 256302 241569 241383 237122 229167 219179 217310 221796 207571 333096
threshold=25.216666666666672 -1.0000000180025095e-35 60.357142857142868 -0.21694186955877909 9.6500000000000004 -0.22252093395631442 93.88333333333334 40.250000000000007 58.150000000000006 -0.21694186955877909 0.87837969732492682 15.642857142857144 -0.22252093395631442 4.9285714285714297 110.92857142857144 0.39059449598118917 0.87837969732492682 38.928571428571438 0.87837969732492682 213.50000000000003 -0.21694186955877909 11.500000000000002 0.39059449598118917 0.67904876271727266 0.6078576107927941 16.500000000000004 0.4669418695587792 38.500000000000007 1.5000000000000002 -0.60785761079279388
decision_type=2 2 2 2 2 2 2 2 2 2 2 2 2 2 2 2 2 2 2 2 2 2 2 2 2 2 2 2 2 2
left_child=4 2 7 8 12 11 23 18 17 -7 -11 -6 13 -1 -10 21 19 -3 22 26 -14 -9 -2 28 -5 -23 27 -8 29 -4
right_child=1 3 6 24 5 9 16 15 14 10 -12 -13 20 -15 -16 -17 -18 -19 -20 -21 -22 25 -24 -25 -26 -27 -28 -29 -30 -31
leaf_value=-0.16508395717014576 0.54736043072328833 0.47267466275420528 -1.5259648090435398 -0.016960474921167697 0.10703417712996498 0.12216167926822218 -0.99116633252093667 0.96899718256809697 1.4888755536022522 -0.20928782615183217 0.033121764976804934 0.33343846447518738 -0.13047325052262809 -0.038745011563494698 3.3130262282863256 1.2870866595946304 2.2061128252769668 0.91232410927515728 0.34160608791742719 4.8291111621373819 -0.22676002666864453 0.65577307971749144 0.83048272785588662 2.1147153543242641 -0.26587877202275856 -0.7774215434603291 4.1665545066572589 2.9428145274585278 1.5655640736762784 1.5932577123291685
leaf_weight=147528 20818 9365 144 18262 81942 43657 38 16072 2626 84639 44947 53876 92254 120583 320 10579 477 7199 10710 395 275525 1014 11793 2040 18730 362 424 627 7434 211
leaf_count=147528 20818 9365 144 18262 81942 43657 38 16072 2626 84639 44947 53876 92254 120583 320 10579 477 7199 10710 395 275525 1014 11793 2040 18730 362 424 627 7434 211
internal_value=0 0.628031 0.926454 0.188927 -0.0928072 0.0512616 1.91711 0.762751 0.818266 -0.0628711 -0.125208 0.196844 -0.162829 -0.108263 1.68702 1.05517 3.33193 0.663754 0.573566 3.6938 -0.202607 0.91456 0.649745 1.63484 -0.142994 0.278726 3.282 2.71802 1.50916 0.327996
internal_weight=0 139640 83138 56502 944951 309061 11790 71348 19510 173243 129586 135818 635890 268111 2946 28027 1961 16564 43321 1484 367779 17448 32611 9829 36992 1376 1089 665 7789 355
internal_count=1084591 139640 83138 56502 944951 309061 11790 71348 19510 173243 129586 135818 635890 268111 2946 28027 1961 16564 43321 1484 367779 17448 32611 9829 36992 1376 1089 665 7789 355
is_linear=0
shrinkage=0.05


Tree=19
num_leaves=31
num_cat=0
split_feature=13 0 13 0 13 0 0 13 13 0 11 0 11 6 9 11 6 6 3 6 9 11 9 13 11 0 3 6 19 1
split_gain=2.28904e+07 5.83354e+06 5.28777e+06 4.42964e+06 4.20562e+06 2.22245e+06 1.33094e+06 1.32571e+06 1.1778e+06 956920 832705 622895 533486 353718 361805 334352 308614 292370 291341 274683 234728 233294 221608 213055 210623 204283 203490 197972 188192 230155
threshold=32.650000000000006 1.5000000000000002 15.016666666666667 6.5000000000000009 77.250000000000014 1.5000000000000002 6.5000000000000009 51.750000000000007 5.7120689655172425 1.5000000000000002 139.50000000000003 6.5000000000000009 23.214285714285719 0.39059449598118917 0.93301270189221952 10.071428571428573 0.39059449598118917 0.3090169943749474 15.500000000000002 0.39059449598118917 0.93301270189221952 96.214285714285737 0.93301270189221952 1.7500000000000002 46.357142857142868 1.5000000000000002 16.500000000000004 0.67904876271727266 2.5000000000000004 -0.8783796973249266
decision_type=2 2 2 2 2 2 2 2 2 2 2 2 2 2 2 2 2 2 2 2 2 2 2 2 2 2 2 2 2 2
left_child=2 -2 8 4 7 -4 12 13 23 -10 19 15 16 14 24 -11 20 22 -16 28 -7 -21 -9 -1 -3 -25 -22 -12 29 -6
right_child=1 3 5 -5 10 6 -8 17 9 11 27 -13 -14 -15 18 -17 -18 -19 -20 21 26 -23 -24 25 -26 -27 -28 -29 -30 -31
leaf_value=-0.25395348748386076 -0.25333554682198023 0.64333532407074556 -0.26284648134662364 0.024132375073729569 -2.9703424453735354 0.18563876810957508 -0.092520096476399277 1.1708511777618966 -0.25767330179575909 -0.046940034332714563 3.6353380704927845 -0.18670405597834216 0.43487867697839233 0.9852936426919755 0.52633809217434757 0.063755971114077908 0.34460242393937068 1.4991964662626718 -0.65937118279290274 2.2974675983490358 0.060791362350754746 3.6111985789437315 0.21772402407374078 -0.26750807914516483 0.95924633546140703 -0.15054637134216456 -0.61496878557898504 5.7131342390893209 2.0181171723567313 1.2674047562762263
leaf_weight=92420 12553 17497 25737 12116 40 49338 25711 11829 56345 185705 595 57150 47522 15290 1339 107821 34283 8713 845 994 3152 512 643 43565 7554 260947 1723 142 2349 161
leaf_count=92420 12553 17497 25737 12116 40 49338 25711 11829 56345 185705 595 57150 47522 15290 1339 107821 34283 8713 845 994 3152 512 643 43565 7554 260947 1723 142 2349 161
internal_value=0 0.749289 -0.070417 0.905406 1.06127 0.168712 0.237388 0.953819 -0.126177 -0.066413 2.48961 -0.0356822 0.29975 0.792835 0.684787 -0.00627804 0.227186 1.27696 0.0675815 2.20868 0.152935 2.7441 1.12171 -0.18746 0.738597 -0.167279 -0.178047 4.03567 1.89247 0.424072
internal_weight=0 93172 991419 80619 68503 187466 161729 63710 803953 407021 4793 350676 136018 42525 27235 293526 88496 21185 2184 4056 54213 1506 12472 396932 25051 304512 4875 737 2550 201
internal_count=1084591 93172 991419 80619 68503 187466 161729 63710 803953 407021 4793 350676 136018 42525 27235 293526 88496 21185 2184 4056 54213 1506 12472 396932 25051 304512 4875 737 2550 201
is_linear=0
shrinkage=0.05


Tree=20
num_leaves=31
num_cat=0
split_feature=13 2 13 1 11 2 11 0 13 13 13 0 13 0 0 6 6 11 0 11 7 10 7 18 7 11 0 19 0 5
split_gain=2.06729e+07 5.79534e+06 4.231e+06 3.64635e+06 3.602e+06 2.12529e+06 1.07278e+06 964258 948835 696968 691824 621575 579539 523872 421871 337029 324649 287094 275479 249039 247827 244598 235092 234470 227567 202882 183529 210800 255518 181117
threshold=30.083333333333339 1.0000000180025095e-35 11.583333333333334 -0.21694186955877909 70.357142857142875 -0.22252093395631442 45.785714285714292 1.5000000000000002 93.88333333333334 63.050000000000004 4.4408045977011499 1.5000000000000002 18.81666666666667 6.5000000000000009 6.5000000000000009 0.39059449598118917 0.51448200516348142 18.071428571428573 2.5000000000000004 110.92857142857144 4.5000000000000009 48.500000000000007 11.500000000000002 213.50000000000003 4.5000000000000009 8.5000000000000018 2.5000000000000004 8.5000000000000018 4.5000000000000009 -6.8901856967953321e-16
decision_type=2 2 2 2 2 2 2 2 2 2 2 2 2 2 2 2 2 2 2 2 2 2 2 2 2 2 2 2 2 2
left_child=2 4 10 9 6 12 15 -7 -6 21 -1 -12 -4 17 25 24 26 -9 -10 -11 -14 -3 -23 -20 -2 -13 -8 28 -28 -24
right_child=1 3 5 -5 8 7 16 13 18 19 11 14 20 -15 -16 -17 -18 -19 23 -21 -22 22 29 -25 -26 -27 27 -29 -30 -31
leaf_value=-0.19276220649337217 0.83037094325270022 -1.2803893236639468 0.16532110313124615 -0.11988173273041927 1.6946317183916897 -0.25151093715404665 0.69118110310350067 0.030236211442180368 1.9811376483442915 1.4717841210433285 -0.24472636760471383 -0.074001066730026946 0.57998842524075411 -0.11088951081587549 -0.19000005092911101 0.8642549674351655 1.3924793342505752 0.22602692236062408 2.9911440154930689 2.9920494942180813 0.32416827349696664 0.79689599783395304 -0.92152176677285436 4.4273828060828242 0.4484599114144292 0.01282760803976276 1.0408788399623505 1.1275564925017076 -1.2958214375052122 0.53457903138834484
leaf_weight=299368 5173 152 66954 28105 4227 35878 4001 40142 474 1703 58185 196966 12913 35761 59620 13264 7024 35090 1085 320 35477 11725 355 385 15857 102174 278 11197 202 536
leaf_count=299368 5173 152 66954 28105 4227 35878 4001 40142 474 1703 58185 196966 12913 35761 59620 13264 7024 35090 1085 320 35477 11725 355 385 15857 102174 278 11197 202 536
internal_value=0 0.663044 -0.0718676 0.214542 0.967617 0.0999737 0.84338 -0.026174 2.11509 0.849996 -0.134772 -0.0931352 0.260601 0.0466652 -0.0685496 0.666887 1.10999 0.121558 3.02932 1.71226 0.392435 0.713376 0.737397 3.3673 0.542403 -0.0443439 0.983434 1.08357 0.0575175 -0.0455734
internal_weight=0 106063 978528 42896 63167 262215 56996 146871 6171 14791 716313 416945 115344 110993 358760 34294 22702 75232 1944 2023 48390 12768 12616 1470 21030 299140 15678 11677 480 891
internal_count=1084591 106063 978528 42896 63167 262215 56996 146871 6171 14791 716313 416945 115344 110993 358760 34294 22702 75232 1944 2023 48390 12768 12616 1470 21030 299140 15678 11677 480 891
is_linear=0
shrinkage=0.05


Tree=21
num_leaves=31
num_cat=0
split_feature=13 2 13 11 0 2 0 13 0 11 13 2 0 15 13 11 2 0 7 6 13 19 7 7 19 0 0 3 7 6
split_gain=1.8724e+07 4.99411e+06 4.47265e+06 2.73577e+06 2.2254e+06 1.93335e+06 1.77119e+06 969074 881080 875010 837801 684501 496294 410760 380048 331834 324866 289651 274989 237532 234307 229776 216742 196699 181563 274453 173686 169762 169409 168385
threshold=33.38333333333334 -0.22252093395631442 15.016666666666667 82.785714285714292 1.5000000000000002 -0.22252093395631442 6.5000000000000009 8.0500000000000025 1.5000000000000002 64.785714285714292 54.616666666666674 -0.22252093395631442 6.5000000000000009 194.50000000000003 24.083333333333339 110.92857142857144 -0.22252093395631442 1.5000000000000002 4.5000000000000009 0.39059449598118917 2.0339080459770118 28.500000000000004 11.500000000000002 4.5000000000000009 1.5000000000000002 4.5000000000000009 6.5000000000000009 15.500000000000002 6.5000000000000009 0.51448200516348142
decision_type=2 2 2 2 2 2 2 2 2 2 2 2 2 2 2 2 2 2 2 2 2 2 2 2 2 2 2 2 2 2
left_child=2 3 7 10 -3 14 9 16 -7 22 18 -9 -10 21 23 -11 20 -13 -2 24 -1 -5 -6 -4 25 -12 -19 -24 -26 -23
right_child=1 4 5 13 6 8 -8 11 12 15 19 17 -14 -15 -16 -17 -18 26 -20 -21 -22 29 27 -25 28 -27 -28 -29 -30 -31
leaf_value=-0.20635343920798699 1.1089031079744796 -0.23463441353043579 0.40745851049737686 0.0037174336453701588 0.68747297128537099 -0.23753321530036686 0.034874964167776759 0.059965209611143634 0.18171822464067855 1.2404613545721666 1.1974031565746723 -0.23151397216161451 -0.083102228492063945 3.9688358319596149 0.48972442707495223 2.4787321892763283 -0.18387679059275919 -0.021160642817413335 0.75327678666098574 1.6717839111213075 -0.080853612142793255 2.2261598898331907 0.5028425225974974 0.20241688284726536 1.5361711075829347 -1.7175062526356091 -0.15737500214420264 -0.6000411747687564 1.0275227929477935 3.357266814230834
leaf_weight=46558 7571 12077 16459 94 19923 26213 11675 111040 54690 3795 208 34638 26152 558 26938 631 319848 72443 19275 4108 184856 1162 856 40423 2913 132 34570 589 3737 459
leaf_count=46558 7571 12077 16459 94 19923 26213 11675 111040 54690 3795 208 34638 26152 558 26938 631 319848 72443 19275 4108 184856 1162 856 40423 2913 132 34570 589 3737 459
internal_value=0 0.691611 -0.0624038 1.10556 0.355602 0.155176 0.545847 -0.114062 0.0143704 0.777125 1.00463 -0.0329811 0.0960501 2.79047 0.335014 1.417 -0.151228 -0.105842 0.853569 1.37004 -0.106103 2.40707 0.644587 0.261746 1.19271 0.0657324 -0.065164 0.0532934 1.25033 2.54644
internal_weight=0 89763 994828 40217 49546 190875 37469 803953 107055 25794 37944 252691 80842 2273 83820 4426 551262 141651 26846 11098 231414 1715 21368 56882 6990 340 107013 1445 6650 1621
internal_count=1084591 89763 994828 40217 49546 190875 37469 803953 107055 25794 37944 252691 80842 2273 83820 4426 551262 141651 26846 11098 231414 1715 21368 56882 6990 340 107013 1445 6650 1621
is_linear=0
shrinkage=0.05


Tree=22
num_leaves=31
num_cat=0
split_feature=13 2 13 13 0 0 2 11 11 11 0 11 11 13 0 0 0 6 19 8 7 6 7 11 11 19 7 7 7 19
split_gain=1.69393e+07 5.05303e+06 3.52293e+06 2.33086e+06 2.17964e+06 1.71068e+06 1.35134e+06 1.34993e+06 1.21881e+06 1.02159e+06 623167 511179 417110 391633 366324 323337 271115 261818 227492 270864 215367 205517 193764 191170 184533 165039 357217 164108 149332 149112
threshold=24.083333333333339 -0.22252093395631442 60.38333333333334 9.339080459770118 1.5000000000000002 6.5000000000000009 -0.22252093395631442 48.071428571428577 96.214285714285737 37.500000000000007 1.5000000000000002 96.214285714285737 15.642857142857144 3.8500000000000005 1.5000000000000002 6.5000000000000009 6.5000000000000009 0.39059449598118917 2.5000000000000004 0.50000000000000022 5.5000000000000009 0.4669418695587792 4.5000000000000009 34.928571428571438 17.357142857142858 9.5000000000000018 5.5000000000000009 11.500000000000002 4.5000000000000009 38.500000000000007
decision_type=2 2 2 2 2 2 2 2 2 2 2 2 2 2 2 2 2 2 2 2 2 2 2 2 2 2 2 2 2 2
left_child=3 2 9 13 -3 7 12 23 18 17 -8 -9 28 -1 -15 24 -16 27 19 -4 -20 29 -11 -6 -12 26 -24 -2 -5 -10
right_child=1 4 8 6 5 -7 10 11 21 22 15 -13 -14 14 16 -17 -18 -19 20 -21 -22 -23 25 -25 -26 -27 -28 -29 -30 -31
leaf_value=-0.18356628496892202 0.43419764810118527 -0.2207456886426675 1.3404976427151358 0.19706822629501072 0.2735694366215326 -0.009487105199720746 -0.22506722714416255 0.89812152321114791 0.13588854648448803 1.1442844189691792 0.0016728042992083057 2.1255474715829874 0.26569470700898812 -0.22544066948102615 -0.061704863935882905 -0.11912251957396741 -0.18445586549451529 0.67624561310341902 1.9466533900306402 -1.5965212702983991 1.3624259924054198 4.0006022782846431 -1.6388664230916175 0.53174952360644778 0.15919365384654596 0.86433613066261405 0.88480037631267572 -0.071460703500319619 0.046634328511462063 2.8418447309201902
leaf_weight=250118 19807 20128 203 21991 18709 19631 43056 11791 54 7181 63513 914 49451 52184 264957 42868 54181 13163 2293 128 5055 435 211 11625 26288 15571 418 1746 66031 890
leaf_count=250118 19807 20128 203 21991 18709 19631 43056 11791 54 7181 63513 914 49451 52184 264957 42868 54181 13163 2293 128 5055 435 211 11625 26288 15571 418 1746 66031 890
internal_value=0 0.49332 0.815604 -0.079148 0.231925 0.377311 0.0320755 0.553737 1.73276 0.672608 -0.0597861 0.986423 0.149498 -0.135203 -0.102627 -0.00614625 -0.0825447 0.500542 1.48698 0.204732 1.54474 3.10141 0.928092 0.372513 0.0477849 0.832261 0.0382285 0.393234 0.084218 2.68705
internal_weight=0 149953 67155 934638 82798 62670 313198 43039 9058 58097 175725 12705 137473 621440 371322 132669 319138 34716 7679 331 7348 1379 23381 30334 89801 16200 629 21553 88022 944
internal_count=1084591 149953 67155 934638 82798 62670 313198 43039 9058 58097 175725 12705 137473 621440 371322 132669 319138 34716 7679 331 7348 1379 23381 30334 89801 16200 629 21553 88022 944
is_linear=0
shrinkage=0.05


Tree=23
num_leaves=31
num_cat=0
split_feature=13 2 13 11 0 2 0 13 0 2 11 11 15 0 11 0 11 6 6 19 11 0 7 7 19 2 8 6 13 5
split_gain=1.53352e+07 4.0398e+06 3.77684e+06 2.21616e+06 1.81709e+06 1.60715e+06 1.43601e+06 825926 735216 719580 701879 581506 430246 415445 330893 307812 276979 276064 232463 220356 214362 196272 191852 175382 184749 208588 164909 162722 158201 156954
threshold=34.150000000000006 -0.22252093395631442 15.216666666666667 79.214285714285737 1.5000000000000002 -0.22252093395631442 6.5000000000000009 5.5166666666666675 1.5000000000000002 -0.22252093395631442 65.785714285714292 54.785714285714292 194.50000000000003 6.5000000000000009 25.214285714285719 1.5000000000000002 139.50000000000003 0.39059449598118917 0.39059449598118917 28.500000000000004 10.785714285714286 6.5000000000000009 11.500000000000002 11.500000000000002 7.5000000000000009 -0.56174490092936669 0.50000000000000022 0.3090169943749474 1.6833333333333336 -6.8901856967953321e-16
decision_type=2 2 2 2 2 2 2 2 2 2 2 2 2 2 2 2 2 2 2 2 2 2 2 2 2 2 2 2 2 2
left_child=2 3 7 11 -3 14 10 28 -7 20 22 17 19 -10 18 -11 -12 23 -4 26 -9 -17 -6 24 25 -2 -5 -13 -1 -24
right_child=1 4 5 12 6 8 -8 9 13 15 16 27 -14 -15 -16 21 -18 -19 -20 -21 -22 -23 29 -25 -26 -27 -28 -29 -30 -31
leaf_value=-0.2146798538171284 0.61315019355684119 -0.21192353186905716 0.1717018923470528 1.8511148423984132 0.64078510627400864 -0.21430976895713472 0.037922879284735027 -0.014600999835558723 0.16958651906448072 -0.21092165876821578 1.1998396074147823 1.0824702491328486 3.6228101180309902 -0.073230565474492068 0.47084675862927039 -0.042990915207155825 2.782487561608721 0.99800491784144629 0.37354672521193266 2.1879442014943704 0.10442572616040582 -0.15363128670556717 -0.65190035289981307 0.13372426107584523 0.75062905917564027 -1.2700795981678104 -1.9033244514364307 1.5015605897414732 -0.13829156963285907 0.44267366558686327
leaf_weight=88044 370 11659 37749 58 19328 26092 11273 131750 54493 58930 3823 6154 559 26030 22954 121798 298 9888 22929 2080 53061 59747 522 1428 14204 244 59 3714 294474 879
leaf_count=88044 370 11659 37749 58 19328 26092 11273 131750 54493 58930 3823 6154 559 26030 22954 121798 298 9888 22929 2080 53061 59747 522 1428 14204 244 59 3714 294474 879
internal_value=0 0.638484 -0.0553623 1.01779 0.33081 0.145063 0.505982 -0.102565 0.0163515 -0.0546164 0.718313 0.913184 2.3843 0.0910931 0.309145 -0.111633 1.31428 0.789704 0.247975 2.06918 0.0195727 -0.079403 0.599832 0.662924 0.713922 -0.135234 -0.0421494 1.2402 -0.155874 0.0348452
internal_weight=0 86540 998051 38758 47782 190247 36123 807804 106615 425286 24850 36002 2756 80523 83632 240475 4121 26134 60678 2197 184811 181545 20729 16246 14818 614 117 9868 382518 1401
internal_count=1084591 86540 998051 38758 47782 190247 36123 807804 106615 425286 24850 36002 2756 80523 83632 240475 4121 26134 60678 2197 184811 181545 20729 16246 14818 614 117 9868 382518 1401
is_linear=0
shrinkage=0.05


Tree=24
num_leaves=31
num_cat=0
split_feature=13 2 11 13 0 0 13 11 2 11 0 11 11 2 0 11 11 19 8 11 3 19 10 7 7 1 11 0 3 0
split_gain=1.38583e+07 4.11262e+06 2.91462e+06 1.91409e+06 1.78327e+06 1.40414e+06 1.14581e+06 1.12358e+06 1.10948e+06 731641 514613 362379 350639 328621 268358 266150 216480 187178 265501 180135 179065 168986 160428 158893 158704 158027 155637 145819 139213 172028
threshold=24.083333333333339 -0.22252093395631442 57.071428571428577 9.1500000000000004 1.5000000000000002 6.5000000000000009 93.88333333333334 54.785714285714292 -0.22252093395631442 35.785714285714292 1.5000000000000002 14.785714285714286 110.92857142857144 -0.22252093395631442 6.5000000000000009 38.928571428571438 5.3571428571428585 2.5000000000000004 0.50000000000000022 139.50000000000003 25.500000000000004 3.5000000000000004 997.50000000000011 4.5000000000000009 5.5000000000000009 -0.21694186955877909 16.500000000000004 4.5000000000000009 27.500000000000004 4.5000000000000009
decision_type=2 2 2 2 2 2 2 2 2 2 2 2 2 2 2 2 2 2 2 2 2 2 2 2 2 2 2 2 2 2
left_child=3 2 9 13 -3 7 17 15 11 23 -10 -5 -9 16 26 -6 -1 18 -4 -8 21 27 -22 -2 -19 -15 -12 -11 29 -24
right_child=1 4 6 8 5 -7 19 12 10 20 14 -13 -14 25 -16 -17 -18 24 -20 -21 22 -23 28 -25 -26 -27 -28 -29 -30 -31
leaf_value=-0.11641835184712196 0.63874901497177483 -0.1990620293431295 1.3013520537221048 0.066213348446429413 0.27544831249845697 -0.0085426900109216771 2.4205604619191639 0.9260875372160573 -0.2028751452969941 0.5953048188127491 -0.00390240408482307 0.2293185660317415 2.1511546834400028 -0.097118278181605108 -0.10832186495179248 0.56834449202777526 -0.02191174317901318 1.6043983726914892 -1.2443008218827689 3.6283259916659363 1.2221673974329823 0.76871302350019288 -1.9435698301338953 0.37452300241437708 1.1691628872392357 -0.17420577131377596 0.1341874583164524 -0.82255865436417452 1.0107073455069546 1.4289249502528798
leaf_weight=160068 7395 20128 249 84901 22795 19631 1046 7857 44454 433 62328 56861 631 88727 44289 11756 97506 3328 174 438 3440 19626 121 24674 5651 265168 30336 312 213 55
leaf_count=160068 7395 20128 249 84901 22795 19631 1046 7857 44454 433 62328 56861 631 88727 44289 11756 97506 3328 174 438 3440 19626 121 24674 5651 265168 30336 312 213 55
internal_value=0 0.446206 0.736958 -0.0715891 0.210386 0.34189 1.48586 0.50173 0.0268351 0.592073 -0.0550618 0.131635 1.01716 -0.123608 -0.00708262 0.375106 -0.0806424 1.28206 0.254204 2.77703 0.799622 0.740655 1.11333 0.435453 1.33048 -0.154879 0.0413049 0.00151502 0.150899 -0.889665
internal_weight=0 149953 67155 934638 82798 62670 10886 43039 323169 56269 181407 141762 8488 611469 136953 34551 257574 9402 423 1484 24200 20371 3829 32069 8979 353895 92664 745 389 176
internal_count=1084591 149953 67155 934638 82798 62670 10886 43039 323169 56269 181407 141762 8488 611469 136953 34551 257574 9402 423 1484 24200 20371 3829 32069 8979 353895 92664 745 389 176
is_linear=0
shrinkage=0.05


Tree=25
num_leaves=31
num_cat=0
split_feature=13 0 13 0 13 0 0 13 13 0 11 0 6 7 3 6 7 6 6 11 11 3 13 7 6 7 13 6 7 0
split_gain=1.25439e+07 3.18589e+06 3.08442e+06 2.31732e+06 2.29804e+06 1.27419e+06 763494 687631 649408 552035 510468 361902 359842 335123 268924 251061 233312 229766 221365 219796 217816 202544 194121 175183 166468 152935 142151 141752 172382 140743
threshold=34.150000000000006 1.5000000000000002 15.216666666666667 6.5000000000000009 77.250000000000014 1.5000000000000002 6.5000000000000009 5.5166666666666675 51.750000000000007 1.5000000000000002 139.50000000000003 6.5000000000000009 0.39059449598118917 11.500000000000002 16.500000000000004 0.39059449598118917 11.500000000000002 0.39059449598118917 0.3090169943749474 26.642857142857149 10.785714285714286 16.500000000000004 22.183333333333337 11.500000000000002 0.67904876271727266 4.5000000000000009 1.5425287356321842 0.39059449598118917 11.500000000000002 1.5000000000000002
decision_type=2 2 2 2 2 2 2 2 2 2 2 2 2 2 2 2 2 2 2 2 2 2 2 2 2 2 2 2 2 2
left_child=2 -2 7 4 8 -4 12 26 15 -9 17 20 13 19 -15 16 -3 25 23 -7 27 -18 -14 -10 -12 -6 -1 28 -11 -28
right_child=1 3 5 -5 10 6 -8 9 18 11 24 -13 22 14 -16 -17 21 -19 -20 -21 -22 -23 -24 -25 -26 -27 29 -29 -30 -31
leaf_value=-0.20103992910466573 -0.19137425810144659 0.55379816471438603 -0.19351241090217855 0.036453865164609828 2.1165281140310888 0.14815713400993871 -0.065754856469701445 -0.19101262208438619 0.85849891418104696 -0.044863612854324345 2.710431326472762 -0.13870698249362196 0.24899254982233063 0.037212400191572147 -0.6608629020150576 0.77659275842384357 0.31722035602364246 2.1367659379840691 1.1432725977830582 0.33575194344807335 0.060995292240697677 -0.78679033131385856 0.44779239398564857 0.011066939688286228 4.6157467398844974 1.1602372299158856 -0.20912432586220892 0.020308972331719254 -0.2392021454078507 -0.11188001921348384
leaf_weight=79155 11659 22157 26092 11273 527 60864 26030 58930 11829 121546 595 59747 27747 4493 1991 13488 1393 1506 8713 21002 90372 592 22028 643 142 2023 43424 82098 12593 259939
leaf_count=79155 11659 22157 26092 11273 527 60864 26030 58930 11829 121546 595 59747 27747 4493 1991 13488 1393 1506 8713 21002 90372 592 22028 643 142 2023 43424 82098 12593 259939
internal_value=0 0.577459 -0.0500709 0.697167 0.814263 0.131053 0.182641 -0.0927275 0.728469 -0.0489773 1.86703 -0.0261303 0.229452 0.168877 -0.177141 0.603808 0.507274 1.64708 0.9499 0.196283 -0.0041932 -0.0120362 0.336972 0.814809 3.07753 1.35787 -0.141369 -0.0314374 -0.0631082 -0.1258
internal_weight=0 86540 998051 74881 63608 190247 164155 807804 58815 425286 4793 366356 138125 88350 6484 37630 24142 4056 21185 81866 306609 1985 49775 12472 737 2550 382518 216237 134139 303363
internal_count=1084591 86540 998051 74881 63608 190247 164155 807804 58815 425286 4793 366356 138125 88350 6484 37630 24142 4056 21185 81866 306609 1985 49775 12472 737 2550 382518 216237 134139 303363
is_linear=0
shrinkage=0.05


Tree=26
num_leaves=31
num_cat=0
split_feature=13 2 13 12 0 2 0 13 11 0 2 11 0 7 18 1 11 2 19 8 7 13 7 7 1 7 13 7 19 7
split_gain=1.13209e+07 3.06542e+06 2.7878e+06 1.70043e+06 1.31886e+06 1.1802e+06 1.02364e+06 663970 530549 525102 515153 506150 285027 266599 264844 225234 208837 200561 178867 230342 177223 175015 172863 157167 153794 153680 145612 135515 145301 198465
threshold=34.150000000000006 -0.22252093395631442 15.813793103448278 81.821428571428598 1.5000000000000002 -0.22252093395631442 6.5000000000000009 7.3166666666666673 64.785714285714292 1.5000000000000002 -0.22252093395631442 52.785714285714292 6.5000000000000009 4.5000000000000009 194.50000000000003 -0.21694186955877909 139.50000000000003 1.0000000180025095e-35 2.5000000000000004 0.50000000000000022 4.5000000000000009 1.7500000000000002 4.5000000000000009 6.5000000000000009 -0.21694186955877909 11.500000000000002 24.416666666666668 4.5000000000000009 38.500000000000007 5.5000000000000009
decision_type=2 2 2 2 2 2 2 2 2 2 2 2 2 2 2 2 2 2 2 2 2 2 2 2 2 2 2 2 2 2
left_child=2 3 7 11 -3 13 8 17 25 -7 22 20 -11 -4 27 -12 -10 21 19 -13 -2 -1 -9 -20 -19 -6 -15 -5 29 -29
right_child=1 4 5 14 6 9 -8 10 16 12 15 18 -14 26 -16 -17 -18 24 23 -21 -22 -23 -24 -25 -26 -27 -28 28 -30 -31
leaf_value=-0.17786469026229634 0.89403553413584991 -0.18180555480991126 0.42535907024546038 2.6071911191436605 0.53863908329214238 -0.18352654808275426 0.034631176991524515 0.13207348170319272 1.0130899974099083 0.14934637559463693 0.011570604269770262 1.066274172868241 -0.058075082789608691 0.16046161870429387 3.190309227401726 -0.11887496309754904 2.3836603195900286 -0.098517112471193685 1.2854864958952454 -1.1418748828020073 0.58685055164264088 -0.075708338059467806 0.0077769453612594151 0.91798031458594509 -0.18678134910897079 -0.0054165540316542622 0.32764142170295057 -4.4060917978701388 1.7579268912778856 1.3481142591598423
leaf_weight=51154 6341 11659 21660 497 19031 24555 11273 39183 4128 51396 44228 275 24437 36985 539 131420 298 73811 5792 207 18091 232417 97764 5845 148936 1393 20105 23 1105 43
leaf_count=51154 6341 11659 21660 497 19031 24555 11273 39183 4128 51396 44228 275 24437 36985 539 131420 298 73811 5792 207 18091 232417 97764 5845 148936 1393 20105 23 1105 43
internal_value=0 0.548586 -0.0475674 0.879 0.280574 0.131102 0.429811 -0.0866514 0.609081 0.0174337 -0.0293526 0.797619 0.0825053 0.276002 2.22677 -0.0860289 1.10537 -0.122027 1.0618 0.117961 0.666576 -0.0941365 0.0433404 1.1009 -0.157533 0.501532 0.219336 1.91541 1.62181 -0.657139
internal_weight=0 86540 998051 38758 47782 179138 36123 818913 24850 100388 312595 36551 75833 78750 2207 175648 4426 506318 12119 482 24432 283571 136947 11637 222747 20424 57090 1668 1171 66
internal_count=1084591 86540 998051 38758 47782 179138 36123 818913 24850 100388 312595 36551 75833 78750 2207 175648 4426 506318 12119 482 24432 283571 136947 11637 222747 20424 57090 1668 1171 66
is_linear=0
shrinkage=0.05


Tree=27
num_leaves=31
num_cat=0
split_feature=13 2 11 13 1 2 2 13 14 13 1 13 11 2 7 2 10 6 7 7 6 7 1 19 8 5 7 19 1 13
split_gain=1.02524e+07 3.09235e+06 2.00242e+06 1.76044e+06 1.26028e+06 1.0304e+06 938651 709102 467710 454464 372510 351369 292667 291782 280932 237526 236137 208208 180219 178101 175580 171820 165615 158726 181620 150415 148648 154637 196658 146339
threshold=26.883333333333336 -0.22252093395631442 70.357142857142875 10.950000000000001 -0.21694186955877909 1.0000000180025095e-35 -0.22252093395631442 43.716666666666676 154.12500000000003 63.050000000000004 -0.21694186955877909 3.916666666666667 49.785714285714292 -0.22252093395631442 4.5000000000000009 1.0000000180025095e-35 48.500000000000007 0.39059449598118917 11.500000000000002 4.5000000000000009 0.3090169943749474 7.5000000000000009 -0.60785761079279388 1.0000000180025095e-35 0.50000000000000022 -6.8901856967953321e-16 10.500000000000002 5.5000000000000009 -0.60785761079279388 40.250000000000007
decision_type=2 2 2 2 2 2 2 2 2 2 2 2 2 2 2 2 2 2 2 2 2 2 2 2 2 2 2 2 2 2
left_child=3 2 7 11 9 12 14 19 23 16 -8 -1 -6 -13 -5 -12 -3 26 29 -2 -16 -10 -15 24 -4 -20 27 28 -9 -18
right_child=1 4 8 6 5 -7 10 17 21 -11 15 13 -14 22 20 -17 18 -19 25 -21 -22 -23 -24 -25 -26 -27 -28 -29 -30 -31
leaf_value=-0.14432165169880493 0.6495871100562759 -1.3063863545494234 1.4949963441022587 0.28482215147690382 0.24244552768881836 -0.08929262300773072 0.10683267407027322 -1.3384833765669644 3.1889710590068621 1.270667160593721 0.024550655330882243 -0.023430358822749457 0.67188288909192884 -0.035692691915443442 0.052760459122250518 -0.12897761237280023 0.39233869604437749 1.0352942484505026 -0.86474136505187893 0.38051477310153697 0.20003289980850125 1.8653085668141451 -0.12952324638753943 1.5065131449099443 -1.6419735342264177 0.35190717042936304 0.33550207711773167 0.82368924206366434 0.73205145368586177 0.71190627359230563
leaf_weight=255487 8517 184 97 32449 12848 33439 37394 191 597 2023 38614 187757 5740 62830 50576 72481 7661 7856 423 22128 33739 416 186979 3416 88 636 2200 10809 287 6729
leaf_count=255487 8517 184 97 32449 12848 33439 37394 191 597 2023 38614 187757 5740 62830 50576 72481 7661 7856 423 22128 33739 416 186979 3416 88 636 2200 10809 287 6729
internal_value=0 0.423473 0.698 -0.055805 0.20048 0.0766081 0.0537373 0.609403 1.69626 0.565493 -0.029669 -0.0977302 0.375056 -0.0705263 0.159805 -0.0756148 0.474239 0.830674 0.495446 0.455297 0.111692 2.64539 -0.105924 1.42926 0.00281608 -0.134063 0.711486 0.784771 -0.0952961 0.541774
internal_weight=0 126285 56602 958306 69683 52027 265253 51988 4614 17656 148489 693053 18588 437566 116764 111095 15633 21343 15449 30645 84315 1013 249809 3601 185 1059 13487 11287 478 14390
internal_count=1084591 126285 56602 958306 69683 52027 265253 51988 4614 17656 148489 693053 18588 437566 116764 111095 15633 21343 15449 30645 84315 1013 249809 3601 185 1059 13487 11287 478 14390
is_linear=0
shrinkage=0.05


Tree=28
num_leaves=31
num_cat=0
split_feature=13 2 13 13 0 0 11 2 11 11 0 11 11 6 2 13 6 0 6 7 1 5 7 6 10 10 6 10 10 7
split_gain=9.31081e+06 2.83431e+06 2.11991e+06 1.22649e+06 1.21523e+06 897556 788312 748494 697047 610229 353499 311276 270751 242505 219496 174406 169423 169184 167175 164378 156420 154110 150483 149914 139169 343680 136406 167244 249903 134969
threshold=23.416666666666668 -0.22252093395631442 63.050000000000004 8.5500000000000025 1.5000000000000002 6.5000000000000009 48.071428571428577 -0.22252093395631442 40.071428571428577 96.214285714285737 1.5000000000000002 96.214285714285737 14.500000000000002 0.3090169943749474 1.0000000180025095e-35 2.508620689655173 0.4669418695587792 6.5000000000000009 0.39059449598118917 11.500000000000002 -0.21694186955877909 -0.34685948904333841 11.500000000000002 0.39059449598118917 88.500000000000014 83.500000000000014 0.67904876271727266 88.500000000000014 83.500000000000014 4.5000000000000009
decision_type=2 2 2 2 2 2 2 2 2 2 2 2 2 2 2 2 2 2 2 2 2 2 2 2 2 2 2 2 2 2
left_child=3 2 8 14 -3 6 18 12 13 23 -9 26 -5 22 15 -1 -11 -12 19 -6 -16 -21 -2 -4 25 -20 -8 28 -28 -10
right_child=1 4 9 7 5 -7 11 10 29 16 17 -13 -14 -15 20 -17 -18 -19 24 21 -22 -23 -24 -25 -26 -27 27 -29 -30 -31
leaf_value=-0.14117847743823406 0.31117302607045361 -0.16569906753696972 0.98568728957498741 0.045798459341977509 0.21631725834107973 -0.0025420820827887899 0.5715092655349675 -0.16892188610651529 0.92142061688644716 1.962969342042888 0.024516104150956192 1.6188606855261836 0.18361926670399989 0.51859713821975995 -0.083893278724030601 -0.056514271014579745 3.1560024334661581 -0.089881320394680969 0.69247022659335977 -1.049490019258569 -0.16720373880820746 0.03365790817086476 -0.14585037055494579 1.5007454037394738 0.44869867072678588 -1.7640918537853212 1.0453081193295393 1.0905229807768688 -2.9088586124021618 0.64728750502700583
leaf_weight=80949 21723 21021 3858 96052 18578 20546 9232 47844 6399 942 99805 914 56654 17529 84319 244713 435 47798 338 497 169809 968 1964 2229 11619 246 99 2393 67 15051
leaf_count=80949 21723 21021 3858 96052 18578 20546 9232 47844 6399 942 99805 914 56654 17529 84319 244713 435 47798 338 497 169809 968 1964 2229 11619 246 99 2393 67 15051
internal_value=0 0.356557 0.592786 -0.0601911 0.165074 0.271234 0.396371 0.0139898 0.497912 1.38932 -0.0508128 0.729951 0.09693 0.377612 -0.104735 -0.077559 2.33985 -0.012529 0.26494 0.176108 -0.139562 -0.333799 0.273279 1.1743 0.410843 -0.342314 0.661045 0.984062 -0.550651 0.729067
internal_weight=0 156648 70130 927943 86518 65497 44951 348153 62666 7464 195447 12705 152706 41216 579790 325662 1377 147603 32246 20043 254128 1465 23687 6087 12203 584 11791 2559 166 21450
internal_count=1084591 156648 70130 927943 86518 65497 44951 348153 62666 7464 195447 12705 152706 41216 579790 325662 1377 147603 32246 20043 254128 1465 23687 6087 12203 584 11791 2559 166 21450
is_linear=0
shrinkage=0.05


Tree=29
num_leaves=31
num_cat=0
split_feature=13 2 13 11 0 2 0 11 2 13 0 11 6 0 1 6 7 19 8 11 19 8 7 13 6 10 10 6 7 0
split_gain=8.42729e+06 2.23278e+06 2.17988e+06 1.25948e+06 997621 855529 731373 548276 484767 407015 404542 395749 212793 210758 207941 186835 184234 177208 220327 170884 170149 177916 171253 151351 149621 211760 341987 146534 143802 141315
threshold=34.95000000000001 -0.22252093395631442 16.81666666666667 87.642857142857153 1.5000000000000002 -0.22252093395631442 6.5000000000000009 7.2142857142857153 -0.22252093395631442 58.150000000000006 1.5000000000000002 65.785714285714292 0.3090169943749474 6.5000000000000009 -0.21694186955877909 0.4669418695587792 4.5000000000000009 38.500000000000007 0.50000000000000022 139.50000000000003 1.5000000000000002 0.50000000000000022 10.500000000000002 2.7166666666666672 0.39059449598118917 88.500000000000014 83.500000000000014 0.39059449598118917 4.5000000000000009 1.5000000000000002
decision_type=2 2 2 2 2 2 2 2 2 2 2 2 2 2 2 2 2 2 2 2 2 2 2 2 2 2 2 2 2 2
left_child=2 3 7 9 -3 12 11 23 -9 16 -7 24 20 -12 -10 17 -2 18 -5 -13 21 -4 -22 -1 -6 26 -26 -11 -23 -25
right_child=1 4 5 15 6 10 -8 8 14 27 13 19 -14 -15 -16 -17 -18 -19 -20 -21 22 28 -24 29 25 -27 -28 -29 -30 -31
leaf_value=-0.14618321498494766 0.81844774203241133 -0.15992357434941198 0.1125015959746259 2.0912941682983091 0.33764980664401772 -0.15955015494478159 0.042339729449646687 0.046548768085377848 0.013964049234056844 0.84481506452339483 0.14410053686155957 0.89265923108705791 0.35676416115150295 -0.042509317602588005 -0.10459465512844074 2.7870900595043269 0.52580546967473774 1.8495588539342334 -3.3292342587521206 2.1357742613393991 0.25469123637860908 0.16616635300940086 -0.014887424154554763 -0.16857395334462419 0.8096629888077479 0.6818023252071842 -2.2848576903343201 1.2705390038400166 -1.1976860371701101 -0.074377152250857809
leaf_weight=160991 7459 11217 1462 37 12390 22488 10880 142010 49436 5502 47300 3823 29854 22247 146829 576 19279 1209 38 298 33289 279 7158 46123 202 7070 160 3195 629 291161
leaf_count=160991 7459 11217 1462 37 12390 22488 10880 142010 49436 5502 47300 3823 29854 22247 146829 576 19279 1209 38 298 33289 279 7158 46123 202 7070 160 3195 629 291161
internal_value=0 0.483103 -0.0402089 0.770658 0.250167 0.126058 0.382263 -0.0729447 -0.0238173 0.704088 0.024798 0.536729 0.254299 0.084407 -0.0747316 2.0389 0.607443 1.70326 -0.655107 0.982552 0.182856 -0.228906 0.206983 -0.106297 0.444042 0.62141 -0.558081 1.00121 -0.778617 -0.0872584
internal_weight=0 83335 1.00126e+06 37295 46040 164706 34823 836550 338275 35435 92035 23943 72671 69547 196265 1860 26738 1284 75 4121 42817 2370 40447 498275 19822 7432 362 8697 908 337284
internal_count=1084591 83335 1001256 37295 46040 164706 34823 836550 338275 35435 92035 23943 72671 69547 196265 1860 26738 1284 75 4121 42817 2370 40447 498275 19822 7432 362 8697 908 337284
is_linear=0
shrinkage=0.05


Tree=30
num_leaves=31
num_cat=0
split_feature=13 2 11 1 13 1 2 13 13 11 1 11 7 10 2 7 7 13 7 19 2 13 6 6 19 1 4 1 6 3
split_gain=7.63497e+06 2.32218e+06 1.75581e+06 1.0492e+06 1.00502e+06 728716 607661 568327 530112 406735 274079 273529 240942 213360 192010 179234 177474 171183 168094 185956 154370 148769 148335 147928 149015 211031 135196 135070 131635 312787
threshold=23.416666666666668 -0.22252093395631442 62.357142857142868 -0.21694186955877909 8.6442528735632198 0.87837969732492682 -0.22252093395631442 41.416666666666671 93.88333333333334 59.500000000000007 -0.21694186955877909 46.928571428571438 4.5000000000000009 48.500000000000007 1.0000000180025095e-35 4.5000000000000009 11.500000000000002 93.88333333333334 6.5000000000000009 20.500000000000004 1.0000000180025095e-35 1.4833333333333336 0.3090169943749474 0.4669418695587792 38.500000000000007 -0.60785761079279388 30.500000000000004 -0.21694186955877909 0.67904876271727266 4.5000000000000009
decision_type=2 2 2 2 2 2 2 2 2 2 2 2 2 2 2 2 2 2 2 2 2 2 2 2 2 2 2 2 2 2
left_child=4 2 7 9 14 -5 12 15 -4 13 -8 -7 -6 -3 21 -2 -15 -11 19 26 -12 -1 -14 24 25 -10 -9 -16 29 -13
right_child=1 3 8 5 6 11 10 18 23 17 20 28 22 16 27 -17 -18 -19 -20 -21 -22 -23 -24 -25 -26 -27 -28 -29 -30 -31
leaf_value=-0.15772419836783644 0.51445340862649924 -1.2016062634962577 1.0452615903438094 -0.076820644551526762 0.19040105741049662 0.16275151079254599 0.057485268182883402 0.50538127646541831 -4.4575791130895199 0.82814755369390758 -0.0087704039076767718 -2.9967793927048194 0.0016300935632548791 0.42193678482920305 -0.075262467759108387 0.27907477650860141 -0.1781768308060957 1.8981352859258243 0.53680006196457608 0.87918726523882951 -0.11763056749978339 -0.056287031084433385 0.12113446650719578 2.7621727147394242 1.8742473899875354 1.908266269422602 -1.1683935885920245 -0.15233840002010088 0.95595358180876 0.46706805588693634
leaf_weight=41343 11006 216 6270 41567 42049 16310 48472 340 23 2695 49786 66 65002 17208 85069 30502 1327 434 11788 8554 94155 287531 43240 534 896 30 187 171296 1490 5205
leaf_count=41343 11006 216 6270 41567 42049 16310 48472 340 23 2695 49786 66 65002 17208 85069 30502 1327 434 11788 8554 94155 287531 43240 534 896 30 187 171296 1490 5205
internal_value=0 0.322878 0.536703 0.149556 -0.0545058 0.0482525 0.0134935 0.448501 1.24634 0.448828 -0.0453489 0.273597 0.0888276 0.360765 -0.0943247 0.341486 0.378972 0.976557 0.66135 0.823027 -0.0799783 -0.0690388 0.0493691 2.09646 1.72186 -0.85427 -0.0885388 -0.126762 0.540996 0.423696
internal_weight=0 156648 70130 86518 927943 64638 342704 62377 7753 21880 192413 23071 150291 18751 585239 41508 18535 3129 20869 9081 143941 328874 108242 1483 949 53 527 256365 6761 5271
internal_count=1084591 156648 70130 86518 927943 64638 342704 62377 7753 21880 192413 23071 150291 18751 585239 41508 18535 3129 20869 9081 143941 328874 108242 1483 949 53 527 256365 6761 5271
is_linear=0
shrinkage=0.05


Tree=31
num_leaves=31
num_cat=0
split_feature=13 13 2 13 0 0 0 11 2 19 11 11 7 7 19 4 1 6 1 6 7 3 13 7 19 0 7 7 6 7
split_gain=6.91929e+06 1.87135e+06 1.78575e+06 1.02261e+06 833577 726122 575629 468004 428199 418985 327303 324865 287957 199357 302185 219192 185913 147905 144237 141310 149527 179092 134314 134191 130686 126070 124043 121628 117366 115512
threshold=35.850000000000009 17.203448275862073 -0.22252093395631442 70.350000000000009 1.5000000000000002 1.5000000000000002 6.5000000000000009 6.3571428571428585 -0.22252093395631442 1.5000000000000002 82.785714285714292 110.92857142857144 6.5000000000000009 6.5000000000000009 3.5000000000000004 30.500000000000004 -0.21694186955877909 0.3090169943749474 0.87837969732492682 0.81489021779111204 11.500000000000002 15.500000000000002 50.416666666666671 4.5000000000000009 87.500000000000014 4.5000000000000009 11.500000000000002 4.5000000000000009 0.51448200516348142 7.5000000000000009
decision_type=2 2 2 2 2 2 2 2 2 2 2 2 2 2 2 2 2 2 2 2 2 2 2 2 2 2 2 2 2 2
left_child=1 7 3 13 -4 -3 10 -1 28 -7 17 23 18 14 15 -2 -10 26 -11 20 -14 -22 -16 -5 25 -13 -6 -17 -9 -26
right_child=2 5 4 11 6 9 -8 8 16 12 -12 24 19 -15 22 27 -18 -19 -20 -21 21 -23 -24 -25 29 -27 -28 -29 -30 -31
leaf_value=-0.10077526095053913 0.49932350671317965 -0.14652556034141737 -0.14804129255270013 1.85064204811402 0.37813900112110033 0.011604696902024538 0.050352310909925528 0.0056355871935852902 0.0069725080589646358 0.34806576932128125 1.2055862517342217 2.019379499256611 0.12729132089911671 0.49097069521781345 0.66713969465779177 0.99907166780728218 -0.096446891951366312 0.60288207748655387 0.14184638236724856 0.290877815159093 0.074220383013229266 -0.5424697748559052 0.98281322752058975 1.0519289058218975 2.8351948612949989 -2.842530182003975 -0.25981251199004113 -1.6160475626371911 0.094934394508224509 1.6538421160375467
leaf_weight=444394 455 21992 10761 644 11710 34525 10458 113927 58075 37626 1525 30 39535 16705 8170 53 172626 8938 10946 11580 3051 1917 5735 2867 552 24 815 276 54348 331
leaf_count=444394 455 21992 10761 644 11710 34525 10458 113927 58075 37626 1525 30 39535 16705 8170 53 172626 8938 10946 11580 3051 1917 5735 2867 552 24 815 276 54348 331
internal_value=0 -0.0356502 0.447377 0.709649 0.234733 0.120459 0.357888 -0.0654834 -0.0261739 0.162645 0.497796 1.41918 0.212473 0.609121 0.743487 -0.211589 -0.0704128 0.447506 0.301593 0.135288 0.0948025 -0.163742 0.797337 1.19843 2.24633 -0.141469 0.336628 -1.19477 0.0344765 2.39235
internal_weight=0 1.00454e+06 80049 35842 44207 161172 33446 843370 398976 139180 22988 4448 104655 31394 14689 784 230701 21463 48572 56083 44503 4968 13905 3511 937 54 12525 329 168275 883
internal_count=1084591 1004542 80049 35842 44207 161172 33446 843370 398976 139180 22988 4448 104655 31394 14689 784 230701 21463 48572 56083 44503 4968 13905 3511 937 54 12525 329 168275 883
is_linear=0
shrinkage=0.05


Tree=32
num_leaves=31
num_cat=0
split_feature=11 2 11 13 1 2 1 0 2 18 10 13 11 11 0 7 19 7 24 3 0 11 7 13 19 3 8 3 7 3
split_gain=6.26732e+06 1.87854e+06 1.49253e+06 1.01441e+06 846136 778874 617601 325886 310777 309426 256658 275919 214602 194991 179799 175824 178218 226579 175757 175015 135770 131096 121124 120695 116427 112658 130780 206582 109172 116814
threshold=32.785714285714292 -0.22252093395631442 13.214285714285717 70.350000000000009 -0.21694186955877909 -0.22252093395631442 0.87837969732492682 1.5000000000000002 -0.22252093395631442 194.50000000000003 48.500000000000007 93.88333333333334 5.6428571428571432 49.785714285714292 6.5000000000000009 4.5000000000000009 30.500000000000004 5.5000000000000009 1.0000000180025095e-35 25.500000000000004 1.5000000000000002 63.500000000000007 7.5000000000000009 3.916666666666667 1.0000000180025095e-35 24.500000000000004 0.93301270189221952 26.500000000000004 11.500000000000002 16.500000000000004
decision_type=2 2 2 2 2 2 2 2 2 2 2 2 2 2 2 2 2 2 2 2 2 2 2 2 2 2 2 2 2 2
left_child=2 3 8 13 10 18 -6 -7 12 15 -3 25 -1 -2 -9 -5 17 -17 19 24 -10 -8 -11 -22 -4 -12 -27 -28 -26 -30
right_child=1 4 5 9 6 7 21 14 20 22 11 -13 -14 -15 -16 16 -18 -19 -20 -21 23 -23 -24 -25 28 26 27 -29 29 -31
leaf_value=-0.072789915081547127 0.47224268167241479 -1.6817143854591163 -0.12877257812713294 1.8583815611871271 -0.057952066813606234 -0.14315207049082579 0.28391091811670832 0.086929988860275198 -0.14800817762246404 3.1171681046294863 0.44834984011861306 1.8038226990059467 0.0083763014438335212 0.71483543041625219 -0.055602326759963211 -2.9933033427254099 1.1185540877696327 0.89587302240975131 0.34011539572893174 0.31689358830666192 -0.12460495780607886 0.69011079736400305 1.624850006231505 -0.060715048815215382 0.15529023942484771 0.95735003770318505 0.74875624105334282 -2.3283408953819746 0.032454422968015074 -0.57533250374506251
leaf_weight=171192 23206 129 4383 809 26804 32458 11084 66226 105869 312 10611 431 155328 12881 33227 61 2913 97 14577 13552 113103 2420 241 213374 61980 2116 167 81 3972 987
leaf_count=171192 23206 129 4383 809 26804 32458 11084 66226 105869 312 10611 431 155328 12881 33227 61 2913 97 14577 13552 113103 2420 241 213374 61980 2116 167 81 3972 987
internal_value=0 0.389354 -0.0371032 0.646518 0.195824 0.0740702 0.0809663 -0.00558636 -0.0709976 1.36031 0.537876 0.559234 -0.0341785 0.558834 0.0393103 1.2026 1.02985 -0.605644 0.179726 0.152179 -0.0988044 0.356704 2.46681 -0.0828487 0.120882 0.517891 0.830034 -0.256263 0.137229 -0.0885147
internal_weight=0 94363 990228 40520 53843 231362 40308 131911 758866 4433 13535 13406 326520 36087 99453 3880 3071 158 99451 84874 432346 13504 553 326477 71322 12975 2364 248 66939 4959
internal_count=1084591 94363 990228 40520 53843 231362 40308 131911 758866 4433 13535 13406 326520 36087 99453 3880 3071 158 99451 84874 432346 13504 553 326477 71322 12975 2364 248 66939 4959
is_linear=0
shrinkage=0.05


Tree=33
num_leaves=31
num_cat=0
split_feature=11 2 11 11 1 2 1 11 12 20 0 2 6 10 11 6 6 7 6 19 0 0 11 19 19 8 19 7 9 7
split_gain=5.67159e+06 1.84504e+06 1.09316e+06 1.01453e+06 813034 591946 569508 333429 273224 269243 261057 213770 207317 193463 160320 159638 151689 150879 141324 135768 174736 130908 129736 123554 112155 162246 111051 107412 106593 127071
threshold=27.500000000000004 -0.22252093395631442 72.214285714285737 10.928571428571431 -0.21694186955877909 -0.22252093395631442 0.87837969732492682 44.642857142857146 74.607142857142875 144.50000000000003 1.5000000000000002 -0.22252093395631442 0.39059449598118917 48.500000000000007 57.071428571428577 -0.27983476331683427 0.4669418695587792 6.5000000000000009 0.39059449598118917 10.500000000000002 4.5000000000000009 6.5000000000000009 4.3571428571428585 13.500000000000002 8.5000000000000018 0.50000000000000022 171.50000000000003 4.5000000000000009 -0.5 5.5000000000000009
decision_type=2 2 2 2 2 2 2 2 2 2 2 2 2 2 2 2 2 2 2 2 2 2 2 2 2 2 2 2 2 2
