tree
version=v4
num_class=1
num_tree_per_iteration=1
label_index=0
max_feature_idx=24
objective=regression
feature_names=Column_0 Column_1 Column_2 Column_3 Column_4 Column_5 Column_6 Column_7 Column_8 Column_9 Column_10 Column_11 Column_12 Column_13 Column_14 Column_15 Column_16 Column_17 Column_18 Column_19 Column_20 Column_21 Column_22 Column_23 Column_24
feature_infos=[1:7] [-0.97492791218182362:0.97492791218182362] [-0.90096886790241903:1] [1:31] [28:31] [-1:1] [-1:1] [1:12] [-1:1] [-1:1] [29:1080] [0:244.71428571428572] [0:227.85714285714286] [0.033333333333333333:217.86666666666667] [0:358.75] [0:385] [0:394] [0:344] [0:385] [0:376] [0:366] [0:356] [0:1] [0:1] [0:1]
tree_sizes=2916 2943 2945 2937 2939 2935 2932 2935 2942 2938 2958 2932 2952 2956 2950 2930 2932 2932 2938 2935 2928 2927 2940 2925 2921 2944 2940 2904 2928 2903 2925 2943 2939 2920 2935 2924 2935 2909 2927 2944 2927 2925 2918 2956 2897 2899 2937 2923 2921 2915 2890 2927 2906 2948 2875 2921 2965 2929 2943 2916 2951 2952 2959 2908 2838 2969 2935 2993 2858 2957 2930 2862 2955 2987 2873 2982 2867 2989 2955 2912 2886 2884 2962 2964 2958 2882 2927 2950 2946 2976 2962 2993 2906 2979 2919 2984 2900 3002 2960 2967

Tree=0
num_leaves=31
num_cat=0
split_feature=13 0 13 13 0 13 13 0 13 13 11 0 1 13 0 13 13 13 1 7 13 13 10 0 7 0 0 7 0 9
split_gain=1.49567e+08 7.68998e+07 3.12812e+07 2.48632e+07 2.04245e+07 1.28712e+07 8.10984e+06 6.49921e+06 5.39194e+06 3.92246e+06 1.51832e+06 1.19566e+06 1.05649e+06 1.05561e+06 986091 807112 781739 751302 659111 650426 624936 455253 454943 438146 430856 419907 373374 364109 325008 319817
threshold=26.883333333333336 2.5000000000000004 58.150000000000006 11.583333333333334 2.5000000000000004 93.88333333333334 39.050000000000004 2.5000000000000004 5.4500000000000011 17.883333333333336 139.50000000000003 3.5000000000000004 -0.21694186955877909 70.350000000000009 1.5000000000000002 8.3166666666666682 2.7833333333333337 48.016666666666673 -0.21694186955877909 4.5000000000000009 21.883333333333336 14.41666666666667 42.500000000000007 3.5000000000000004 11.500000000000002 3.5000000000000004 1.5000000000000002 4.5000000000000009 3.5000000000000004 0.86602540378443849
decision_type=2 2 2 2 2 2 2 2 2 2 2 2 2 2 2 2 2 2 2 2 2 2 2 2 2 2 2 2 2 2
left_child=3 14 6 7 26 11 19 -1 16 21 18 -4 17 -13 -2 -10 -9 -8 29 -3 -11 -6 -16 -12 -14 -21 -5 -19 -22 -7
right_child=1 2 5 4 9 10 12 8 15 20 23 13 24 -15 22 -17 -18 27 -20 25 28 -23 -24 -25 -26 -27 -28 -29 -30 -31
leaf_value=12.171387812234059 12.693109316210951 14.585680264272693 15.71896739293998 12.385494030157794 12.981756773200448 20.795630679063912 15.239537046617125 12.255590634047872 12.595296564158581 13.426515873129505 20.138145532332921 16.496288163839999 15.030172188576451 17.570767201240937 14.65326641256371 12.778823978473184 12.426993272169561 16.394584936971871 18.44239328947598 13.769512078012022 13.415379593131275 13.197097991096395 12.141094737822568 23.161656691543428 13.893301148342815 14.230105025121455 12.151794429372156 15.673302584457945 13.796317170641387 17.481945527005404
leaf_weight=203309 16938 10815 3082 33208 54273 930 10995 118637 135638 40452 152 7173 12684 3355 182 107294 151435 2286 599 6274 7066 44806 18406 566 892 23419 35215 7458 26973 79
leaf_count=203309 16938 10815 3082 33208 54273 930 10995 118637 135638 40452 152 7173 12684 3355 182 107294 151435 2286 599 6274 7066 44806 18406 566 892 23419 35215 7458 26973 79
internal_value=12.7718 14.3893 15.1612 12.5587 12.9968 17.1726 14.7328 12.4106 12.5054 13.2852 20.6098 16.5851 15.2984 16.8387 12.4172 12.6764 12.3517 15.5228 19.7562 14.2537 13.5594 13.0791 12.1657 22.5216 14.9555 14.1328 12.2652 15.8425 13.7172 20.5362
internal_weight=0 126285 90759 958306 241993 15936 74823 716313 513004 173570 2326 13610 34315 10528 35526 242932 270072 20739 1608 40508 74491 99079 18588 718 13576 29693 68423 9744 34039 1009
internal_count=1084591 126285 90759 958306 241993 15936 74823 716313 513004 173570 2326 13610 34315 10528 35526 242932 270072 20739 1608 40508 74491 99079 18588 718 13576 29693 68423 9744 34039 1009
is_linear=0
shrinkage=1


Tree=1
num_leaves=31
num_cat=0
split_feature=13 0 13 13 0 12 13 0 13 13 13 11 13 0 0 13 13 0 13 13 7 1 0 0 6 10 0 13 0 0
split_gain=1.35092e+08 6.89015e+07 2.68209e+07 2.39436e+07 1.90677e+07 9.4292e+06 8.26317e+06 6.31135e+06 5.35896e+06 3.5367e+06 1.2229e+06 959346 936156 935882 872395 870277 794469 692071 675625 582326 552622 538258 502052 453418 452162 406029 391619 387569 351592 349291
threshold=27.850000000000005 2.5000000000000004 63.050000000000004 12.116666666666669 2.5000000000000004 101.39285714285715 41.416666666666671 2.5000000000000004 6.0500000000000007 19.516666666666669 51.750000000000007 139.50000000000003 3.1166666666666671 3.5000000000000004 1.5000000000000002 77.250000000000014 34.150000000000006 3.5000000000000004 9.1500000000000004 15.616666666666669 11.500000000000002 -0.21694186955877909 3.5000000000000004 3.5000000000000004 -0.47019707577881703 42.500000000000007 3.5000000000000004 23.416666666666668 3.5000000000000004 1.5000000000000002
decision_type=2 2 2 2 2 2 2 2 2 2 2 2 2 2 2 2 2 2 2 2 2 2 2 2 2 2 2 2 2 2
left_child=3 14 6 7 29 13 16 -1 12 19 20 21 -9 -4 -2 -15 28 -12 -10 -6 22 -7 -8 -11 -22 -16 -13 -25 -3 -5
right_child=1 2 5 4 9 11 10 8 18 23 17 26 -14 15 25 -17 -18 -19 -20 -21 24 -23 -24 27 -26 -27 -28 -29 -30 -31
leaf_value=-0.56935879763797226 -0.065504679877773461 0.95193194303983086 3.0524771123808359 -0.35716753214701152 0.25083809370121862 7.8000726147563784 1.8855130405441913 -0.47852846738216726 -0.1283802416684777 0.56567706938890583 2.2514166136627347 6.9980266947495311 -0.30144529019339578 3.8980271971291631 1.8213366613388062 5.141651284564162 1.7763376652085396 3.1219298855091839 0.049573130770828013 0.48840081551941927 0.12411592322704285 5.6344616115344728 2.524372291919768 0.77901686208120169 1.9896375822524233 -0.59912680939776786 9.8549026823211445 1.0635749004632744 1.4246807530775922 -0.58836718358506479
leaf_weight=208181 16062 4971 2168 31690 58880 727 3841 136710 136728 12615 2906 152 164364 5111 175 1941 16634 10653 87453 45909 474 474 15425 27690 1032 17432 569 21072 18834 33718
leaf_count=208181 16062 4971 2168 31690 58880 727 3841 136710 136728 12615 2906 152 164364 5111 175 1941 16634 10653 87453 45909 474 474 15425 27690 1032 17432 569 21072 18834 33718
internal_value=0 1.58521 2.33656 -0.196434 0.246801 4.62512 1.99553 -0.336381 -0.244042 0.531456 2.566 7.81089 -0.381854 3.96101 -0.331978 4.24032 1.51122 2.93536 -0.0589606 0.354916 2.3249 6.94537 2.397 0.832863 1.40248 -0.575069 9.25262 0.901986 1.32596 -0.476352
internal_weight=0 119581 85912 965010 231574 11142 74770 733436 525255 166166 34331 1922 301074 9220 33669 7052 40439 13559 224181 104789 20772 1201 19266 61377 1506 17607 721 48762 23805 65408
internal_count=1084591 119581 85912 965010 231574 11142 74770 733436 525255 166166 34331 1922 301074 9220 33669 7052 40439 13559 224181 104789 20772 1201 19266 61377 1506 17607 721 48762 23805 65408
is_linear=0
shrinkage=0.05


Tree=2
num_leaves=31
num_cat=0
split_feature=13 0 13 13 0 13 12 0 13 13 13 13 11 0 0 13 13 1 0 13 13 13 1 0 10 0 7 7 7 0
split_gain=1.21921e+08 6.21836e+07 2.42521e+07 2.16153e+07 1.76251e+07 8.49465e+06 7.33911e+06 5.29197e+06 4.41198e+06 3.66272e+06 1.12963e+06 1.12365e+06 856410 787337 714838 685763 625749 578791 571072 540222 533556 487302 476248 389402 366441 353436 349311 338208 324519 322812
threshold=27.850000000000005 2.5000000000000004 66.116666666666688 11.583333333333334 2.5000000000000004 43.716666666666676 101.39285714285715 2.5000000000000004 5.3833333333333337 18.81666666666667 35.850000000000009 54.616666666666674 139.50000000000003 1.5000000000000002 3.5000000000000004 8.1833333333333353 2.5833333333333339 -0.21694186955877909 3.5000000000000004 77.250000000000014 14.816666666666668 22.783333333333335 -0.21694186955877909 3.5000000000000004 42.500000000000007 3.5000000000000004 4.5000000000000009 4.5000000000000009 4.5000000000000009 1.5000000000000002
decision_type=2 2 2 2 2 2 2 2 2 2 2 2 2 2 2 2 2 2 2 2 2 2 2 2 2 2 2 2 2 2
left_child=3 13 5 7 29 10 14 -1 16 20 23 17 22 -2 -4 -10 -9 26 -13 -16 -6 -11 -8 -3 -15 -14 -7 -12 -25 -5
right_child=1 2 6 4 9 11 12 8 15 21 27 18 25 24 19 -17 -18 -19 -20 -21 -22 -23 -24 28 -26 -27 -28 -29 -30 -31
leaf_value=-0.54192507073256591 -0.062229439840898938 0.94047252314796559 3.030581047092042 -0.3452381716128885 0.19966294718715455 3.0084733658298766 7.4133788252863404 -0.47426789265761915 -0.16461031312696076 0.64324176432220137 2.1459094661147478 2.2833323393969476 6.6481257281805348 1.7302698641845158 3.8389784629631567 0.0028007151040509303 -0.31823074581298005 2.0063701915435352 3.142071313212206 4.8845688317560274 0.42138459354487523 0.910364787619797 5.3726106482037048 1.7184604133561168 -0.56917046859344111 9.3621574100165876 2.3973798489866764 1.6636069948622687 1.2837695694381663 -0.559652993964736
leaf_weight=203309 16062 5945 1658 34084 60175 3118 725 108058 133673 37445 5363 2472 152 175 3398 112782 158491 8053 8929 1941 49415 31382 472 5779 17432 569 9354 11280 16704 36196
leaf_count=203309 16062 5945 1658 34084 60175 3118 725 108058 133673 37445 5363 2472 152 175 3398 112782 158491 8053 8929 1941 49415 31382 472 5779 17432 569 9354 11280 16704 36196
internal_value=0 1.50595 2.21973 -0.186613 0.214994 1.93388 4.68858 -0.326047 -0.240492 0.479173 1.49187 2.55788 7.42865 -0.315379 3.93747 -0.0880002 -0.381488 2.3368 2.95588 4.2191 0.299639 0.765038 6.60866 1.30034 -0.546316 8.78999 2.55015 1.81902 1.3955 -0.455667
internal_weight=0 119581 85912 965010 248697 76997 8915 716313 513004 178417 45071 31926 1918 33669 6997 246455 266549 20525 11401 5339 109590 68827 1197 28428 17607 721 12472 16643 22483 70280
internal_count=1084591 119581 85912 965010 248697 76997 8915 716313 513004 178417 45071 31926 1918 33669 6997 246455 266549 20525 11401 5339 109590 68827 1197 28428 17607 721 12472 16643 22483 70280
is_linear=0
shrinkage=0.05


Tree=3
num_leaves=31
num_cat=0
split_feature=13 0 13 13 0 12 13 0 13 13 13 13 13 11 0 1 13 0 0 7 13 13 0 1 7 6 0 10 1 7
split_gain=1.10059e+08 5.57279e+07 2.09172e+07 2.08125e+07 1.62147e+07 6.62354e+06 6.60734e+06 5.41108e+06 4.7068e+06 2.99307e+06 1.01409e+06 811101 780551 772909 703330 657685 614303 525888 515392 469427 450892 450765 449182 429814 381544 333881 318976 311930 310467 305233
threshold=28.916666666666668 2.5000000000000004 12.516666666666667 66.116666666666688 2.5000000000000004 101.39285714285715 43.716666666666676 2.5000000000000004 6.1833333333333345 20.016666666666669 54.616666666666674 3.2500000000000004 35.850000000000009 139.50000000000003 1.5000000000000002 -0.21694186955877909 9.5425287356321853 3.5000000000000004 3.5000000000000004 11.500000000000002 16.016666666666669 77.250000000000014 3.5000000000000004 -0.21694186955877909 4.5000000000000009 -0.47019707577881703 3.5000000000000004 42.500000000000007 -0.21694186955877909 4.5000000000000009
decision_type=2 2 2 2 2 2 2 2 2 2 2 2 2 2 2 2 2 2 2 2 2 2 2 2 2 2 2 2 2 2
left_child=2 14 7 6 -4 15 12 -1 11 20 17 -9 28 23 -2 21 -10 -8 -12 -19 -6 -5 -11 -7 -24 -21 -15 -16 -3 -14
right_child=1 3 4 5 9 13 10 8 16 22 18 -13 29 26 27 -17 -18 19 -20 25 -22 -23 24 -25 -26 -27 -28 -29 -30 -31
leaf_value=-0.51338634575522724 -0.048971372142320196 1.4257994253044082 -0.42539253129016913 3.7204209673570143 0.25210226928817597 7.0427099690930604 1.7209863692664851 -0.42830242571279609 -0.10353555234675041 0.52542634085706041 2.1691657338255239 -0.26564837609953379 2.038613974477081 6.3157191439678799 1.6983551103408172 3.1113578048835606 0.067897528355667092 2.4214491138210343 2.9849677382992672 0.097861044138167694 0.46420090013230531 4.7660404889784074 1.0944930251365821 5.1039803480950461 0.77613092651585769 1.9480226278921124 8.8940492033329921 -0.54093051167629613 1.0530540705794593 1.580426618937611
leaf_weight=211568 15172 14329 63894 2738 55530 725 4200 144162 144109 12666 2472 163653 5363 152 157 2606 81984 15195 8929 356 45662 1653 12763 472 35835 774 569 16467 9156 11280
leaf_count=211568 15172 14329 63894 2738 55530 725 4200 144162 144109 12666 2472 163653 5363 152 157 2606 81984 15195 8929 356 45662 1653 12763 472 35835 774 569 16467 9156 11280
internal_value=0 1.47862 -0.171571 2.17516 0.249403 4.45415 1.89319 -0.299391 -0.214593 0.5148 2.42998 -0.341826 1.46612 7.05722 -0.295127 3.7406 -0.0413719 2.21996 2.80808 2.34833 0.34781 4.11405 0.790623 6.27823 0.85974 1.36514 8.35049 -0.519782 1.28048 1.72807
internal_weight=0 112765 971826 80969 226350 8915 72054 745476 533908 162456 31926 307815 40128 1918 31796 6997 226093 20525 11401 16325 101192 4391 61264 1197 48598 1130 721 16624 23485 16643
internal_count=1084591 112765 971826 80969 226350 8915 72054 745476 533908 162456 31926 307815 40128 1918 31796 6997 226093 20525 11401 16325 101192 4391 61264 1197 48598 1130 721 16624 23485 16643
is_linear=0
shrinkage=0.05


Tree=4
num_leaves=31
num_cat=0
split_feature=13 0 13 13 0 13 13 0 13 13 11 7 0 1 13 0 6 7 13 13 1 13 1 13 7 0 10 1 9 0
split_gain=9.94463e+07 5.12599e+07 2.147e+07 1.6016e+07 1.35459e+07 8.7306e+06 5.7269e+06 3.89476e+06 3.1878e+06 2.93079e+06 959573 841676 812642 745870 685164 666251 659753 538517 518660 476091 444416 439024 401763 387200 345878 321730 313747 296610 285597 279804
threshold=26.450000000000003 2.5000000000000004 58.150000000000006 10.950000000000001 2.5000000000000004 93.88333333333334 39.050000000000004 2.5000000000000004 5.0500000000000007 17.650000000000002 139.50000000000003 11.500000000000002 3.5000000000000004 -0.21694186955877909 70.350000000000009 1.5000000000000002 -0.47019707577881703 4.5000000000000009 7.5166666666666675 49.183333333333344 -0.21694186955877909 2.2500000000000004 -0.21694186955877909 14.083333333333334 4.5000000000000009 3.5000000000000004 42.500000000000007 -0.21694186955877909 0.86602540378443849 1.5000000000000002
decision_type=2 2 2 2 2 2 2 2 2 2 2 2 2 2 2 2 2 2 2 2 2 2 2 2 2 2 2 2 2 2
left_child=3 15 6 7 29 12 17 -1 21 23 20 13 -4 19 -14 -2 -13 -3 -10 -8 28 -9 24 -6 -11 -19 -17 -12 -7 -5
right_child=1 2 5 4 9 10 11 8 18 22 27 16 14 -15 -16 26 -18 25 -20 -21 -22 -23 -24 -25 -26 -27 -28 -29 -30 -31
leaf_value=-0.49048463150298405 -0.066195755535988013 1.485685601018089 2.3943919113516268 -0.31613358648570561 0.14331202888953429 6.6302153773974357 2.1176289126813725 -0.44184640495418953 -0.17375197902717154 0.94512342053124354 8.7843663891716179 -0.046545455748778219 3.0416537136024351 1.8291453071149757 3.9073061205027004 1.5383332974713375 1.7219347280556747 0.77580984505674788 -0.029009417506536357 2.6248571838194081 4.6657538414797521 -0.3037891824013419 0.48180458917323066 0.33066674521349926 0.63447023882475539 1.167602781337872 -0.51439405074425926 6.7155154202082388 3.4988244479592847 -0.51070023550297428
leaf_weight=196821 17379 11430 3082 35856 65706 930 11410 90593 122519 12313 426 771 7173 12684 3355 188 1669 6639 125073 7781 599 158047 29473 47522 32904 24863 18888 292 79 38126
leaf_count=196821 17379 11430 3082 35856 65706 930 11410 90593 122519 12313 426 771 7173 12684 3355 188 1669 6639 125073 7781 599 158047 29473 47522 32904 24863 18888 292 79 38126
internal_value=0 1.29944 1.92131 -0.176403 0.156695 3.59229 1.57659 -0.302279 -0.22763 0.382319 6.4232 2.05814 3.10847 2.12665 3.31751 -0.290141 1.16312 1.1917 -0.100634 2.32328 5.74459 -0.354091 0.62544 0.221945 0.719064 1.08503 -0.494164 7.943 6.38504 -0.416402
internal_weight=0 129638 93183 954953 261900 15936 77247 693053 496232 187918 2326 34315 13610 31875 10528 36455 2440 42932 247592 19191 1608 248640 74690 113228 45217 31502 19076 718 1009 73982
internal_count=1084591 129638 93183 954953 261900 15936 77247 693053 496232 187918 2326 34315 13610 31875 10528 36455 2440 42932 247592 19191 1608 248640 74690 113228 45217 31502 19076 718 1009 73982
is_linear=0
shrinkage=0.05


Tree=5
num_leaves=31
num_cat=0
split_feature=13 0 13 13 0 13 0 12 13 13 13 13 13 11 0 1 0 0 13 1 7 1 7 7 6 7 3 3 7 0
split_gain=8.98603e+07 4.51948e+07 1.75854e+07 1.66221e+07 1.35967e+07 5.831e+06 4.40727e+06 4.33127e+06 3.85519e+06 2.64183e+06 898326 814424 750849 612375 572724 470423 469948 460101 440442 402916 391844 357767 350082 345654 318541 313738 296984 296109 290117 272274
threshold=29.483333333333338 2.5000000000000004 12.516666666666667 70.350000000000009 2.5000000000000004 45.81666666666667 2.5000000000000004 101.39285714285715 6.4500000000000011 20.250000000000004 56.31666666666667 36.850000000000009 3.5833333333333339 139.50000000000003 1.5000000000000002 -0.21694186955877909 3.5000000000000004 3.5000000000000004 9.6500000000000004 -0.21694186955877909 4.5000000000000009 -0.21694186955877909 11.500000000000002 11.500000000000002 -0.47019707577881703 4.5000000000000009 20.500000000000004 19.500000000000004 4.5000000000000009 1.5000000000000002
decision_type=2 2 2 2 2 2 2 2 2 2 2 2 2 2 2 2 2 2 2 2 2 2 2 2 2 2 2 2 2 2
left_child=2 14 6 5 29 11 -1 15 12 20 17 28 -8 21 -2 -5 -12 -7 -10 25 -6 -9 -13 -19 -24 -11 -15 -18 -3 -4
right_child=1 3 4 7 9 10 8 13 18 19 16 22 -14 26 -16 -17 27 23 -20 -21 -22 -23 24 -25 -26 -27 -28 -29 -30 -31
leaf_value=-0.46344886092747706 -0.037664281285661939 1.4932739505058983 -0.27763316732408699 3.9529193954202437 0.46992046142312499 1.6020582252937261 -0.378292662968366 6.3900678604635424 -0.083814873696615305 1.0780002608570636 2.0579622820648438 1.7083615039042568 -0.22532806176770054 6.8795630927864968 -0.46898499761816215 2.9256485081863945 2.6062764399714822 2.2856556049283245 0.065217791252648927 0.5721674527702395 0.25543043040742097 4.6207916900894395 -0.12229599855463916 1.2960897548581964 1.4132642260043833 0.74809957015209316 9.1038061258378722 3.2028911071899246 1.0955144179869707 -0.48265023859477729
leaf_weight=211568 14719 6229 31415 3009 29954 3786 163439 724 134325 9776 2536 17064 157569 508 16131 1770 5553 13535 78575 24042 73643 472 495 944 1063 27422 213 3325 17362 33425
leaf_count=211568 14719 6229 31415 3009 29954 3786 163439 724 134325 9776 2536 17064 157569 508 16131 1770 5553 13535 78575 24042 73643 472 495 944 1063 27422 213 3325 17362 33425
internal_value=0 1.35854 -0.152464 1.99516 0.230067 1.77324 -0.27032 4.37785 -0.193791 0.471348 2.31027 1.39566 -0.303209 6.38568 -0.263195 3.57245 2.65825 2.09281 -0.0288114 0.731694 0.317448 5.69183 1.64285 2.22114 0.925394 0.834801 7.53666 2.82972 1.20054 -0.383319
internal_weight=0 109438 975153 78588 229677 71892 745476 6696 533908 164837 29679 42213 321008 1917 30850 4779 11414 18265 212900 61240 103597 1196 18622 14479 1558 37198 721 8878 23591 64840
internal_count=1084591 109438 975153 78588 229677 71892 745476 6696 533908 164837 29679 42213 321008 1917 30850 4779 11414 18265 212900 61240 103597 1196 18622 14479 1558 37198 721 8878 23591 64840
is_linear=0
shrinkage=0.05


Tree=6
num_leaves=31
num_cat=0
split_feature=13 0 13 13 1 13 13 0 13 13 11 7 1 0 6 2 13 13 13 13 7 9 0 13 1 7 13 6 10 0
split_gain=8.11689e+07 4.16535e+07 1.70693e+07 1.34586e+07 1.13284e+07 6.55789e+06 4.95618e+06 3.17193e+06 2.61998e+06 2.5766e+06 765946 733714 688837 636646 571173 539767 503882 486742 471887 423695 405774 387660 361599 335522 314972 278353 284683 277829 277007 271798
threshold=26.883333333333336 2.5000000000000004 60.38333333333334 10.950000000000001 0.6078576107927941 93.88333333333334 40.250000000000007 2.5000000000000004 4.8500000000000005 17.016666666666669 139.50000000000003 11.500000000000002 -0.21694186955877909 3.5000000000000004 -0.47019707577881703 1.0000000180025095e-35 32.650000000000006 21.883333333333336 7.4408045977011499 50.416666666666671 4.5000000000000009 0.86602540378443849 3.5000000000000004 2.0339080459770118 -0.21694186955877909 11.500000000000002 77.250000000000014 -0.47019707577881703 42.500000000000007 3.5000000000000004
decision_type=2 2 2 2 2 2 2 2 2 2 2 2 2 2 2 2 2 2 2 2 2 2 2 2 2 2 2 2 2 2
left_child=3 15 6 7 9 13 16 -1 23 24 21 12 19 -4 -13 28 -3 -11 -10 -8 -15 22 -7 -9 -5 26 -22 -27 -2 -12
right_child=1 2 5 4 -6 10 11 8 18 17 29 14 -14 20 -16 -17 -18 -19 -20 -21 25 -23 -24 -25 -26 27 -28 -29 -30 -31
leaf_value=-0.44278794622483775 1.4951589226885187 0.96124104191389259 2.2051585727248546 0.2559787835375027 -0.37499676123433018 3.9512396472103806 1.9779804993691652 -0.40849941418568547 -0.16233654249473986 0.45804552034204393 5.2916445932890248 -0.088700244380869792 1.6968916869978898 3.8227583014198387 1.5970035568241858 -0.055709077932986573 1.3059794089729686 0.70251751754903191 -0.027277517926728213 2.4558587150547213 2.8609657619966686 2.5072432405156335 5.8403526837992885 -0.28294229366434764 0.079418229344450614 -0.42480637896967971 3.7095528767811312 2.5034534646102986 -0.46511320374662379 7.6730081173219453
leaf_weight=196821 182 23884 2580 63841 74911 324 11445 80477 130687 50665 152 736 12671 1586 1584 16938 19057 34039 128037 7799 5497 123 1161 157031 41797 115 1205 274 18406 566
leaf_count=196821 182 23884 2580 63841 74911 324 11445 80477 130687 50665 152 736 12671 1586 1584 16938 19057 34039 128037 7799 5497 123 1161 157031 41797 115 1205 274 18406 566
internal_value=0 1.19154 1.75967 -0.15702 0.14586 3.39413 1.472 -0.272942 -0.205576 0.350849 5.81105 1.92075 1.98316 2.89474 1.06223 -0.259876 1.11423 0.556289 -0.0954987 2.17165 3.09977 5.20475 5.42818 -0.325486 0.18612 2.93807 3.01354 1.63777 -0.44592 7.16888
internal_weight=0 126285 90759 958306 265253 13583 77176 693053 496232 190342 2326 34235 31915 11257 2320 35526 42941 84704 258724 19244 8677 1608 1485 237508 105638 7091 6702 389 18588 718
internal_count=1084591 126285 90759 958306 265253 13583 77176 693053 496232 190342 2326 34235 31915 11257 2320 35526 42941 84704 258724 19244 8677 1608 1485 237508 105638 7091 6702 389 18588 718
is_linear=0
shrinkage=0.05


Tree=7
num_leaves=31
num_cat=0
split_feature=13 1 13 13 0 13 13 0 13 13 11 13 7 0 0 6 1 7 13 7 0 6 13 13 9 0 1 13 7 3
split_gain=7.32686e+07 3.78883e+07 1.62239e+07 1.1427e+07 9.76826e+06 6.91308e+06 3.93716e+06 2.76407e+06 2.26568e+06 2.19648e+06 691266 672756 582315 560362 499137 490412 483081 425328 403578 387687 385430 384514 375684 365655 349863 326343 310984 291901 287317 264023
threshold=26.033908045977018 0.6078576107927941 56.31666666666667 10.750000000000002 2.5000000000000004 93.88333333333334 39.050000000000004 2.5000000000000004 4.7833333333333341 16.616666666666671 139.50000000000003 70.350000000000009 11.500000000000002 3.5000000000000004 1.5000000000000002 -0.47019707577881703 -0.21694186955877909 11.500000000000002 7.3166666666666673 4.5000000000000009 3.5000000000000004 -0.47019707577881703 48.016666666666673 21.31666666666667 0.86602540378443849 3.5000000000000004 -0.21694186955877909 2.101724137931035 4.5000000000000009 20.500000000000004
decision_type=2 2 2 2 2 2 2 2 2 2 2 2 2 2 2 2 2 2 2 2 2 2 2 2 2 2 2 2 2 2
left_child=3 2 6 7 -5 11 16 -1 27 28 24 20 13 -8 -3 -14 19 23 -10 -2 -4 -19 -15 -11 25 -7 -13 -9 -6 -12
right_child=1 14 5 4 9 10 12 8 18 17 29 26 15 22 -16 -17 -18 21 -20 -21 -22 -23 -24 -25 -26 -27 -28 -29 -30 -31
leaf_value=-0.4210722890334071 1.4565079843758784 -0.058304208244179548 1.8550886151260384 -0.35826396639589908 0.29450354808878026 3.7536777004553579 1.3643334537502323 -0.38581194647647604 -0.15834790020601355 0.44515747948393491 6.1877398000849357 3.455816820932939 -0.090993039522901803 1.7343066157266156 -0.42426668784880611 1.4693941278468925 0.808861351242398 -0.51552746402764293 -0.032970030210850716 1.0307805120144102 2.5540117457757034 0.36077560578224094 2.136326184228734 0.66412569477393602 2.3818810753887747 5.5483351141291379 2.5851218684438226 -0.2692573392325463 0.11144292316468155 8.286766368346596
leaf_weight=194581 7277 17805 2536 75327 29739 324 6014 83693 128706 46987 505 2726 738 13726 19545 1585 17738 1798 128031 20169 8878 4121 10078 32084 123 1161 1644 149982 76757 213
leaf_count=194581 7277 17805 2536 75327 29739 324 6014 83693 128706 46987 505 2726 738 13726 19545 1585 17738 1798 128031 20169 8878 4121 10078 32084 123 1161 1644 149982 76757 213
internal_value=0 1.10026 1.62863 -0.153496 0.124093 2.97571 1.31314 -0.26162 -0.198354 0.313843 5.52049 2.6007 1.73616 1.79556 -0.24981 0.973671 1.01223 0.503403 -0.0958238 1.14366 2.39872 0.0945832 1.90451 0.534006 4.94451 5.15677 3.12826 -0.311003 0.162563 6.81043
internal_weight=0 132785 95435 951806 266813 18110 77325 684993 490412 191486 2326 15784 32141 29818 37350 2323 45184 84990 256737 27446 11414 5919 23804 79071 1608 1485 4370 233675 106496 718
internal_count=1084591 132785 95435 951806 266813 18110 77325 684993 490412 191486 2326 15784 32141 29818 37350 2323 45184 84990 256737 27446 11414 5919 23804 79071 1608 1485 4370 233675 106496 718
is_linear=0
shrinkage=0.05


Tree=8
num_leaves=31
num_cat=0
split_feature=13 0 13 13 0 11 13 0 13 13 1 13 13 7 1 7 0 13 7 6 7 6 0 0 0 1 13 7 13 7
split_gain=6.6302e+07 3.32732e+07 1.30254e+07 1.2328e+07 9.75989e+06 4.01009e+06 3.66165e+06 3.45807e+06 3.09988e+06 1.65159e+06 652990 569111 550545 530838 463569 451078 425828 394662 366261 347358 483266 345729 343730 336217 331741 290359 287547 273746 257833 255648
threshold=29.483333333333338 2.5000000000000004 13.083333333333334 66.116666666666688 2.5000000000000004 110.92857142857144 44.81666666666667 2.5000000000000004 6.4500000000000011 21.31666666666667 -0.21694186955877909 3.3833333333333337 93.88333333333334 4.5000000000000009 -0.21694186955877909 4.5000000000000009 1.5000000000000002 9.5425287356321853 11.500000000000002 -0.71394436452582466 11.500000000000002 -0.47019707577881703 3.5000000000000004 3.5000000000000004 3.5000000000000004 -0.21694186955877909 53.050000000000004 11.500000000000002 34.95000000000001 11.500000000000002
decision_type=2 2 2 2 2 2 2 2 2 2 2 2 2 2 2 2 2 2 2 2 2 2 2 2 2 2 2 2 2 2
left_child=2 16 7 6 -4 12 13 -1 11 18 15 -9 22 25 -7 -8 -2 -10 24 20 -15 -20 -5 -11 -6 -3 -17 -25 -21 -24
right_child=1 3 4 5 9 14 10 8 17 23 -12 -13 -14 19 -16 26 -18 -19 21 28 -22 -23 29 27 -26 -27 -28 -29 -30 -31
leaf_value=-0.39721603735369304 -0.030080410996159018 1.6700656714134139 -0.32469506128566722 2.1640569713324367 0.15192509985044686 6.4505468624140097 2.5518618386582332 -0.33067297314617738 -0.074058240253615223 0.40661257627757552 1.61457804933942 -0.19733080105148951 4.1918036037614685 0.90903742074564597 4.6946599839967931 1.7433265923210954 -0.40199638839863516 0.060583550745584691 -0.50621011268710148 0.98598700821280438 -0.37842661974489367 0.2072259874072151 3.1011563835707956 0.75695890682985079 0.38408759297989381 1.1550157589443486 2.1967635905343594 0.22918068251655332 1.3336890471674741 1.4318574296519222
leaf_weight=215963 14719 6881 60445 1531 19338 950 4186 151887 130916 10607 11459 169121 823 6434 622 7305 16131 93152 2486 10434 822 5358 4748 37941 75312 4543 6706 2627 10903 241
leaf_count=215963 14719 6881 60445 1531 19338 950 4186 151887 130916 10607 11459 169121 823 6434 622 7305 16131 93152 2486 10434 822 5358 4748 37941 75312 4543 6706 2627 10903 241
internal_value=0 1.16695 -0.130963 1.71319 0.213553 3.46388 1.48918 -0.227891 -0.160803 0.425271 1.91024 -0.260423 2.97323 1.17714 5.75579 2.09642 -0.22455 -0.0180835 0.309445 1.06203 0.763186 -0.0188834 2.81941 0.65725 0.336654 1.46524 1.96035 0.722782 1.16366 3.02052
internal_weight=0 109438 975153 78588 214114 8915 69673 761039 545076 153669 29656 321008 7343 40017 1572 18197 30850 224068 102494 28593 7256 7844 6520 51175 94650 11424 14011 40568 21337 4989
internal_count=1084591 109438 975153 78588 214114 8915 69673 761039 545076 153669 29656 321008 7343 40017 1572 18197 30850 224068 102494 28593 7256 7844 6520 51175 94650 11424 14011 40568 21337 4989
is_linear=0
shrinkage=0.05


Tree=9
num_leaves=31
num_cat=0
split_feature=13 0 13 13 0 13 0 13 11 13 13 13 13 3 1 0 1 7 0 7 0 3 6 1 1 7 0 7 1 7
split_gain=5.98376e+07 3.0029e+07 1.17632e+07 1.11877e+07 8.6834e+06 4.67274e+06 3.23522e+06 2.94464e+06 1.95367e+06 1.37312e+06 793645 651681 586055 449419 414991 384310 349465 340510 333078 321641 303435 301705 300832 300819 296059 295400 258387 255514 249190 236857
threshold=29.483333333333338 2.5000000000000004 13.41666666666667 77.250000000000014 2.5000000000000004 46.95000000000001 2.5000000000000004 6.7833333333333341 110.92857142857144 21.31666666666667 60.38333333333334 36.850000000000009 3.8500000000000005 19.500000000000004 -0.21694186955877909 1.5000000000000002 -0.21694186955877909 11.500000000000002 3.5000000000000004 11.500000000000002 3.5000000000000004 20.500000000000004 -0.47019707577881703 -0.21694186955877909 -0.21694186955877909 10.500000000000002 3.5000000000000004 4.5000000000000009 -0.21694186955877909 4.5000000000000009
decision_type=2 2 2 2 2 2 2 2 2 2 2 2 2 2 2 2 2 2 2 2 2 2 2 2 2 2 2 2 2 2
left_child=2 15 6 5 -4 11 -1 12 23 19 13 28 -8 17 21 -2 -9 -7 -12 24 -11 -10 -21 29 -6 26 -13 -22 -3 -5
right_child=1 3 4 8 9 10 7 16 14 20 18 25 -14 -15 -16 -17 -18 -19 -20 22 27 -23 -24 -25 -26 -27 -28 -29 -30 -31
leaf_value=-0.37713790629257371 -0.02857638297764388 1.1074315501681304 -0.30650112485555669 4.8098228682024375 0.40467981367726913 1.6913918745322054 -0.30382878110059347 0.047385002860469094 5.5720089851388641 0.38628194529352111 1.797551676305805 1.0540300061182934 -0.17177799392682913 2.1026869900879088 4.4716731850977069 -0.38189655841413017 -0.083271775037779189 0.73494347516262892 2.5214046087594175 -0.47880535827218174 0.89990687468893027 7.548708062330296 0.20512258046607773 2.6258711867573532 0.21864163528988945 0.94295834335652895 1.5388806378650248 0.61280953410079864 0.77422651094891304 3.3948542358671263
leaf_weight=218304 14719 14396 58104 369 53515 11832 178631 128852 671 10607 2053 3413 158644 7530 616 16131 84897 1010 7035 2358 10433 271 5054 1078 35619 3529 14100 30135 9195 1490
leaf_count=218304 14719 14396 58104 369 53515 11832 178631 128852 671 10607 2053 3413 158644 7530 616 16131 84897 1010 7035 2358 10433 271 5054 1078 35619 3529 14100 30135 9195 1490
internal_value=0 1.1086 -0.124415 1.62753 0.211325 1.48059 -0.214238 -0.149701 4.04959 0.415005 1.96933 1.158 -0.241716 1.796 5.48079 -0.213322 -0.00450936 1.61617 2.35788 0.30402 0.624388 6.14068 -0.0124573 3.29038 0.330337 1.36029 1.44439 0.686643 0.977559 3.67572
internal_weight=0 109438 975153 78588 205825 74093 769328 551024 4495 147721 29460 44633 337275 20372 1558 30850 213749 12842 9088 96546 51175 942 7412 2937 89134 21042 17513 40568 23591 1859
internal_count=1084591 109438 975153 78588 205825 74093 769328 551024 4495 147721 29460 44633 337275 20372 1558 30850 213749 12842 9088 96546 51175 942 7412 2937 89134 21042 17513 40568 23591 1859
is_linear=0
shrinkage=0.05


Tree=10
num_leaves=31
num_cat=0
split_feature=13 0 13 13 0 13 13 0 13 13 13 11 1 0 0 9 0 1 9 6 8 0 8 9 6 13 0 10 1 13
split_gain=5.40676e+07 2.80422e+07 1.23759e+07 8.18595e+06 6.9769e+06 5.41121e+06 2.69791e+06 2.02272e+06 1.67555e+06 1.5389e+06 580688 559632 477806 384815 378030 338569 335223 318537 314594 312534 293958 293780 287404 286607 343055 272832 260804 259173 239279 233981
threshold=25.616666666666671 2.5000000000000004 54.616666666666674 10.750000000000002 2.5000000000000004 93.88333333333334 37.916666666666671 2.5000000000000004 4.7166666666666677 16.216666666666672 70.350000000000009 139.50000000000003 -0.21694186955877909 1.5000000000000002 3.5000000000000004 0.93301270189221952 3.5000000000000004 -0.21694186955877909 0.86602540378443849 -0.47019707577881703 0.68301270189221963 3.5000000000000004 1.0000000180025095e-35 0.93301270189221952 -0.27983476331683427 31.31666666666667 3.5000000000000004 42.500000000000007 -0.21694186955877909 1.7500000000000002
decision_type=2 2 2 2 2 2 2 2 2 2 2 2 2 2 2 2 2 2 2 2 2 2 2 2 2 2 2 2 2 2
left_child=3 13 6 7 -5 10 14 -1 29 -6 16 18 20 -2 -3 21 -4 -10 26 -17 -8 -11 -18 25 -25 -16 -7 -15 -12 -9
right_child=1 2 5 4 9 11 12 8 17 15 28 -13 -14 27 23 19 22 -19 -20 -21 -22 -23 -24 24 -26 -27 -28 -29 -30 -31
leaf_value=-0.36130098786490261 -0.048878235621455338 0.56290809428910005 1.55766344733658 -0.30726152186121491 0.13202731898351527 3.1769045156185278 1.4844616676047659 -0.34871627561023144 -0.038826016828738763 0.25793538909293762 2.9742097304452018 5.9088289727075525 1.2052092762028472 1.4621730566335223 0.83557154846671011 -0.47132395399447502 1.9151658583557329 -0.15163721171559622 1.7999067071128669 0.29843984663744444 1.9310723878221066 0.49349893632521485 2.4368513804304732 -0.39714512605626939 0.84961057667948525 1.1257152024275114 4.781262697812096 -0.38369681039314363 2.2104639539100828 -0.23718908507037659
leaf_weight=194581 18264 9492 2999 74337 101493 324 14513 65966 156268 16641 2726 718 12879 192 19608 1904 5712 104365 123 4289 4938 64679 4909 879 1482 13808 1161 19884 1644 163813
leaf_count=194581 18264 9492 2999 74337 101493 324 14513 65966 156268 16641 2726 718 12879 192 19608 1904 5712 104365 123 4289 4938 64679 4909 879 1482 13808 1161 19884 1644 163813
internal_value=0 0.931345 1.38019 -0.133814 0.103108 2.4788 1.09257 -0.224898 -0.170777 0.264509 2.18538 4.74819 1.44143 -0.214956 0.843423 0.418154 2.02448 -0.0839989 4.22995 0.0617807 1.59784 0.445294 2.15629 0.917847 0.385444 0.955463 4.43122 -0.366044 2.68689 -0.269207
internal_weight=0 136255 97915 948336 263343 20316 77599 684993 490412 189006 17990 2326 32330 38340 45269 87513 13620 260633 1608 6193 19451 81320 10621 35777 2361 33416 1485 20076 4370 229779
internal_count=1084591 136255 97915 948336 263343 20316 77599 684993 490412 189006 17990 2326 32330 38340 45269 87513 13620 260633 1608 6193 19451 81320 10621 35777 2361 33416 1485 20076 4370 229779
is_linear=0
shrinkage=0.05


Tree=11
num_leaves=31
num_cat=0
split_feature=13 0 13 13 1 13 13 0 13 13 13 11 3 7 0 3 1 7 9 7 0 7 1 3 0 10 1 1 7 3
split_gain=4.88185e+07 2.54695e+07 1.18719e+07 6.94749e+06 6.18362e+06 5.32815e+06 2.14418e+06 1.59687e+06 1.49637e+06 1.28651e+06 721721 505067 484438 504703 360865 355200 317010 314430 283921 273552 274850 271780 266944 265024 248830 244551 240744 237616 229018 222955
threshold=24.81666666666667 2.5000000000000004 51.750000000000007 10.050000000000002 0.6078576107927941 93.88333333333334 34.95000000000001 2.5000000000000004 15.616666666666669 4.4408045977011499 66.116666666666688 139.50000000000003 19.500000000000004 11.500000000000002 1.5000000000000002 19.500000000000004 -0.21694186955877909 4.5000000000000009 0.86602540378443849 11.500000000000002 3.5000000000000004 11.500000000000002 -0.21694186955877909 10.500000000000002 3.5000000000000004 42.500000000000007 -0.21694186955877909 -0.21694186955877909 4.5000000000000009 20.500000000000004
decision_type=2 2 2 2 2 2 2 2 2 2 2 2 2 2 2 2 2 2 2 2 2 2 2 2 2 2 2 2 2 2
left_child=3 14 6 7 8 10 16 -1 27 -9 15 18 13 24 -2 21 28 -10 26 20 -12 -4 -11 -15 -8 -16 -7 -5 -3 -13
right_child=1 2 5 4 -6 11 12 9 17 22 19 29 -14 23 25 -17 -18 -19 -20 -21 -22 -23 -24 -25 -26 -27 -28 -29 -30 -31
leaf_value=-0.34472090395981886 -0.048987336429969573 1.0997501866827637 1.7004397061139025 0.15863517092949531 -0.2952807182244242 4.7014606097564906 0.85351646156549266 -0.26192958977093667 0.5210784461455662 -0.053729132684357306 1.9110218618133037 5.0411705494871235 1.5108790910466949 0.86141871395342662 1.3655875997057239 2.1212523423200027 0.56990398744812432 0.31397442613892995 1.7099113859781405 0.96601706874488991 2.6900810228335921 0.65100193602707856 -0.15814131063116948 -0.2858801488644136 1.2894870420000506 -0.36564216214808609 3.3855613826524031 0.011768085621592629 0.76120855625200956 6.9700522064602994
leaf_weight=185868 19192 6716 9256 70003 81133 930 4106 213934 25557 152556 1481 505 12801 1202 206 5869 16837 64781 123 302 4806 661 102240 866 16130 20859 555 45402 19501 213
leaf_count=185868 19192 6716 9256 70003 81133 930 4106 213934 25557 152556 1481 505 12801 1202 206 5869 16837 64781 123 302 4806 661 102240 866 16130 20859 555 45402 19501 213
internal_value=0 0.860375 1.27766 -0.130789 0.0743841 2.23318 0.975682 -0.220705 0.220158 -0.171529 1.99641 4.51078 1.26571 1.12499 -0.205822 1.81295 0.739205 0.372565 4.01845 2.43595 2.50656 1.63049 -0.0956258 0.380973 1.20103 -0.348712 4.20966 0.100856 0.847933 5.61339
internal_weight=0 143117 102860 941474 286876 24701 78159 654598 205743 468730 22375 2326 35105 22304 40257 15786 43054 90338 1608 6589 6287 9917 254796 2068 20236 21065 1485 115405 26217 718
internal_count=1084591 143117 102860 941474 286876 24701 78159 654598 205743 468730 22375 2326 35105 22304 40257 15786 43054 90338 1608 6589 6287 9917 254796 2068 20236 21065 1485 115405 26217 718
is_linear=0
shrinkage=0.05


Tree=12
num_leaves=31
num_cat=0
split_feature=13 0 13 13 0 13 0 13 11 13 0 13 7 13 1 7 0 7 6 7 6 1 1 13 0 7 0 7 6 1
split_gain=4.41593e+07 2.19922e+07 9.00959e+06 8.13944e+06 6.50981e+06 3.25971e+06 2.45455e+06 2.34866e+06 1.46485e+06 1.04236e+06 561239 466322 463006 462356 352182 299496 287252 281554 281125 433104 274372 274109 266680 265129 244986 234886 225900 221167 217359 215631
threshold=30.083333333333339 2.5000000000000004 13.750000000000002 77.250000000000014 2.5000000000000004 48.016666666666673 2.5000000000000004 6.9166666666666679 110.92857142857144 22.483333333333338 3.5000000000000004 40.250000000000007 6.5000000000000009 2.916666666666667 -0.21694186955877909 11.500000000000002 1.5000000000000002 4.5000000000000009 -0.3090169943749474 11.500000000000002 -0.47019707577881703 -0.21694186955877909 -0.21694186955877909 60.38333333333334 3.5000000000000004 11.500000000000002 1.5000000000000002 4.5000000000000009 -0.55605299127383134 -0.21694186955877909
decision_type=2 2 2 2 2 2 2 2 2 2 2 2 2 2 2 2 2 2 2 2 2 2 2 2 2 2 2 2 2 2
left_child=2 16 6 5 26 11 -1 13 25 15 -7 17 23 -8 28 22 -2 -3 19 -14 -17 27 -6 -12 -11 29 -4 -9 -10 -5
right_child=1 3 4 8 9 10 7 21 14 24 12 -13 18 -15 -16 20 -18 -19 -20 -21 -22 -23 -24 -25 -26 -27 -28 -29 -30 -31
leaf_value=-0.32344998653045631 -0.016625213279081539 1.157580977371286 -0.15815022887587257 3.2827869844024393 0.37631563702108428 1.2899480942030359 -0.28351706777195268 0.15336817538217146 4.3069436813537365 0.34437859391114056 1.9101124101655456 1.2418662064801178 1.4810968607472974 -0.16312144127202322 3.7941561324836375 -0.45498226027832472 -0.32670782806318149 0.80628984682070515 1.8241212756123042 -0.17146648959487951 0.18709664316517349 -0.065733192784872038 0.20380082298917401 2.4643547047664129 0.63598682584576061 1.1220904519574511 -0.35770949978791489 0.008465639386507174 5.8946099419734983 2.3647088521618951
leaf_weight=220545 14268 7920 27567 1735 56094 5904 125727 37008 334 9100 6397 16065 4093 218033 616 2444 15673 20384 7169 439 5212 84459 37296 3256 34541 189 29205 91297 608 1013
leaf_count=220545 14268 7920 27567 1735 56094 5904 125727 37008 334 9100 6397 16065 4093 218033 616 2444 15673 20384 7169 439 5212 84459 37296 3256 34541 189 29205 91297 608 1013
internal_value=0 0.969065 -0.105037 1.42061 0.192933 1.29109 -0.182287 -0.126346 3.48449 0.370971 1.72143 1.02671 1.84073 -0.207155 4.72378 0.282774 -0.178942 0.904588 1.62926 1.32102 -0.0178721 0.00421583 0.307421 2.09706 0.575181 2.82709 -0.260809 0.050261 5.33168 2.94435
internal_weight=0 106063 978528 76122 201459 71627 777069 556524 4495 144687 27258 44369 21354 343760 1558 101046 29941 28304 11701 4532 7656 212764 93390 9653 43641 2937 56772 128305 942 2748
internal_count=1084591 106063 978528 76122 201459 71627 777069 556524 4495 144687 27258 44369 21354 343760 1558 101046 29941 28304 11701 4532 7656 212764 93390 9653 43641 2937 56772 128305 942 2748
is_linear=0
shrinkage=0.05


Tree=13
num_leaves=31
num_cat=0
split_feature=13 1 13 13 1 12 13 1 13 13 3 7 7 6 3 3 7 7 1 7 7 3 13 2 1 1 1 10 7 7
split_gain=3.98715e+07 2.02344e+07 8.18946e+06 7.13546e+06 5.73292e+06 2.84096e+06 2.44662e+06 1.70281e+06 1.32698e+06 1.26428e+06 504611 412186 398358 392780 339845 291812 304669 287294 286484 278461 272640 267498 261498 261410 254977 252106 245925 233052 231512 231486
threshold=27.850000000000005 0.6078576107927941 63.050000000000004 11.583333333333334 0.6078576107927941 101.39285714285715 42.583333333333343 1.0000000180025095e-35 5.5833333333333339 18.583333333333339 19.500000000000004 11.500000000000002 4.5000000000000009 -0.55605299127383134 19.500000000000004 19.500000000000004 11.500000000000002 11.500000000000002 -0.21694186955877909 4.5000000000000009 4.5000000000000009 10.500000000000002 2.4500000000000006 1.0000000180025095e-35 0.6078576107927941 -0.21694186955877909 1.0000000180025095e-35 83.500000000000014 11.500000000000002 11.500000000000002
decision_type=2 2 2 2 2 2 2 2 2 2 2 2 2 2 2 2 2 2 2 2 2 2 2 2 2 2 2 2 2 2
left_child=3 2 6 7 9 14 12 8 22 19 11 26 -2 17 29 16 -14 -7 -12 -5 -11 -13 -1 -3 -9 -15 -8 -20 -10 -4
right_child=1 23 5 4 -6 13 10 24 28 20 18 21 15 25 -16 -17 -18 -19 27 -21 -22 -23 -24 -25 -26 -27 -28 -29 -30 -31
leaf_value=-0.27430599431260755 1.0778557080656059 -0.31082390587777603 2.0118059731816365 0.29344011642039342 -0.25846663695527905 3.5395012393041898 1.4186766453589268 -0.21162131122420416 -0.006551003959098251 0.59961647503344218 1.8719914093786931 1.0005627078145123 0.69047806134609635 5.3960223148226261 2.5570408011758388 0.94098620949561163 0.060224519216541129 -1.3876941803962954 -0.52603554178954692 0.1149764076131828 0.37871710556170179 -0.31593817457174644 -0.16194981890528676 -0.03188828842552309 -0.30876512152399932 3.944792461762598 0.969191721316363 1.4334904344717863 -0.21097248266528404 0.67577414884947351
leaf_weight=81615 11929 17607 5381 30612 70280 648 14781 101156 173488 19056 7072 1011 17465 741 3494 11219 2154 31 157 76432 52317 624 141693 16062 203309 502 3832 4526 15052 345
leaf_count=81615 11929 17607 5381 30612 70280 648 14781 101156 173488 19056 7072 1011 17465 741 3494 11219 2154 31 157 76432 52317 624 141693 16062 203309 502 3832 4526 15052 345
internal_value=0 0.861198 1.26837 -0.106717 0.124027 2.53296 1.07992 -0.186829 -0.120546 0.274695 1.41055 1.25928 0.832501 4.28164 2.16843 0.737592 0.621282 3.31455 1.67113 0.166013 0.437695 0.498118 -0.203014 -0.177756 -0.27649 4.80993 1.32614 1.3678 -0.0228709 1.93131
internal_weight=0 119581 85912 965010 248697 11142 74770 716313 411848 178417 32003 20248 42767 1922 9220 30838 19619 679 11755 107044 71373 1635 223308 33669 304465 1243 18613 4683 188540 5726
internal_count=1084591 119581 85912 965010 248697 11142 74770 716313 411848 178417 32003 20248 42767 1922 9220 30838 19619 679 11755 107044 71373 1635 223308 33669 304465 1243 18613 4683 188540 5726
is_linear=0
shrinkage=0.05


Tree=14
num_leaves=31
num_cat=0
split_feature=13 0 13 13 1 13 0 13 11 13 3 3 7 13 7 1 3 7 3 1 1 0 1 0 0 7 6 3 7 1
split_gain=3.60731e+07 1.77762e+07 7.61015e+06 6.58003e+06 5.49296e+06 2.51015e+06 1.99628e+06 1.95314e+06 1.19583e+06 933044 499774 434712 446568 388081 358074 297849 271790 266708 259148 253598 253019 245636 237668 237223 237056 231480 259706 228244 220383 215351
threshold=30.716666666666672 2.5000000000000004 13.750000000000002 77.250000000000014 0.6078576107927941 49.183333333333344 2.5000000000000004 6.9833333333333343 110.92857142857144 22.483333333333338 19.500000000000004 19.500000000000004 11.500000000000002 2.9833333333333338 11.500000000000002 -0.21694186955877909 10.500000000000002 10.500000000000002 9.5000000000000018 -0.21694186955877909 -0.21694186955877909 3.5000000000000004 -0.21694186955877909 3.5000000000000004 1.5000000000000002 11.500000000000002 -0.47019707577881703 20.500000000000004 4.5000000000000009 -0.21694186955877909
decision_type=2 2 2 2 2 2 2 2 2 2 2 2 2 2 2 2 2 2 2 2 2 2 2 2 2 2 2 2 2 2
left_child=2 24 6 5 9 11 -1 13 28 17 14 12 23 -8 21 27 -16 22 -14 -12 -11 -7 -4 -3 -2 29 -27 -10 -5 -9
right_child=1 3 4 8 -6 10 7 25 15 20 19 -13 18 -15 16 -17 -18 -19 -20 -21 -22 -23 -24 -25 -26 26 -28 -29 -30 -31
leaf_value=-0.29203578017199899 -0.0081658784165306413 0.60125050315051831 0.35920545102713169 3.428231888361819 -0.23531848436032377 1.087926133824451 -0.25562979070326552 0.063771921146386384 4.3415987138082617 0.62093214087824911 2.080942113454268 1.1639467769701739 0.70308780388439052 -0.14628701532793068 1.1489460911872302 3.422256794025178 -0.4997476421719978 0.070993482100249403 -0.32731290674622149 1.5459767437294802 0.3807016161284692 1.5845903258639769 0.18801486546484317 0.97728441000901334 -0.29458582891864687 -0.49423517727404082 -0.044960303119239202 6.0608896482034806 2.3465376624951753 -0.043694332734249414
leaf_weight=220545 13792 5279 50892 589 57751 3186 129461 116874 671 27981 5719 16168 1231 217453 661 616 402 16454 1210 3616 18019 11387 33700 20409 15170 4625 10563 271 2348 77548
leaf_count=220545 13792 5279 50892 589 57751 3186 129461 116874 671 27981 5719 16168 1231 217453 661 616 402 16454 1210 3616 18019 11387 33700 20409 15170 4625 10563 271 2348 77548
internal_value=0 0.89149 -0.0932697 1.30363 0.17788 1.18333 -0.164731 -0.114282 3.15745 0.340159 1.58422 0.957346 0.838595 -0.187091 1.41139 4.27717 0.525451 0.25518 0.19232 1.87372 0.52683 1.47601 0.291006 0.900008 -0.15819 0.00622164 -0.181772 4.83621 2.56347 0.0209075
internal_weight=0 102725 981866 73763 204797 69268 777069 556524 4495 147046 24971 44297 28129 346914 15636 1558 1063 101046 2441 9335 46000 14573 84592 25688 28962 209610 15188 942 2937 194422
internal_count=1084591 102725 981866 73763 204797 69268 777069 556524 4495 147046 24971 44297 28129 346914 15636 1558 1063 101046 2441 9335 46000 14573 84592 25688 28962 209610 15188 942 2937 194422
is_linear=0
shrinkage=0.05


Tree=15
num_leaves=31
num_cat=0
split_feature=13 0 13 13 0 13 13 13 0 13 1 7 11 3 7 1 3 7 0 7 6 7 3 10 1 3 0 3 0 0
split_gain=3.25589e+07 1.69432e+07 8.02701e+06 4.74193e+06 4.20433e+06 3.47571e+06 1.62993e+06 1.10008e+06 1.03119e+06 703580 451183 422596 382302 380772 351003 271826 248730 277421 248433 238763 233885 266753 229272 220724 213715 210827 209536 196540 196526 186758
threshold=24.81666666666667 2.5000000000000004 53.050000000000004 9.6500000000000004 2.5000000000000004 93.88333333333334 35.850000000000009 16.216666666666672 3.5000000000000004 4.2500000000000009 -0.21694186955877909 4.5000000000000009 139.50000000000003 19.500000000000004 11.500000000000002 -0.21694186955877909 19.500000000000004 11.500000000000002 1.5000000000000002 4.5000000000000009 0.4669418695587792 11.500000000000002 19.500000000000004 42.500000000000007 -0.21694186955877909 19.500000000000004 1.5000000000000002 11.500000000000002 3.5000000000000004 3.5000000000000004
decision_type=2 2 2 2 2 2 2 2 2 2 2 2 2 2 2 2 2 2 2 2 2 2 2 2 2 2 2 2 2 2
left_child=3 18 6 8 26 10 15 19 -1 -10 11 -4 20 14 28 25 17 -9 -2 -6 21 -7 -13 -20 -15 -3 -5 -16 -8 -14
right_child=1 2 5 4 7 12 13 16 9 -11 -12 22 29 24 27 -17 -18 -19 23 -21 -22 -23 -24 -25 -26 -27 -28 -29 -30 -31
leaf_value=-0.25877345171968302 -0.036845200767537965 0.60347990996798384 2.4301133553372285 -0.16012358307485841 0.19155714618432507 3.0183044645787636 0.69424273372130396 0.2849987199262613 -0.20719339106323487 -0.067750508741928048 1.3637641314170672 1.5276089044844667 3.1098573190601249 1.4533669096289348 0.68931480789207411 0.45841034554651383 0.43021116231129347 -0.12666553553612944 1.3431140224042448 0.043635863993541517 4.0075622285968677 -0.14674133426613278 2.0262726568257765 -0.30161706167141733 1.0355706091933292 0.88953074943396393 -0.31587774286276138 -0.32595575394672527 1.082858623295776 5.0838344592719533
leaf_weight=269777 19192 17425 2514 41986 37671 883 4078 47999 163288 202825 7675 6469 152 7552 1305 17732 30095 4474 206 98901 653 72 3581 20859 5147 10219 44458 751 16086 566
leaf_count=269777 19192 17425 2514 41986 37671 883 4078 47999 163288 202825 7675 6469 152 7552 1305 17732 30095 4474 206 98901 653 72 3581 20859 5147 10219 44458 751 16086 566
internal_value=0 0.702636 1.04298 -0.10681 0.0550608 1.87618 0.808829 0.171543 -0.184599 -0.129943 1.66581 1.85033 3.70666 1.06563 0.940808 0.61121 0.315621 0.249899 -0.166974 0.0844374 3.27832 2.77968 1.70529 -0.285533 1.28403 0.709223 -0.240228 0.318465 1.00426 4.66595
internal_weight=0 143117 102860 941474 305584 22565 80295 219140 635890 366113 20239 12564 2326 34919 22220 45376 82568 52473 40257 136572 1608 955 10050 21065 12699 27644 86444 2056 20164 718
internal_count=1084591 143117 102860 941474 305584 22565 80295 219140 635890 366113 20239 12564 2326 34919 22220 45376 82568 52473 40257 136572 1608 955 10050 21065 12699 27644 86444 2056 20164 718
is_linear=0
shrinkage=0.05


Tree=16
num_leaves=31
num_cat=0
split_feature=13 0 13 13 0 13 0 11 13 13 3 7 7 6 7 6 7 3 7 6 13 1 7 1 3 1 10 1 7 0
split_gain=2.94648e+07 1.44879e+07 6.22972e+06 5.45626e+06 4.71268e+06 1.67961e+06 1.46805e+06 1.44847e+06 1.20109e+06 1.00182e+06 415796 371949 286252 280404 292175 278481 330810 271546 315648 270851 259993 226752 220304 219172 218971 206259 207145 205914 199054 194841
threshold=30.716666666666672 2.5000000000000004 12.65 70.350000000000009 2.5000000000000004 46.95000000000001 3.5000000000000004 110.92857142857144 6.3166666666666673 20.016666666666669 19.500000000000004 4.5000000000000009 11.500000000000002 -0.71394436452582466 11.500000000000002 -0.71394436452582466 11.500000000000002 19.500000000000004 11.500000000000002 -0.55605299127383134 2.3166666666666669 -0.21694186955877909 11.500000000000002 0.6078576107927941 11.500000000000002 -0.21694186955877909 83.500000000000014 1.0000000180025095e-35 4.5000000000000009 1.5000000000000002
decision_type=2 2 2 2 2 2 2 2 2 2 2 2 2 2 2 2 2 2 2 2 2 2 2 2 2 2 2 2 2 2
left_child=2 29 6 5 -4 11 23 13 20 21 12 -3 27 14 -5 16 -13 18 -11 22 -8 28 -9 -1 -14 -12 -27 -7 -6 -2
right_child=1 3 4 7 9 10 8 19 -10 17 25 15 24 -15 -16 -17 -18 -19 -20 -21 -22 -23 -24 -25 -26 26 -28 -29 -30 -31
leaf_value=-0.17707022948021064 -0.0059153359413731486 1.0750177351341543 -0.21718148799426829 1.675976559102055 0.3859803137728462 1.3449673155996322 -0.24142509707926474 3.2068569861421814 0.0055859997803528625 0.39325242870926519 1.7788805967516117 0.59290078952639369 0.92843898562211735 2.3423194961948899 -1.5225474116049316 0.82891789457137044 -0.4576233569076833 0.56077806888403159 -0.11061330456850438 4.3585790403490625 -0.13092307216553853 0.087367600136562307 -1.5057569633882781 -0.26508406442341309 -0.49197386565154855 -0.72042013948613948 1.3807201543039584 0.9070655683759935 0.18396267738887997 -0.26558341513359002
leaf_weight=105981 13792 11474 65621 1179 17161 12484 76053 537 177260 40015 6172 6331 818 3871 76 21153 850 25085 3370 1007 177384 39135 26 212675 406 121 3838 3420 42126 15170
leaf_count=105981 13792 11474 65621 1179 17161 12484 76053 537 177260 40015 6172 6331 818 3871 76 21153 850 25085 3370 1007 177384 39135 26 212675 406 121 3838 3420 42126 15170
internal_value=0 0.805706 -0.0842948 1.17778 0.141804 1.0419 -0.15445 2.53874 -0.0942532 0.282955 1.34428 0.834845 1.19409 2.13176 1.48228 0.737586 0.468552 0.429828 0.354114 3.86753 -0.164083 0.180778 2.98922 -0.235812 0.457289 1.59819 1.3165 1.2508 0.242438 -0.141927
internal_weight=0 102725 981866 73763 232513 67067 749353 6696 430697 166892 27259 39808 17128 5126 1255 28334 7181 68470 43385 1570 253437 98422 563 318656 1224 10131 3959 15904 59287 28962
internal_count=1084591 102725 981866 73763 232513 67067 749353 6696 430697 166892 27259 39808 17128 5126 1255 28334 7181 68470 43385 1570 253437 98422 563 318656 1224 10131 3959 15904 59287 28962
is_linear=0
shrinkage=0.05


Tree=17
num_leaves=31
num_cat=0
split_feature=13 0 13 13 1 13 0 13 11 13 0 3 13 7 7 1 1 3 13 0 7 7 3 11 10 14 1 3 6 7
split_gain=2.6608e+07 1.29702e+07 5.81197e+06 4.85307e+06 4.09907e+06 1.73374e+06 1.56542e+06 1.42263e+06 864342 677036 366894 361520 341419 318779 260615 258506 242673 235622 228327 227851 225956 219052 217358 203183 202064 207607 200785 192526 187025 245231
threshold=31.31666666666667 2.5000000000000004 14.250000000000002 77.250000000000014 0.6078576107927941 50.416666666666671 3.5000000000000004 7.7833333333333341 110.92857142857144 22.783333333333335 3.5000000000000004 19.500000000000004 3.5833333333333339 4.5000000000000009 11.500000000000002 -0.21694186955877909 0.87837969732492682 19.500000000000004 6.0500000000000007 3.5000000000000004 4.5000000000000009 11.500000000000002 10.500000000000002 65.785714285714292 42.500000000000007 26.875000000000004 -0.21694186955877909 20.500000000000004 -0.71394436452582466 11.500000000000002
decision_type=2 2 2 2 2 2 2 2 2 2 2 2 2 2 2 2 2 2 2 2 2 2 2 2 2 2 2 2 2 2
left_child=2 -2 6 5 9 10 16 12 26 20 -3 14 -8 24 -7 27 18 21 -1 -11 -4 -15 -16 -13 25 -12 -5 -10 29 -22
right_child=1 3 4 8 -6 11 7 -9 15 19 13 23 -14 17 22 -17 -18 -19 -20 -21 28 -23 -24 -25 -26 -27 -28 -29 -30 -31
leaf_value=-0.23851004196019107 -0.13201452251053311 0.56332840946043161 0.35192150445026649 2.5364592784718121 -0.19961213638073153 1.2879381115919715 -0.20020387593360695 0.050687166393583921 3.7451372434236614 0.24842549759076682 -1.647471200284504 1.5377113764201968 -0.093883093045975766 0.782268435290288 1.0003816960338232 2.8821400925105851 -0.28118139223712302 1.0294034863210877 -0.13712202393924333 0.52295729276393932 0.10917706304388614 0.23197994594917321 -0.59277953802433847 2.2070738968525072 1.2013197807933675 0.90203831928585654 1.6787523975899938 5.3241799104697591 0.231014412865437 -0.47580948875238455
leaf_weight=118731 28073 9011 27728 1859 55512 13200 132128 144487 671 9552 126 7132 176203 14171 587 616 112428 9139 104318 36205 15194 2073 337 1348 9700 218 1078 271 50464 2031
leaf_count=118731 28073 9011 27728 1859 55512 13200 132128 144487 671 9552 126 7132 176203 14171 587 616 112428 9139 104318 36205 15194 2073 337 1348 9700 218 1078 271 50464 2031
internal_value=0 0.778764 -0.0787555 1.13618 0.164395 1.02954 -0.139424 -0.0787764 2.72663 0.307529 0.848196 1.38605 -0.139444 0.920654 1.23111 3.67859 -0.221283 0.826307 -0.191092 0.465647 0.231704 0.712043 0.419326 1.64411 1.15909 -0.0317937 2.22165 4.19941 0.182458 0.0402013
internal_weight=0 99610 984981 71537 196686 67042 788295 452818 4495 141174 44438 22604 308331 35427 14124 1558 335477 25383 223049 45757 95417 16244 924 8480 10044 344 2937 942 67689 17225
internal_count=1084591 99610 984981 71537 196686 67042 788295 452818 4495 141174 44438 22604 308331 35427 14124 1558 335477 25383 223049 45757 95417 16244 924 8480 10044 344 2937 942 67689 17225
is_linear=0
shrinkage=0.05


Tree=18
num_leaves=31
num_cat=0
split_feature=13 1 13 13 1 13 13 1 13 13 7 1 1 7 7 6 7 9 10 17 6 7 7 10 1 3 7 10 1 10
split_gain=2.40429e+07 1.24641e+07 5.90806e+06 3.66253e+06 3.17201e+06 2.16052e+06 1.63965e+06 794364 787065 558523 314385 309212 308472 307700 306360 298878 329450 295200 273791 280573 236921 340953 209058 204608 202198 198796 210310 194416 181123 183541
threshold=25.216666666666672 0.6078576107927941 58.150000000000006 9.9500000000000011 0.6078576107927941 93.88333333333334 40.250000000000007 1.0000000180025095e-35 16.81666666666667 4.3833333333333337 4.5000000000000009 1.0000000180025095e-35 -0.21694186955877909 4.5000000000000009 4.5000000000000009 -0.71394436452582466 11.500000000000002 0.86602540378443849 942.50000000000011 192.50000000000003 -0.71394436452582466 11.500000000000002 4.5000000000000009 122.50000000000001 0.87837969732492682 19.500000000000004 11.500000000000002 42.500000000000007 0.87837969732492682 42.500000000000007
decision_type=2 2 2 2 2 2 2 2 2 2 2 2 2 2 2 2 2 2 2 2 2 2 2 2 2 2 2 2 2 2
left_child=3 2 6 7 8 10 13 9 22 -1 -4 17 14 -2 -8 16 -12 18 19 -7 21 -15 -5 -16 -3 26 -10 -26 -6 -30
right_child=1 24 5 4 28 11 12 -9 25 -11 15 -13 -14 20 23 -17 -18 -19 -20 -21 -22 -23 -24 -25 27 -27 -28 -29 29 -31
leaf_value=-0.17639262499014441 0.76938433826053076 -0.023473745395418993 2.0550877649382975 0.18579690431415555 -0.12954473882065451 3.5317552871454292 1.4811522733190075 -0.22118263641576635 0.25582581834533474 -0.053686860264476333 1.125043211713741 2.0961937614576613 0.83178865785682421 0.37971406778233047 -2.2635307798994346 1.5884018392294814 -1.2172731273204276 0.91364025760155454 1.5616508237027622 5.2575681819683986 0.5685494401949891 -0.62319038166438168 0.046387228467330503 1.040963656505643 1.3047140021607206 0.39097419883221374 -0.11757132787739394 -0.26572074591660105 0.69834837988917131 -0.28793440977691831
leaf_weight=169725 14101 18730 2515 37254 40418 1292 5125 275833 45231 204443 2688 499 12600 8779 47 8248 159 104 143 288 28698 938 96682 14110 199 28275 4114 20377 477 42499
leaf_count=169725 14101 18730 2515 37254 40418 1292 5125 275833 45231 204443 2688 499 12600 8779 47 8248 159 104 143 288 28698 938 96682 14110 199 28275 4114 20377 477 42499
internal_value=0 0.612393 0.908058 -0.0904962 0.0556335 1.79103 0.741337 -0.156805 0.158581 -0.109347 1.55035 3.19929 1.02418 0.569622 1.14991 1.43594 0.994229 3.50057 3.65672 3.84633 0.496295 0.282902 0.0851637 1.02999 -0.142335 0.285266 0.224695 -0.250532 -0.205527 -0.276987
internal_weight=0 139640 100334 944951 294950 15936 84398 650001 211556 374168 13610 2326 31882 52516 19282 11095 2847 1827 1723 1580 38415 9717 133936 14157 39306 77620 49345 20576 83394 42976
internal_count=1084591 139640 100334 944951 294950 15936 84398 650001 211556 374168 13610 2326 31882 52516 19282 11095 2847 1827 1723 1580 38415 9717 133936 14157 39306 77620 49345 20576 83394 42976
is_linear=0
shrinkage=0.05


Tree=19
num_leaves=31
num_cat=0
split_feature=13 0 13 13 0 13 0 13 11 13 3 0 9 8 13 6 1 9 6 1 3 9 1 1 0 10 15 0 0 10
split_gain=2.17674e+07 1.04828e+07 4.89812e+06 3.91176e+06 3.45708e+06 1.32418e+06 1.3136e+06 1.33561e+06 707194 590848 332449 313953 313619 291594 274255 233677 217071 212584 248242 212097 193057 189071 175484 174845 169683 167153 173971 165020 164767 160931
threshold=31.983333333333338 2.5000000000000004 14.250000000000002 77.250000000000014 2.5000000000000004 51.750000000000007 2.5000000000000004 7.116666666666668 110.92857142857144 22.783333333333335 19.500000000000004 3.5000000000000004 0.93301270189221952 1.0000000180025095e-35 2.508620689655173 -0.55605299127383134 -0.21694186955877909 0.93301270189221952 -0.47019707577881703 -0.21694186955877909 9.5000000000000018 0.93301270189221952 -0.21694186955877909 -0.21694186955877909 3.5000000000000004 942.50000000000011 225.50000000000003 1.5000000000000002 1.5000000000000002 42.500000000000007
decision_type=2 2 2 2 2 2 2 2 2 2 2 2 2 2 2 2 2 2 2 2 2 2 2 2 2 2 2 2 2 2
left_child=2 28 6 5 27 10 -1 14 22 19 12 -7 24 -13 -8 21 -11 -9 -19 -6 -14 -10 -5 -12 -3 26 -17 -4 -2 -30
right_child=1 3 4 8 9 11 7 17 15 16 23 13 20 -15 -16 25 -18 18 -20 -21 -22 -23 -24 -25 -26 -27 -28 -29 29 -31
leaf_value=-0.2285515137833688 0.013816290123539562 0.488411986816986 -0.092489811487528231 2.3078369298850645 0.269984352850764 0.90878885724515168 -0.21286882327302936 0.028038401914811297 2.7143375587265539 0.50957800310476153 1.1067450253338567 1.1873498497303574 0.59071545254901836 1.6188043057579464 -0.11632538004316217 3.6510200913892974 0.29193133547008515 -0.46886221963113306 -0.031943719274979888 0.11765375898284623 -0.28631959275942725 -1.6525892353974858 1.5059885155153852 0.77221488518120462 0.80617180757472795 1.4844765205905863 5.4415364011128746 -0.26355130681636474 1.4852831127908495 -0.24929980491213924
leaf_weight=223673 12931 5288 27421 1859 57494 4432 104448 196085 531 29264 9742 8545 1264 7229 248758 763 18826 4679 10652 37923 1246 26 1078 6520 20443 73 165 29018 135 14080
leaf_count=223673 12931 5288 27421 1859 57494 4432 104448 196085 531 29264 9742 8545 1264 7229 248758 763 18826 4679 10652 37923 1246 26 1078 6520 20443 73 165 29018 135 14080
internal_value=0 0.717374 -0.0699414 1.04401 0.151084 0.944937 -0.126003 -0.0853788 2.4703 0.281467 0.79253 1.28061 0.688828 1.38508 -0.144875 3.33138 0.424375 0.014019 -0.165291 0.209441 0.155343 2.5105 2.01353 0.97262 0.740869 3.78816 3.96938 -0.180441 -0.115338 -0.232826
internal_weight=0 96350 988241 69204 199946 64709 788295 564622 4495 143507 44503 20206 28241 15774 353206 1558 48090 211416 15331 95417 2510 557 2937 16262 25731 1001 928 56439 27146 14215
internal_count=1084591 96350 988241 69204 199946 64709 788295 564622 4495 143507 44503 20206 28241 15774 353206 1558 48090 211416 15331 95417 2510 557 2937 16262 25731 1001 928 56439 27146 14215
is_linear=0
shrinkage=0.05


Tree=20
num_leaves=31
num_cat=0
split_feature=13 0 13 13 0 13 13 0 13 13 1 7 0 11 0 7 3 7 7 10 6 7 7 6 7 3 6 7 0 10
split_gain=1.96544e+07 9.86205e+06 4.07837e+06 3.8148e+06 3.0466e+06 1.39643e+06 1.0834e+06 828003 769564 635886 303621 292776 274959 256775 240219 234875 217121 198366 197601 191546 185355 267818 178160 170959 166907 180298 165116 224740 161997 181991
threshold=28.916666666666668 2.5000000000000004 63.050000000000004 11.250000000000002 2.5000000000000004 93.88333333333334 42.583333333333343 3.5000000000000004 19.050000000000004 5.2500000000000009 -0.21694186955877909 4.5000000000000009 3.5000000000000004 139.50000000000003 3.5000000000000004 4.5000000000000009 19.500000000000004 4.5000000000000009 4.5000000000000009 122.50000000000001 -0.71394436452582466 11.500000000000002 11.500000000000002 -0.71394436452582466 11.500000000000002 10.500000000000002 -0.71394436452582466 11.500000000000002 1.5000000000000002 42.500000000000007
decision_type=2 2 2 2 2 2 2 2 2 2 2 2 2 2 2 2 2 2 2 2 2 2 2 2 2 2 2 2 2 2
left_child=3 -2 6 7 28 16 14 -1 18 -9 11 -8 -7 23 -3 -10 24 -16 -6 -13 21 -17 -11 -14 -4 -26 27 -20 -5 -30
right_child=1 2 5 4 8 12 10 9 15 22 -12 19 13 -15 17 20 -18 -19 26 -21 -22 -23 -24 -25 25 -27 -28 -29 29 -31
leaf_value=-0.19663010987694574 -0.12132586177368435 0.34697603170830815 1.3952546371790657 -0.1051909797315725 0.21851167407982186 1.8557647172249632 1.4551880787829581 -0.14760321100399626 0.47540141303032313 -0.0080590639539342961 0.79766699253243223 -2.368138313293457 1.7294438270239507 4.0648364135370239 0.86332770849501073 0.18237780392251551 1.8387244018067657 0.57825367427181462 0.015123232228669278 1.0132923609938385 0.32488006307047368 -0.57478444498026571 -0.18238630335289718 3.1046700032292933 1.1401306103382793 -1.291956789034312 0.1170026177344184 -0.4918906407536412 0.76059702657383776 -0.26322615435397273
leaf_weight=299229 31796 7762 5181 36615 34384 499 4743 209124 18912 180030 12485 42 295 566 8513 12070 3310 21549 19348 14733 39013 1293 15955 966 203 122 64446 2464 439 38504
leaf_count=299229 31796 7762 5181 36615 34384 499 4743 209124 18912 180030 12485 42 295 566 8513 12070 3310 21549 19348 14733 39013 1293 15955 966 203 122 64446 2464 439 38504
internal_value=0 0.624847 0.917864 -0.0725036 0.088246 1.80621 0.776114 -0.133552 0.194121 -0.0869599 0.990226 1.1134 2.89597 3.18007 0.594954 0.324367 1.5187 0.658981 0.117159 1.00368 0.269831 0.109115 -0.0222509 2.78295 1.32631 0.227162 0.0767574 -0.0421518 -0.180695 -0.251685
internal_weight=0 112765 80969 971826 267488 11142 69827 704338 191930 405109 32003 19518 2326 1827 37824 71288 8816 30062 120642 14775 52376 13363 195985 1261 5506 325 86258 21812 75558 38943
internal_count=1084591 112765 80969 971826 267488 11142 69827 704338 191930 405109 32003 19518 2326 1827 37824 71288 8816 30062 120642 14775 52376 13363 195985 1261 5506 325 86258 21812 75558 38943
is_linear=0
shrinkage=0.05


Tree=21
num_leaves=31
num_cat=0
split_feature=13 0 13 13 0 0 13 11 13 13 3 3 7 7 7 3 6 7 7 6 7 1 7 13 3 3 13 6 1 10
split_gain=1.77733e+07 8.54303e+06 4.01257e+06 3.22626e+06 3.05073e+06 896518 886594 864826 861512 706519 316131 245026 263746 239925 226401 217295 213364 206442 205127 194647 217304 188408 185355 174494 170099 166345 164742 158922 151935 186304
threshold=31.983333333333338 2.5000000000000004 12.516666666666667 70.350000000000009 2.5000000000000004 2.5000000000000004 46.95000000000001 110.92857142857144 5.5833333333333339 20.016666666666669 19.500000000000004 19.500000000000004 11.500000000000002 4.5000000000000009 4.5000000000000009 20.500000000000004 -0.71394436452582466 11.500000000000002 10.500000000000002 -0.71394436452582466 11.500000000000002 -0.21694186955877909 11.500000000000002 1.6103448275862071 10.500000000000002 9.5000000000000018 8.6442528735632198 -0.71394436452582466 -0.21694186955877909 83.500000000000014
decision_type=2 2 2 2 2 2 2 2 2 2 2 2 2 2 2 2 2 2 2 2 2 2 2 2 2 2 2 2 2 2
left_child=2 -2 5 6 -4 -1 14 13 23 21 17 12 -11 -5 -3 -9 22 -8 26 20 -16 -6 -15 -7 -14 -19 -10 -20 -12 -30
right_child=1 3 4 7 9 8 10 15 18 11 28 -13 24 16 19 -17 -18 25 27 -21 -22 -23 -24 -25 -26 -27 -28 -29 29 -31
leaf_value=-0.20779884612521859 -0.10350496112421535 0.86252816349956685 -0.16922947451920037 2.3884282817569544 0.19436138578750778 -0.22319662844650698 0.96269913934144624 2.6354191073380653 -0.0400729082165939 0.30790748877594171 1.4219753066223895 0.46347508688272038 0.14342308772935475 1.0759004955069231 0.45441933660913025 3.9294948986052298 1.7147056909305392 0.80330985298104118 -0.2847034716391898 0.66599857733722079 -0.43851368246097766 0.054925450003792134 -1.488546673551594 -0.12658446121717151 -0.56072049834278404 -0.37155696177966341 0.04803231566066795 -0.063701058500066063 -0.90660576662741432 1.0860334482285041
leaf_weight=211568 27146 10334 68544 951 61009 59532 15904 1112 117501 42699 6172 26762 2134 967 5586 458 3132 688 10936 18553 776 40183 76 217447 1434 536 96738 31754 121 3838
leaf_count=211568 27146 10334 68544 951 61009 59532 15904 1112 117501 42699 6172 26762 2134 967 5586 458 3132 688 10936 18553 776 40183 76 217447 1434 536 96738 31754 121 3838
internal_value=0 0.648227 -0.0631998 0.943101 0.113353 -0.120694 0.831365 1.98617 -0.0861779 0.224529 1.0455 0.343053 0.273399 1.6717 0.66577 3.01293 1.50844 0.914543 -0.0202326 0.584161 0.345505 0.138992 0.889038 -0.14735 -0.139576 0.288826 -0.000289661 -0.120316 1.2669 1.02513
internal_weight=0 96350 988241 69204 242765 745476 62508 6696 533908 174221 27259 73029 46267 5126 35249 1570 4175 17128 256929 24915 6362 101192 1043 276979 3568 1224 214239 42690 10131 3959
internal_count=1084591 96350 988241 69204 242765 745476 62508 6696 533908 174221 27259 73029 46267 5126 35249 1570 4175 17128 256929 24915 6362 101192 1043 276979 3568 1224 214239 42690 10131 3959
is_linear=0
shrinkage=0.05


Tree=22
num_leaves=31
num_cat=0
split_feature=13 0 13 13 0 13 13 13 1 1 7 9 0 0 13 1 7 0 5 17 7 5 7 7 0 2 9 6 6 7
split_gain=1.60722e+07 8.32392e+06 4.11013e+06 2.43753e+06 2.15766e+06 1.55435e+06 1.03826e+06 635513 488602 282038 267307 255715 258318 255157 247002 227852 216466 197624 178785 178133 176717 175152 174399 172743 165585 148162 142649 138007 136250 202356
threshold=24.81666666666667 2.5000000000000004 56.31666666666667 8.8500000000000032 2.5000000000000004 93.88333333333334 37.916666666666671 15.616666666666669 -0.21694186955877909 -0.21694186955877909 4.5000000000000009 0.86602540378443849 3.5000000000000004 3.5000000000000004 2.7833333333333337 -0.21694186955877909 10.500000000000002 3.5000000000000004 -0.7339688063532569 172.50000000000003 6.5000000000000009 -0.76248815397271175 4.5000000000000009 7.5000000000000009 1.5000000000000002 1.0000000180025095e-35 -0.5 -0.71394436452582466 -0.71394436452582466 11.500000000000002
decision_type=2 2 2 2 2 2 2 2 2 2 2 2 2 2 2 2 2 2 2 2 2 2 2 2 2 2 2 2 2 2
left_child=3 24 6 8 25 9 15 22 14 10 -4 12 -7 -8 -1 21 18 -9 -15 -14 -19 -3 -6 -21 -2 -5 -20 -18 29 -24
right_child=1 2 5 4 7 11 13 17 -10 -11 -12 -13 19 16 -16 -17 27 20 26 23 -22 -23 28 -25 -26 -27 -28 -29 -30 -31
leaf_value=-0.16355207863128443 -0.0096204988907028482 0.75077765404499874 1.938483352775958 -0.22838047071282214 0.13398103017751092 1.7159769399374536 0.52608087712343932 0.068531405459466774 -0.17530601233226681 0.96706736745649424 1.275811095159352 0.45908852815628054 2.7317541626794886 1.1774693652062127 -0.053276975394283346 0.30815517152703314 0.087374693741614606 0.33562398865029941 0.68736182541722224 4.6524278202227185 0.17858405855276982 0.46253446759958855 -0.031875466570296655 2.6318612850150642 -0.21265069648534007 -0.10516197016799129 0.97473605987662948 0.71389099431195646 0.047929658511394961 -0.45954175956290966
leaf_weight=70173 19192 6770 1883 50148 43214 474 6938 18397 342061 5968 7933 129 1273 5461 183736 19652 1189 33710 7633 280 38231 23792 25947 170 21065 47509 9944 3371 85252 3096
leaf_count=70173 19192 6770 1883 50148 43214 474 6938 18397 342061 5968 7933 129 1273 5461 183736 19652 1189 33710 7633 280 38231 23792 25947 170 21065 47509 9944 3371 85252 3096
internal_value=0 0.493665 0.732219 -0.0750439 0.0306199 1.41595 0.586114 0.109052 -0.136301 1.23813 1.40293 2.62262 2.74966 0.797137 -0.0837538 0.440978 0.865279 0.214772 0.927579 3.03402 0.25217 0.526385 0.0484172 3.8891 -0.115859 -0.168436 0.849941 0.55053 0.0160662 -0.0774649
internal_weight=0 143117 102860 941474 345504 18110 84750 247847 595970 15784 9816 2326 2197 34536 253909 50214 27598 90338 23038 1723 71941 30562 157509 450 40257 97657 17577 4560 114295 29043
internal_count=1084591 143117 102860 941474 345504 18110 84750 247847 595970 15784 9816 2326 2197 34536 253909 50214 27598 90338 23038 1723 71941 30562 157509 450 40257 97657 17577 4560 114295 29043
is_linear=0
shrinkage=0.05


Tree=23
num_leaves=31
num_cat=0
split_feature=13 0 13 13 0 12 0 13 13 13 3 6 1 13 7 6 7 3 7 7 7 15 3 7 3 1 0 7 0 10
split_gain=1.45293e+07 7.03456e+06 3.17761e+06 2.7628e+06 2.33781e+06 902849 821711 688672 675672 478744 257433 255708 203706 201776 193012 191407 211772 190314 187269 174353 173026 171787 165989 185604 157880 142954 139028 135454 133385 144671
threshold=31.31666666666667 2.5000000000000004 13.083333333333334 66.116666666666688 2.5000000000000004 101.39285714285715 3.5000000000000004 7.4408045977011499 44.81666666666667 20.783333333333335 19.500000000000004 -0.55605299127383134 -0.21694186955877909 1.9166666666666667 11.500000000000002 -0.66913060635885813 11.500000000000002 19.500000000000004 11.500000000000002 4.5000000000000009 11.500000000000002 225.50000000000003 19.500000000000004 11.500000000000002 11.500000000000002 0.87837969732492682 4.5000000000000009 4.5000000000000009 1.5000000000000002 42.500000000000007
decision_type=2 2 2 2 2 2 2 2 2 2 2 2 2 2 2 2 2 2 2 2 2 2 2 2 2 2 2 2 2 2
left_child=2 28 6 8 -4 15 25 13 17 22 14 20 19 -8 -10 16 -5 18 -3 -11 -7 -13 23 -6 -16 -1 -23 -9 -2 -30
right_child=1 3 4 5 9 11 7 27 10 12 -12 21 -14 -15 24 -17 -18 -19 -20 -21 -22 26 -24 -25 -26 -27 -28 -29 29 -31
leaf_value=-0.14372661225000696 0.018981515557906437 0.52080846864666464 -0.15021905714724992 1.0774398365596374 0.11712791418559482 2.0173621951957945 -0.18753431891858441 0.10694847018150735 0.82819735824182072 0.56851057847888142 1.0875984700141179 2.8084474135636164 0.20423949832094457 -0.08472121294614493 0.59613425557011401 1.5509578257834873 -1.3863376885004666 0.72326770074707325 -0.0065568727398398127 0.32513589923952879 -1.8065432321640753 3.7838088208145195 0.22540866864329712 -0.18464768136623855 -0.51912982984127742 -0.21413335457310001 7.2602012369367817 -0.0019479580969949733 1.3777996329383719 -0.21483999963336614
leaf_weight=215352 13374 19003 63222 1678 56420 647 59768 39819 17313 9928 10918 1061 24799 236761 948 5227 92 12116 1847 28439 31 143 35533 5601 477 108378 36 100961 144 14555
leaf_count=215352 13374 19003 63222 1678 56420 647 59768 39819 17313 9928 10918 1061 24799 236761 948 5227 92 12116 1847 28439 31 143 35533 5601 477 108378 36 100961 144 14555
internal_value=0 0.575468 -0.0581964 0.838687 0.107359 1.66222 -0.106912 -0.0622107 0.721446 0.208681 0.894608 2.62328 0.315924 -0.105444 0.782159 1.39878 0.949379 0.565671 0.474092 0.388113 1.84252 3.05017 0.139242 0.0898751 0.222814 -0.167297 4.48297 0.0288529 -0.0952778 -0.199238
internal_weight=0 99610 984981 71537 223942 8915 761039 437309 62622 160720 29656 1918 63166 296529 18738 6997 1770 32966 20850 38367 678 1240 97554 62021 1425 323730 179 140780 28073 14699
internal_count=1084591 99610 984981 71537 223942 8915 761039 437309 62622 160720 29656 1918 63166 296529 18738 6997 1770 32966 20850 38367 678 1240 97554 62021 1425 323730 179 140780 28073 14699
is_linear=0
shrinkage=0.05


Tree=24
num_leaves=31
num_cat=0
split_feature=13 0 13 13 0 13 13 13 1 1 1 0 3 7 7 7 16 13 7 0 10 3 10 10 10 3 8 7 0 10
split_gain=1.31267e+07 6.79265e+06 3.38779e+06 2.00955e+06 1.76721e+06 1.17994e+06 944040 481251 410901 338537 249830 232686 227755 240308 226531 223444 236257 205510 198260 194988 184502 165020 154652 153858 144708 144293 138615 138306 137887 151045
threshold=24.81666666666667 2.5000000000000004 58.150000000000006 8.8500000000000032 3.5000000000000004 93.88333333333334 39.050000000000004 15.41666666666667 -0.21694186955877909 0.87837969732492682 -0.21694186955877909 3.5000000000000004 19.500000000000004 11.500000000000002 4.5000000000000009 7.5000000000000009 210.00000000000003 3.916666666666667 6.5000000000000009 3.5000000000000004 701.50000000000011 18.500000000000004 42.500000000000007 993.50000000000011 42.500000000000007 9.5000000000000018 -0.86602540378443871 11.500000000000002 1.5000000000000002 42.500000000000007
decision_type=2 2 2 2 2 2 2 2 2 2 2 2 2 2 2 2 2 2 2 2 2 2 2 2 2 2 2 2 2 2
left_child=3 28 6 8 9 10 12 -6 17 -5 14 -8 13 -3 -4 16 19 -1 24 -7 -17 27 -11 -22 -13 -15 -20 -9 -2 -30
right_child=1 2 5 4 7 15 11 21 -10 22 -12 18 -14 25 -16 20 -18 -19 26 -21 23 -23 -24 -25 -26 -27 -28 -29 29 -31
leaf_value=-0.127566099134339 -0.0075239188033736472 0.36469797784444929 1.8574460609399694 -0.048258525458059712 0.065578671643829745 1.0611034630439604 0.48390773490829048 0.19457213169742993 -0.15920921066749197 0.61684219510662386 0.87843667809994863 -0.38708286875395603 0.54148923030981977 0.22079766402028134 1.196162277230236 2.1984912100675333 4.1102840256144981 -0.03657281409796679 0.88670153402231389 2.7452931230855757 -0.51836279484865477 0.31894793688113543 -0.21727332233212437 1.9908408056226894 0.97902745332136476 -0.53483237363501468 0.57179744066659477 -0.10804150620193086 1.1544761749653563 -0.20610241544056507
leaf_weight=107930 19192 30620 1595 98222 123009 208 6927 40590 342061 562 5128 197 19458 1315 6887 619 262 145979 5503 989 139 29372 49586 109 12113 1216 9575 4163 206 20859
leaf_count=107930 19192 30620 1595 98222 123009 208 6927 40590 342061 562 5128 197 19458 1315 6887 619 262 145979 5503 989 139 29372 49586 109 12113 1216 9575 4163 206 20859
internal_value=0 0.446143 0.66164 -0.0678198 0.0281204 1.33181 0.538776 0.126223 -0.12344 -0.102225 1.15395 0.742801 0.405698 0.325995 1.32051 2.37253 2.75031 -0.0752517 0.80828 2.45264 1.73681 0.226861 -0.207926 0.584473 0.957165 -0.142239 0.686728 0.166422 -0.10447 -0.192797
internal_weight=0 143117 102860 941474 345504 15936 86924 197134 595970 148370 13610 34315 52609 33151 8482 2326 1459 253909 27388 1197 867 74125 50148 248 12310 2531 15078 44753 40257 21065
internal_count=1084591 143117 102860 941474 345504 15936 86924 197134 595970 148370 13610 34315 52609 33151 8482 2326 1459 253909 27388 1197 867 74125 50148 248 12310 2531 15078 44753 40257 21065
is_linear=0
shrinkage=0.05


Tree=25
num_leaves=31
num_cat=0
split_feature=13 0 13 11 0 0 13 13 13 6 7 11 3 7 7 12 6 0 13 7 7 6 7 7 6 7 3 3 0 5
split_gain=1.19005e+07 5.58734e+06 2.87555e+06 2.12299e+06 1.99038e+06 799882 802892 771337 356768 294864 304186 276391 213598 198092 197899 194715 190115 180139 165296 161136 146918 141153 229451 138149 137860 167310 127470 126154 126129 134820
threshold=33.38333333333334 2.5000000000000004 14.616666666666669 87.642857142857153 2.5000000000000004 2.5000000000000004 6.5166666666666675 51.750000000000007 23.416666666666668 -0.71394436452582466 11.500000000000002 139.50000000000003 19.500000000000004 4.5000000000000009 11.500000000000002 69.750000000000014 0.4669418695587792 3.5000000000000004 1.6103448275862071 4.5000000000000009 10.500000000000002 -0.71394436452582466 11.500000000000002 11.500000000000002 -0.71394436452582466 11.500000000000002 9.5000000000000018 20.500000000000004 3.5000000000000004 0.42031019109667916
decision_type=2 2 2 2 2 2 2 2 2 2 2 2 2 2 2 2 2 2 2 2 2 2 2 2 2 2 2 2 2 2
left_child=2 -2 5 7 -4 -1 18 12 19 10 -9 16 14 -8 -3 28 23 -10 -7 -6 -19 22 -15 -5 25 -21 -16 -13 -11 -30
right_child=1 3 4 11 8 6 13 9 17 15 -12 27 -14 21 26 -17 -18 20 -20 24 -22 -23 -24 -25 -26 -27 -28 -29 29 -31
leaf_value=-0.17187538186024146 -0.077787547081940911 0.55999630808055079 -0.13181248316215971 1.6092160322266331 0.26566935579694501 -0.18763646610583809 0.077687242427022088 0.74467677682818778 0.14232000333172598 0.71812502641207532 -0.89903055404456667 2.5079663602151272 0.75649877507175511 -0.057858015082373038 0.44228445099715885 1.4587426954572891 2.4707246195057428 0.42113846146968775 -0.095429198029968368 0.055387034073118374 0.14441660794058539 0.0049264752088887722 -0.41815604904115794 -0.64684945521220361 0.16338048105081768 -0.4346680880762252 -0.30268986533399628 3.9576285259264736 1.2256350939310834 0.85502137076053286
leaf_weight=225793 25330 22927 56135 1532 27294 59532 71267 5074 10061 3038 298 508 14499 39213 1159 2817 757 32433 264781 15087 5629 130525 4980 71 50129 1969 1138 213 6436 3966
leaf_count=225793 25330 22927 56135 1532 27294 59532 71267 5074 10061 3038 298 508 14499 39213 1159 2817 757 32433 264781 15087 5629 130525 4980 71 50129 1969 1138 213 6436 3966
internal_value=0 0.551372 -0.0497501 0.798708 0.120387 -0.0922233 -0.0606873 0.734391 0.219665 0.974651 0.653496 2.07944 0.603571 0.00743282 0.515667 1.08077 1.81768 0.330478 -0.112355 0.163222 0.380214 -0.0212238 -0.0984591 1.50929 0.121602 -0.00118652 0.0732027 2.93623 1.00155 1.08433
internal_weight=0 89763 994828 64433 198737 796091 570298 61352 142602 21629 5372 3081 39723 245985 25224 16257 2360 48123 324313 94479 38062 174718 44193 1603 67185 17056 2297 721 13440 10402
internal_count=1084591 89763 994828 64433 198737 796091 570298 61352 142602 21629 5372 3081 39723 245985 25224 16257 2360 48123 324313 94479 38062 174718 44193 1603 67185 17056 2297 721 13440 10402
is_linear=0
shrinkage=0.05


Tree=26
num_leaves=31
num_cat=0
split_feature=13 0 13 0 12 1 13 13 11 13 1 1 3 7 0 10 7 1 5 1 13 5 10 10 3 7 3 7 10 7
split_gain=1.07427e+07 5.08912e+06 2.5136e+06 1.98993e+06 1.98169e+06 567413 558751 450012 443436 342384 320657 233674 223220 203373 203095 196692 184907 182533 170906 155064 193509 150489 147864 135081 142339 134175 126743 140187 116391 150674
threshold=32.650000000000006 2.5000000000000004 12.116666666666669 3.5000000000000004 74.607142857142875 -0.21694186955877909 49.183333333333344 19.516666666666669 110.92857142857144 5.0500000000000007 0.87837969732492682 -0.21694186955877909 19.500000000000004 4.5000000000000009 3.5000000000000004 122.50000000000001 10.500000000000002 -0.21694186955877909 -0.7339688063532569 0.87837969732492682 5.6500000000000012 -0.7339688063532569 42.500000000000007 942.50000000000011 20.500000000000004 4.5000000000000009 19.500000000000004 11.500000000000002 53.500000000000007 4.5000000000000009
decision_type=2 2 2 2 2 2 2 2 2 2 2 2 2 2 2 2 2 2 2 2 2 2 2 2 2 2 2 2 2 2
left_child=2 -2 5 10 6 9 14 26 12 -1 -4 13 -6 -8 -3 -15 21 23 -16 20 -7 -9 -12 24 -10 -11 27 -5 -20 -30
right_child=1 4 3 7 8 19 11 16 17 25 22 -13 -14 15 18 -17 -18 -19 28 -21 -22 -23 -24 -25 -26 -27 -28 -29 29 -31
leaf_value=-0.10004245317163951 -0.075978653563448337 0.31059187284165574 -0.013143124071539034 0.1093017093852121 1.0950092464778016 -0.15212479471789189 1.3354849828656961 0.49044784356131976 2.5608818286896184 0.072262574954897033 0.73783317584526775 0.6505608833027775 1.8835773689866633 -2.7606981999165305 0.81612475134597817 0.8905476002661884 0.10121349189380757 1.6941881244900405 -0.34270878651790243 -0.18629818786420119 -0.073570790759009214 0.29522627059923223 -0.20340002015165096 0.75495698340733852 3.9639173601321347 -0.025209840839214154 0.21145308305388522 -0.17113204658519265 0.75731956935263756 0.46840645570497008
leaf_weight=147351 26297 7542 73165 48144 2598 170412 3075 12952 627 50900 422 8997 1371 37 7051 11815 9372 627 372 104336 145195 41507 37159 75 254 115242 30351 4911 6259 16175
leaf_count=147351 26297 7542 73165 48144 2598 170412 3075 12952 627 50900 422 8997 1371 37 7051 11815 9372 627 372 104336 145195 41507 37159 75 254 115242 30351 4911 6259 16175
internal_value=0 0.513309 -0.04824 0.085998 0.745032 -0.0954576 0.663135 0.206432 1.6496 -0.0445574 -0.0741191 0.851839 1.3674 0.973155 0.542422 0.879149 0.306353 2.35716 0.600983 -0.133455 -0.115986 0.341656 -0.192831 2.79198 2.96539 0.00465224 0.129962 0.0833435 0.534467 0.549012
internal_weight=0 93172 991419 257983 66875 733436 61323 147237 5552 313493 110746 23924 3969 14927 37399 11852 63831 1583 29857 419943 315607 54459 37581 956 881 166142 83406 53055 22806 22434
internal_count=1084591 93172 991419 257983 66875 733436 61323 147237 5552 313493 110746 23924 3969 14927 37399 11852 63831 1583 29857 419943 315607 54459 37581 956 881 166142 83406 53055 22806 22434
is_linear=0
shrinkage=0.05


Tree=27
num_leaves=31
num_cat=0
split_feature=13 1 13 13 1 12 13 13 1 1 7 13 6 5 6 7 1 1 7 7 15 7 5 17 10 3 7 1 5 7
split_gain=9.71839e+06 4.9032e+06 2.1591e+06 1.87812e+06 1.58487e+06 695814 579249 403562 385536 282622 228356 209594 207381 246040 205493 195712 192118 163021 155831 150088 140219 140174 139866 138756 138501 133282 140320 130538 142854 123143
threshold=28.350000000000005 0.6078576107927941 63.050000000000004 10.15 1.0000000180025095e-35 101.39285714285715 41.416666666666671 18.116666666666671 -0.21694186955877909 0.87837969732492682 6.5000000000000009 3.916666666666667 -0.27983476331683427 -0.89938670373658025 -0.55605299127383134 11.500000000000002 1.0000000180025095e-35 1.0000000180025095e-35 4.5000000000000009 4.5000000000000009 225.50000000000003 11.500000000000002 -0.7339688063532569 31.500000000000004 42.500000000000007 19.500000000000004 11.500000000000002 -0.21694186955877909 -0.7339688063532569 2.5000000000000004
decision_type=2 2 2 2 2 2 2 2 2 2 2 2 2 2 2 2 2 2 2 2 2 2 2 2 2 2 2 2 2 2
left_child=3 2 6 8 7 16 17 25 11 -6 27 -1 13 23 21 -15 19 22 -9 -4 -16 -7 29 -12 -11 26 -5 28 -8 -2
right_child=1 -3 5 4 9 14 10 18 -10 24 12 -13 -14 15 20 -17 -18 -19 -20 -21 -22 -23 -24 -25 -26 -27 -28 -29 -30 -31
leaf_value=-0.10991098369573722 1.2135386208969541 -0.086217061375742629 1.7204529955741383 0.072272789424861025 -0.02822039195495242 1.6063437100844802 1.2894915719630182 0.38014871678216866 -0.13253699394685717 0.64709731036101481 0.7208510398085034 -0.021143925562390004 0.70479477009923752 0.4981923792548279 2.3130149865400438 -0.30851437565832102 0.69126432609462574 0.19845951705742282 0.20222969790911099 1.1210869573468112 3.8255697959295198 -1.8353371758614818 0.3941279191681949 -2.6607239769500435 -0.19137544698530404 0.16323758385404896 -0.17475296605173568 0.64697307089481182 0.83387352230649214 0.57127829704469724
leaf_weight=107930 847 32785 1275 65594 87823 648 2279 16788 377970 498 43 173233 11310 6692 1064 847 2168 7867 46107 5777 179 31 23022 103 44669 41405 6301 6038 7019 6279
leaf_count=107930 847 32785 1275 65594 87823 648 2279 16788 377970 498 43 173233 11310 6692 1064 847 2168 7867 46107 5777 179 31 23022 103 44669 41405 6301 6038 7019 6279
internal_value=0 0.43192 0.635388 -0.0518638 0.0498079 1.28331 0.535603 0.148157 -0.0995558 -0.0804925 0.68448 -0.0552189 0.568611 0.368189 2.14872 0.40756 1.1029 0.401153 0.24972 1.22945 2.53083 1.44921 0.454045 -1.66478 -0.182131 0.0917775 0.050623 0.827995 0.945548 0.647618
internal_weight=0 116273 83488 968318 309185 11142 72346 176195 659133 132990 34331 281163 18995 7685 1922 7539 9220 38015 62895 7052 1243 679 30148 146 45167 113300 71895 15336 9298 7126
internal_count=1084591 116273 83488 968318 309185 11142 72346 176195 659133 132990 34331 281163 18995 7685 1922 7539 9220 38015 62895 7052 1243 679 30148 146 45167 113300 71895 15336 9298 7126
is_linear=0
shrinkage=0.05


Tree=28
num_leaves=31
num_cat=0
split_feature=13 0 13 13 0 11 13 13 1 6 7 1 6 7 7 6 7 13 12 1 7 10 10 7 0 10 7 16 7 6
split_gain=8.80208e+06 4.57575e+06 2.43072e+06 1.2715e+06 1.16563e+06 859841 638088 302521 269356 211886 245846 206281 195392 187616 186571 159751 232613 149604 149124 143346 141455 188773 140315 130959 128319 139151 126966 116894 199957 113036
threshold=23.750000000000004 2.5000000000000004 56.31666666666667 8.5500000000000025 2.5000000000000004 96.214285714285737 36.850000000000009 15.41666666666667 -0.21694186955877909 -0.71394436452582466 11.500000000000002 -0.21694186955877909 -0.71394436452582466 11.500000000000002 4.5000000000000009 -0.71394436452582466 11.500000000000002 1.7500000000000002 74.607142857142875 -0.21694186955877909 4.5000000000000009 122.50000000000001 42.500000000000007 4.5000000000000009 1.5000000000000002 42.500000000000007 4.5000000000000009 172.50000000000003 7.5000000000000009 -0.71394436452582466
decision_type=2 2 2 2 2 2 2 2 2 2 2 2 2 2 2 2 2 2 2 2 2 2 2 2 2 2 2 2 2 2
left_child=3 24 6 8 -5 9 14 23 17 10 -4 27 13 -8 -3 16 -16 -1 -11 20 22 -22 -14 -6 -2 -26 -9 -7 -29 -28
right_child=1 2 5 4 7 11 12 26 -10 18 -12 -13 19 -15 15 -17 -18 -19 -20 -21 21 -23 -24 -25 25 -27 29 28 -30 -31
leaf_value=-0.15359012486756396 0.0048617640306215888 0.46584395102720866 0.69281717901100148 -0.1277932676427512 0.10708613944106544 2.0271609731013509 0.44810882297973703 0.24682334091750591 -0.13263958603799325 0.94219381616698716 -1.1503095554991771 1.37812879462696 -0.64157017923479209 -0.36591463117761336 0.16129619090879513 0.31339495447464366 -0.66123680713444744 -0.046865648072528875 1.3995862451777421 0.50560634585401609 -2.2235004458511085 0.660816136471015 1.0182731971018846 0.007752893628604195 1.0807101743793057 -0.18011282668957634 -0.0042451920147492609 3.8491537601163572 1.6622893283529394 0.15183669817110232
leaf_weight=38994 20583 14273 3787 99368 45777 925 8517 24527 332856 9662 190 918 131 772 9405 30559 946 207940 2185 11001 57 11872 4537 120584 221 22347 15550 274 169 45664
leaf_count=38994 20583 14273 3787 99368 45777 925 8517 24527 332856 9662 190 918 131 772 9405 30559 946 207940 2185 11001 57 11872 4537 120584 221 22347 15550 274 169 45664
internal_value=0 0.351035 0.52197 -0.0577975 0.017241 1.05149 0.417813 0.0744074 -0.103286 0.920546 0.604762 1.95794 0.57881 0.380456 0.310195 0.255891 0.0861231 -0.0637188 1.02655 0.645572 0.738346 0.647034 0.971692 0.0350861 -0.0854227 -0.167766 0.150701 2.34702 3.01489 0.112188
internal_weight=0 153331 110180 931260 351470 18110 92070 252102 579790 15824 3977 2286 36887 9289 55183 40910 10351 246934 11847 27598 16597 11929 4668 166361 43151 22568 85741 1368 443 61214
internal_count=1084591 153331 110180 931260 351470 18110 92070 252102 579790 15824 3977 2286 36887 9289 55183 40910 10351 246934 11847 27598 16597 11929 4668 166361 43151 22568 85741 1368 443 61214
is_linear=0
shrinkage=0.05


Tree=29
num_leaves=31
num_cat=0
split_feature=13 0 13 12 0 0 13 13 3 6 7 3 7 15 3 1 7 7 10 13 5 12 7 3 7 0 1 5 0 5
split_gain=7.956e+06 3.705e+06 1.93482e+06 1.44897e+06 1.30829e+06 612821 562961 482704 264476 263705 262525 215056 207811 192450 181879 178225 169679 152344 145804 143209 141834 137577 135915 129974 129830 128790 121552 118823 118300 137683
threshold=33.38333333333334 2.5000000000000004 15.216666666666667 81.821428571428598 2.5000000000000004 3.5000000000000004 7.8500000000000005 51.750000000000007 19.500000000000004 -0.55605299127383134 11.500000000000002 19.500000000000004 11.500000000000002 225.50000000000003 9.5000000000000018 -0.21694186955877909 4.5000000000000009 1.5000000000000002 122.50000000000001 1.4166666666666667 -0.76248815397271175 22.035714285714288 11.500000000000002 9.5000000000000018 10.500000000000002 3.5000000000000004 -0.21694186955877909 0.99935825358552643 3.5000000000000004 -0.6880826349756709
decision_type=2 2 2 2 2 2 2 2 2 2 2 2 2 2 2 2 2 2 2 2 2 2 2 2 2 2 2 2 2 2
left_child=2 -2 5 7 -4 -1 19 15 10 12 17 22 25 26 -12 16 -3 -6 -18 -7 -19 -10 28 -24 -8 -5 -11 -22 29 -9
right_child=1 3 4 9 8 6 24 11 21 13 14 -13 -14 -15 -16 -17 18 20 -20 -21 27 -23 23 -25 -26 -27 -28 -29 -30 -31
leaf_value=-0.12482681012207036 -0.061506003694681614 0.78666551614300617 -0.10656815683559114 0.21922345271936261 0.52578408344437166 -0.16287691256890424 0.061610646139126105 -2.7930701284697563 0.21140122578253898 2.1243696307670255 0.082911714020830363 0.9920116642043153 -1.8043928575515746 3.5208041960633665 -0.42528592641554352 0.36067455902646461 -2.0318860639605609 0.78495022108779611 0.5011633684432647 -0.062248481719707982 0.14229905448590405 0.38220373973524552 0.57460901097230177 -0.66323763575025174 -0.064551228185583565 1.448821835103532 1.3491359065481898 -1.290418377580314 0.78986653574074694 0.45612309848920918
leaf_weight=343767 25330 6889 52815 266 2750 40682 129047 33 29574 1259 3712 7982 60 179 3349 15749 57 861 17025 270089 74213 19605 510 363 24219 1068 845 145 9432 2716
leaf_count=343767 25330 6889 52815 266 2750 40682 129047 33 29574 1259 3712 7982 60 179 3349 15749 57 861 17025 270089 74213 19605 510 363 24219 1068 845 145 9432 2716
internal_value=0 0.450827 -0.040678 0.652236 0.104239 -0.0742294 -0.036746 0.593905 0.187198 1.61605 0.133818 0.787565 1.07417 1.94692 -0.158124 0.491342 0.57719 0.160257 0.492711 -0.0754214 0.146893 0.279491 0.662554 0.059903 0.0416746 1.20364 1.81302 0.139505 0.705745 0.417119
internal_weight=0 89763 994828 64433 187024 807804 464037 60756 134209 3677 85030 21036 1394 2283 7061 39720 23971 77969 17082 310771 75219 49179 13054 873 153266 1334 2104 74358 12181 2749
internal_count=1084591 89763 994828 64433 187024 807804 464037 60756 134209 3677 85030 21036 1394 2283 7061 39720 23971 77969 17082 310771 75219 49179 13054 873 153266 1334 2104 74358 12181 2749
is_linear=0
shrinkage=0.05


Tree=30
num_leaves=31
num_cat=0
split_feature=13 1 13 13 1 13 12 1 13 7 1 1 7 6 6 6 7 7 10 10 13 1 7 1 10 10 7 7 1 8
split_gain=7.20507e+06 3.74289e+06 2.00468e+06 1.04598e+06 962932 649648 599319 237711 208810 193506 190536 187358 186835 200390 169320 160081 216465 154067 139104 132945 131956 123592 120679 115810 125592 111221 109593 101302 100402 98191.5
threshold=23.750000000000004 0.6078576107927941 60.38333333333334 8.8500000000000032 1.0000000180025095e-35 40.250000000000007 101.39285714285715 -0.21694186955877909 14.816666666666668 4.5000000000000009 -0.21694186955877909 0.87837969732492682 4.5000000000000009 -0.71394436452582466 -0.71394436452582466 -0.71394436452582466 11.500000000000002 4.5000000000000009 942.50000000000011 993.50000000000011 2.5833333333333339 -0.21694186955877909 11.500000000000002 0.87837969732492682 42.500000000000007 42.500000000000007 6.5000000000000009 11.500000000000002 -0.21694186955877909 0.93301270189221952
decision_type=2 2 2 2 2 2 2 2 2 2 2 2 2 2 2 2 2 2 2 2 2 2 2 2 2 2 2 2 2 2
left_child=3 2 5 7 8 9 10 20 -5 29 17 -6 28 22 27 16 -11 -4 21 -20 -1 -16 -14 -3 -25 -13 -10 -8 -7 -2
right_child=1 23 6 4 11 12 14 -9 26 15 -12 25 13 -15 18 -17 -18 -19 19 -21 -22 -23 -24 24 -26 -27 -28 -29 -30 -31
leaf_value=-0.11753503384368476 0.52062134893880985 0.0086250827281334 1.5510845519859509 0.049933407334706151 -0.038588010020197822 0.89877937346255465 1.2670419398875721 -0.11924434923697967 0.2209401538403348 0.15329664733593334 0.64328802187122747 0.54975685555133735 0.33023461756893163 0.58027435049975373 2.6918086636821137 0.29760374564925718 -0.57773891698866486 0.95413708867796321 -1.6569442732963298 1.9928361498085516 -0.034480885872246604 1.6866482182247602 -0.38676557012906398 1.0307184989214349 -0.16710228975157948 -0.1672523694768219 0.099819350905474724 -1.8747088158572163 0.5518042786440831 0.25277418988520051
leaf_weight=63911 11741 20583 1318 116417 95281 5431 516 342061 35342 10475 4334 547 5794 18973 773 34196 1121 6008 45 56 189998 506 653 221 22347 48098 39605 27 3384 4829
leaf_count=63911 11741 20583 1318 116417 95281 5431 516 342061 35342 10475 4334 547 5794 18973 773 34196 1121 6008 45 56 189998 506 653 221 22347 48098 39605 27 3384 4829
internal_value=0 0.317597 0.472195 -0.0522921 0.0183555 0.392219 1.04095 -0.0920381 0.0918402 0.296146 0.906072 -0.0793497 0.567225 0.498441 1.85878 0.243165 0.0826265 1.06153 2.15308 0.366696 -0.0553863 2.29415 0.257612 -0.0771457 -0.155372 -0.15919 0.156935 1.11082 0.765579 0.442563
internal_weight=0 153331 110180 931260 335290 96597 13583 595970 191364 62362 11660 143926 34235 25420 1923 45792 11596 7326 1380 101 253909 1279 6447 43151 22568 48645 74947 543 8815 16570
internal_count=1084591 153331 110180 931260 335290 96597 13583 595970 191364 62362 11660 143926 34235 25420 1923 45792 11596 7326 1380 101 253909 1279 6447 43151 22568 48645 74947 543 8815 16570
is_linear=0
shrinkage=0.05


Tree=31
num_leaves=31
num_cat=0
split_feature=13 0 13 1 13 0 13 13 11 13 1 7 6 7 6 6 7 0 5 7 0 7 5 1 3 7 5 8 5 0
split_gain=6.51961e+06 2.99055e+06 1.62706e+06 1.18867e+06 1.1796e+06 486826 482690 319781 263080 226545 200128 181328 222951 170986 175155 169882 213070 156604 139224 123902 123672 117357 114254 113860 111728 125091 104653 100944 145806 100384
threshold=34.150000000000006 2.5000000000000004 14.41666666666667 1.0000000180025095e-35 77.250000000000014 2.5000000000000004 5.4500000000000011 51.750000000000007 139.50000000000003 23.416666666666668 0.87837969732492682 11.500000000000002 -0.27983476331683427 4.5000000000000009 -0.71394436452582466 0.39059449598118917 11.500000000000002 3.5000000000000004 -0.7339688063532569 11.500000000000002 3.5000000000000004 4.5000000000000009 -0.7339688063532569 -0.8783796973249266 19.500000000000004 11.500000000000002 0.99935825358552643 0.93301270189221952 -0.76248815397271175 1.5000000000000002
decision_type=2 2 2 2 2 2 2 2 2 2 2 2 2 2 2 2 2 2 2 2 2 2 2 2 2 2 2 2 2 2
left_child=2 29 5 9 7 -1 -7 17 15 22 -5 21 -13 27 19 16 20 -3 -19 -15 -6 -8 -4 -10 25 -11 -20 28 -9 -2
right_child=1 4 3 10 8 6 11 13 23 24 -12 12 -14 14 -16 -17 -18 18 26 -21 -22 -23 -24 -25 -26 -27 -28 -29 -30 -31
leaf_value=-0.13094855100589389 0.053774567633593756 0.24987738747552909 0.25255137233852326 0.0043252289382109729 0.41290486039600927 -0.092373403212884619 0.058653014430624401 1.846440278606952 3.5247005504621587 0.25802198040890006 -0.15465658839775834 -0.33454330651943404 -0.013248625464837542 0.41663898526270871 0.72327410405207759 1.6406695280769297 -0.78199208505225914 0.69859452153015456 0.44899427018059646 -0.70917945560995654 1.2949429491400086 -0.011306097805026727 0.10977918391658747 1.9447632004740119 0.39907099204419944 -0.16062592093828154 -2.1433071136474608 0.63970538368174901 0.96830810790179334 -0.14913227515977856
leaf_weight=224704 11659 7556 18335 58456 524 270072 88508 612 142 23195 29930 8697 14240 3840 12055 1440 165 7066 22745 261 1645 185760 59443 579 14778 1933 39 1361 2077 12774
leaf_count=224704 11659 7556 18335 58456 524 270072 88508 612 142 23195 29930 8697 14240 3840 12055 1440 165 7066 22745 261 1645 185760 59443 579 14778 1933 39 1361 2077 12774
internal_value=0 0.416309 -0.0360977 0.0890566 0.600664 -0.0686623 -0.0439902 0.539798 1.38078 0.193127 -0.0495105 -2.40349e-05 -0.135074 0.700074 0.627251 1.21359 0.950092 0.453219 0.504692 0.344989 1.08185 0.0112701 0.143436 2.25593 0.289976 0.225817 0.444557 0.990577 1.16817 -0.0523087
internal_weight=0 86540 998051 206070 62107 791981 567277 57612 4495 117684 88386 297205 22937 20206 16156 3774 2334 37406 29850 4101 2169 274268 77778 721 39906 25128 22784 4050 2689 24433
internal_count=1084591 86540 998051 206070 62107 791981 567277 57612 4495 117684 88386 297205 22937 20206 16156 3774 2334 37406 29850 4101 2169 274268 77778 721 39906 25128 22784 4050 2689 24433
is_linear=0
shrinkage=0.05


Tree=32
num_leaves=31
num_cat=0
split_feature=13 0 13 13 0 11 13 13 1 1 7 4 13 3 5 1 0 10 7 17 17 3 7 7 10 5 10 7 22 1
split_gain=5.89345e+06 2.90092e+06 1.25864e+06 1.24998e+06 1.09919e+06 371251 334664 287267 256497 184551 177659 154041 145719 141146 264584 131402 127645 126069 122841 120191 120188 116920 115349 112647 112243 110061 109472 106058 98262 94158.6
threshold=30.083333333333339 2.5000000000000004 10.350000000000003 66.116666666666688 3.5000000000000004 110.92857142857144 43.716666666666676 19.050000000000004 -0.21694186955877909 0.87837969732492682 6.5000000000000009 30.500000000000004 3.3833333333333337 21.500000000000004 -0.89938670373658025 -0.21694186955877909 3.5000000000000004 942.50000000000011 6.5000000000000009 192.50000000000003 41.500000000000007 19.500000000000004 11.500000000000002 4.5000000000000009 42.500000000000007 -0.99149510984819222 122.50000000000001 10.500000000000002 1.0000000180025095e-35 -0.21694186955877909
decision_type=2 2 2 2 2 2 2 2 2 2 2 2 2 2 2 2 2 2 2 2 2 2 2 2 2 2 2 2 2 2
left_child=2 -2 8 6 9 11 15 21 12 -4 25 -5 -1 14 20 23 -7 19 -9 -18 -12 22 -6 -3 -11 -8 -25 -14 -27 -13
right_child=1 3 4 5 7 16 10 18 -10 24 13 29 27 -15 -16 -17 17 -19 -20 -21 -22 -23 -24 26 -26 28 -28 -29 -30 -31
leaf_value=-0.093822168911339987 -0.062924852366647896 0.59662554345614704 -0.021358857025296569 1.2011929608158392 0.061970132369559831 0.85337631563671301 1.308961858272262 0.29178725339514405 -0.10376771868463225 0.60178086598754177 0.62610552344057302 0.91665439177499963 1.2170030246723392e-05 0.67368985700010742 0.38919202758799654 0.21917131909253845 1.8648901098162067 0.29810497099810312 0.14883863783477608 3.0778577800445035 -2.7521245100060288 0.14661379184585541 -0.15893543812674779 -1.8836908028342507 -0.15377341023823712 0.61053871026480866 0.35107018478045965 -0.097301933706161317 1.0157914545322408 0.43709269321156619
leaf_weight=89842 29941 6159 88255 2992 67425 305 692 27966 382933 497 36 2704 161346 5270 12412 14008 902 101 32487 264 98 42599 6477 55 44824 11703 15059 33877 1715 1647
leaf_count=89842 29941 6159 88255 2992 67425 305 692 27966 382933 497 36 2704 161346 5270 12412 14008 902 101 32487 264 98 42599 6477 55 44824 11703 15059 33877 1715 1647
internal_value=0 0.354019 -0.0383722 0.518015 0.0447985 1.07432 0.444221 0.12653 -0.0770355 -0.0634746 0.561512 0.92503 -0.0411257 0.456546 0.365334 0.338084 1.77168 1.99273 0.214968 2.13952 -1.84454 0.0806389 0.0426093 0.416386 -0.145488 0.694048 0.342938 -0.0168747 0.662335 0.735124
internal_weight=0 106063 978528 76122 310530 8915 67207 176954 667998 133576 31926 7343 285065 17816 12546 35281 1572 1267 60453 1166 134 116501 73902 21273 45321 14110 15114 195223 13418 4351
internal_count=1084591 106063 978528 76122 310530 8915 67207 176954 667998 133576 31926 7343 285065 17816 12546 35281 1572 1267 60453 1166 134 116501 73902 21273 45321 14110 15114 195223 13418 4351
is_linear=0
shrinkage=0.05


Tree=33
num_leaves=31
num_cat=0
split_feature=12 0 12 11 0 1 3 12 3 12 7 7 3 3 3 10 10 11 3 7 1 8 10 10 5 5 5 5 8 9
split_gain=5.19909e+06 2.39207e+06 1.31578e+06 1.00562e+06 951367 423517 393605 362938 264246 261475 246102 229731 182273 178260 170932 168561 243041 155220 139362 150212 138242 136214 222751 312679 123362 121651 113026 107371 100979 100473
threshold=33.964285714285722 2.5000000000000004 14.607142857142859 87.642857142857153 2.5000000000000004 0.6078576107927941 19.500000000000004 6.7500000000000009 19.500000000000004 51.964285714285722 11.500000000000002 11.500000000000002 8.5000000000000018 19.500000000000004 9.5000000000000018 958.50000000000011 993.50000000000011 60.357142857142868 19.500000000000004 11.500000000000002 -0.21694186955877909 0.93301270189221952 83.500000000000014 810.50000000000011 -0.76248815397271175 -0.76248815397271175 0.99935825358552643 0.99935825358552643 0.68301270189221963 0.86602540378443849
decision_type=2 2 2 2 2 2 2 2 2 2 2 2 2 2 2 2 2 2 2 2 2 2 2 2 2 2 2 2 2 2
left_child=2 -2 5 6 -4 7 10 -1 11 -8 17 24 -12 -5 -13 -15 -17 25 19 -9 -10 28 -23 -24 -6 -3 29 -27 -22 -26
right_child=1 3 4 13 8 -7 9 18 20 -11 12 14 -14 15 -16 16 -18 -19 -20 -21 21 22 23 -25 26 27 -28 -29 -30 -31
leaf_value=-0.071841053710968161 -0.045674400955588869 1.3917728544000922 -0.091290272744224035 1.1534329225178412 0.69484609865002656 -0.11966924126049944 0.53254246070024469 -0.0045684065720174791 0.30701124080150677 0.90237071796177926 0.40929803043119756 0.077082507472090236 -0.38433806071937165 2.1595112391155626 -0.40389467877349089 -4.5899246879245927 1.6012996970438491 0.62382179685507733 0.060873785355773535 -0.18655219128881981 0.1319579977140112 -1.3252223501525799 0.37050272396029094 -1.2512609605987868 0.10763769352867243 0.36642306372809674 -1.1759313713164019 -2.0254141990174639 0.4439912717297847 0.39465743181995327
