tree
version=v4
num_class=1
num_tree_per_iteration=1
label_index=0
max_feature_idx=24
objective=regression
feature_names=Column_0 Column_1 Column_2 Column_3 Column_4 Column_5 Column_6 Column_7 Column_8 Column_9 Column_10 Column_11 Column_12 Column_13 Column_14 Column_15 Column_16 Column_17 Column_18 Column_19 Column_20 Column_21 Column_22 Column_23 Column_24
feature_infos=[1:7] [-0.97492791218182362:0.97492791218182362] [-0.90096886790241903:1] [1:31] [28:31] [-1:1] [-1:1] [1:12] [-1:1] [-1:1] [29:1080] [0:244.71428571428572] [0:227.85714285714286] [0.033333333333333333:217.86666666666667] [0:358.75] [0:385] [0:394] [0:344] [0:385] [0:376] [0:366] [0:356] [0:1] [0:1] [0:1]
tree_sizes=2946 2999 3004 3005 2977 2986 2974 2960 2966 2957 2982 2973 2980 2994 2946 2963 2947 2950 2948 2940 2950 2913 2911 2975 2972 2957 2943 2923 2944 2976 2926 2935 2926 2949 2918 2940 2937 2932 2906 2929 2930 2934 2914 2965 2915 2958 2942 2899 2978 2941 2952 2965 2919 2935 2910 2928 2940 2953 2903 2902 2947 2953 2879 2948 2946 2937 2949 2864 2928 2981 2972 2969 2962 2976 2984 2907 2977 2878 2998 2995 2892 2911 2876 3005 2994 2985 2859 2951 2925 2938 2947 2972 2981 2903 2931 2921 2923 2943 2958 2959

Tree=0
num_leaves=31
num_cat=0
split_feature=12 0 0 13 13 0 12 0 13 13 0 13 13 0 12 0 13 0 13 13 0 0 13 13 0 13 11 13 13 13
split_gain=1.46606e+08 4.7459e+07 2.95092e+07 2.57857e+07 2.44407e+07 1.48389e+07 8.85622e+06 8.53988e+06 8.20274e+06 5.09587e+06 4.45215e+06 4.56352e+06 3.87767e+06 2.41433e+06 1.85768e+06 1.74879e+06 1.6362e+06 1.2002e+06 1.12966e+06 924497 912164 897567 802003 740854 707245 698701 688044 656537 651914 645894
threshold=27.892857142857146 3.5000000000000004 1.5000000000000002 11.583333333333334 63.050000000000004 3.5000000000000004 101.39285714285715 1.5000000000000002 40.250000000000007 60.38333333333334 3.5000000000000004 5.4500000000000011 18.81666666666667 1.5000000000000002 101.39285714285715 4.5000000000000009 39.050000000000004 4.5000000000000009 50.416666666666671 5.6500000000000012 2.5000000000000004 4.5000000000000009 19.283333333333335 77.250000000000014 4.5000000000000009 2.6500000000000004 139.50000000000003 34.150000000000006 8.3833333333333346 23.750000000000004
decision_type=2 2 2 2 2 2 2 2 2 2 2 2 2 2 2 2 2 2 2 2 2 2 2 2 2 2 2 2 2 2
left_child=3 2 9 10 8 7 17 22 27 16 13 25 -7 19 -11 -10 -2 -6 -17 -1 -4 -8 -5 -19 -14 -12 -23 -3 -13 -26
right_child=1 4 20 5 6 12 21 -9 15 14 11 28 24 -15 -16 18 -18 23 -20 -21 -22 26 -24 -25 29 -27 -28 -29 -30 -31
leaf_value=12.333904932394512 14.113225722889691 14.186894003749744 12.683499078169003 13.052909321871381 16.022371009403511 13.137654848613709 19.121881269960706 12.263388341406642 14.865739416917267 16.518051794083057 12.258376639229468 12.619077433191805 13.384470415726335 12.170417233746825 20.330133451216248 15.443630745151948 15.17063448257713 17.079543163604995 16.175485946324287 12.637605049299012 12.168655623871846 20.975213266548415 13.572121894180496 18.46699156124464 13.645174184976735 12.440224989366923 23.508916248243501 14.666005606227767 12.804258769763564 14.076960951049362
leaf_weight=56281 7527 20141 17210 21901 2109 87151 386 73856 7506 1956 90114 110958 14879 203014 382 12535 7118 3631 9101 45170 17203 728 11262 1309 25853 127640 424 11086 83136 13024
leaf_count=56281 7527 20141 17210 21901 2109 87151 386 73856 7506 1956 90114 110958 14879 203014 382 12535 7118 3631 9101 45170 17203 728 11262 1309 25853 127640 424 11086 83136 13024
internal_value=12.7724 14.4178 13.2678 12.567 15.275 13.0065 17.7709 12.5627 14.92 14.9732 12.4149 12.5221 13.3437 12.2699 17.1409 15.5233 14.6272 17.0209 15.7515 12.4691 12.4261 21.2086 13.2292 17.4472 13.6776 12.365 21.9078 14.357 12.6984 13.7898
internal_weight=0 120352 51396 964239 68956 247926 8587 107019 60369 16983 716313 411848 140907 304465 2338 29142 14645 7049 21636 101451 34413 1538 33163 4940 53756 217754 1152 31227 194094 38877
internal_count=1084591 120352 51396 964239 68956 247926 8587 107019 60369 16983 716313 411848 140907 304465 2338 29142 14645 7049 21636 101451 34413 1538 33163 4940 53756 217754 1152 31227 194094 38877
is_linear=0
shrinkage=1


Tree=1
num_leaves=31
num_cat=0
split_feature=12 0 0 12 13 0 13 0 12 0 13 13 13 0 12 0 13 13 13 13 13 0 0 0 13 13 11 0 13 0
split_gain=1.32312e+08 4.28317e+07 2.6632e+07 2.33668e+07 2.21286e+07 1.19823e+07 9.40494e+06 7.05454e+06 5.45121e+06 4.71696e+06 5.05724e+06 4.63419e+06 2.93435e+06 2.43882e+06 2.0762e+06 1.79011e+06 1.39233e+06 1.05733e+06 1.00402e+06 998108 872755 823228 805127 772462 756589 657781 617443 589134 544174 448741
threshold=27.892857142857146 3.5000000000000004 1.5000000000000002 12.678571428571429 70.350000000000009 3.5000000000000004 42.583333333333343 1.5000000000000002 101.39285714285715 3.5000000000000004 6.1833333333333345 54.616666666666674 20.016666666666669 1.5000000000000002 101.39285714285715 4.5000000000000009 54.616666666666674 36.850000000000009 6.4500000000000011 35.850000000000009 2.9833333333333338 2.5000000000000004 4.5000000000000009 4.5000000000000009 9.6500000000000004 18.350000000000005 139.50000000000003 4.5000000000000009 15.41666666666667 4.5000000000000009
decision_type=2 2 2 2 2 2 2 2 2 2 2 2 2 2 2 2 2 2 2 2 2 2 2 2 2 2 2 2 2 2
left_child=3 2 11 9 6 7 19 25 23 13 20 17 28 18 -13 -8 -17 -2 -1 29 -11 -4 -10 -6 -12 -5 -24 -14 -7 -3
right_child=1 4 21 5 8 12 15 -9 22 10 24 14 27 -15 -16 16 -18 -19 -20 -21 -22 -23 26 -25 -26 -27 -28 -29 -30 -31
leaf_value=-0.39719718114432656 1.2183465458038842 0.97973890438216782 -0.084474199479191478 0.2511909017268022 3.36462812591125 0.26952395939137486 2.135886200469423 -0.47509420508054573 6.0420876403907684 -0.47554540375976456 -0.09317426697865154 3.2776926797357393 0.61889071017431008 -0.56949139526715098 7.1798282648256322 2.7242515447576676 3.5694225894417011 2.1055513794230976 -0.078137871027370853 1.9579880081070411 -0.28562731825558968 -0.57357547745582416 7.7976529001696369 4.9481838907748878 0.12133457187970718 0.72084845312318924 10.199672345901435 1.0272357667636529 0.52925329584161318 1.5034171993742933
leaf_weight=64267 6652 5258 17210 17157 1105 39066 7638 62033 385 104607 116864 3167 12292 214837 382 13514 7621 6782 40006 11317 143442 17203 725 2541 63411 13184 424 31387 41686 18428
leaf_count=64267 6652 5258 17210 17157 1105 39066 7638 62033 385 104607 116864 3167 12292 214837 382 13514 7621 6782 40006 11317 143442 17203 725 2541 63411 13184 424 31387 41686 18428
internal_value=0 1.56315 0.470589 -0.195106 2.37749 0.261907 2.12222 -0.169508 5.52035 -0.32767 -0.219252 2.09076 0.582178 -0.473193 3.6977 2.79192 3.02901 1.66624 -0.274785 1.57172 -0.365719 -0.328975 8.02097 4.46825 -0.0177217 0.45527 8.68404 0.912321 0.403602 1.38717
internal_weight=0 120352 51396 964239 68956 216805 63776 92374 5180 747434 428324 16983 124431 319110 3549 28773 21135 13434 104273 35003 248049 34413 1534 3646 180275 30341 1149 43679 80752 23686
internal_count=1084591 120352 51396 964239 68956 216805 63776 92374 5180 747434 428324 16983 124431 319110 3549 28773 21135 13434 104273 35003 248049 34413 1534 3646 180275 30341 1149 43679 80752 23686
is_linear=0
shrinkage=0.05


Tree=2
num_leaves=31
num_cat=0
split_feature=12 0 2 13 12 1 13 0 12 13 0 13 13 0 0 13 13 11 13 13 1 0 13 13 0 13 11 2 13 10
split_gain=1.1945e+08 3.83416e+07 2.3855e+07 2.24052e+07 1.94189e+07 1.22614e+07 8.04277e+06 7.08441e+06 4.1619e+06 4.09913e+06 4.08982e+06 4.36664e+06 2.82117e+06 2.22336e+06 1.59538e+06 1.49687e+06 1.31243e+06 1.13694e+06 917790 898022 734435 733594 664809 650074 579911 574274 560112 517727 466555 423979
threshold=28.750000000000004 3.5000000000000004 1.0000000180025095e-35 12.516666666666667 74.607142857142875 1.0000000180025095e-35 43.716666666666676 1.5000000000000002 101.39285714285715 66.116666666666688 3.5000000000000004 5.7833333333333341 20.516666666666669 1.5000000000000002 4.5000000000000009 41.416666666666671 56.31666666666667 139.50000000000003 35.850000000000009 5.9833333333333343 0.87837969732492682 4.5000000000000009 2.8500000000000005 8.9500000000000011 4.5000000000000009 20.516666666666669 139.50000000000003 -0.56174490092936669 27.850000000000005 42.500000000000007
decision_type=2 2 2 2 2 2 2 2 2 2 2 2 2 2 2 2 2 2 2 2 2 2 2 2 2 2 2 2 2 2
left_child=3 2 20 10 6 12 18 25 -6 15 13 22 27 19 -8 -4 -16 -11 -3 -1 29 -10 -12 -13 -14 -7 -23 -5 -26 -2
right_child=1 4 9 5 8 7 14 -9 21 17 11 23 24 -15 16 -17 -18 -19 -20 -21 -22 26 -24 -25 28 -27 -28 -29 -30 -31
leaf_value=-0.38861854707366417 2.0494126500226022 1.3541429652383354 1.3014829561833485 0.20023761126679213 4.3955949784296005 0.32200246380596625 2.0983916654443613 -0.45218919759034071 5.7288904342848515 4.0664217181322053 -0.45684198360886347 -0.11524314961162747 0.61647025074094952 -0.54181749062707663 2.66353523813941 2.3129198365918575 3.520257191953958 8.6407269983102157 1.8904014566134426 -0.094260347383648677 -0.071207340775466546 7.4036425283976968 -0.28555637119375132 0.068992556399678454 0.95160474226042135 0.79065621266678887 9.6896885422040828 0.48398090101322166 1.5478918306424656 -0.56974475655963519
leaf_weight=59661 156 20337 7656 21594 2901 20336 7573 67002 387 1353 98739 114618 12203 211530 13369 7005 6716 151 13130 45802 16400 728 132895 82231 27218 9633 424 62918 3730 16195
leaf_count=59661 156 20337 7656 21594 2901 20336 7573 67002 387 1353 98739 114618 12203 211530 13369 7005 6716 151 13130 45802 16400 728 132895 82231 27218 9633 424 62918 3730 16195
internal_value=0 1.52747 0.468102 -0.180255 2.31784 0.257482 2.08592 -0.166369 5.51058 2.03976 -0.312158 -0.211427 0.579434 -0.448317 2.71683 1.78475 2.95 4.52568 1.56453 -0.26078 -0.307628 7.61232 -0.358571 -0.0382812 0.908373 0.472643 8.24503 0.411481 1.02347 -0.544756
internal_weight=0 114481 48916 970110 65565 224634 61125 96971 4440 16165 745476 428483 127663 316993 27658 14661 20085 1504 33467 105463 32751 1539 231634 196849 43151 29969 1152 84512 30948 16351
internal_count=1084591 114481 48916 970110 65565 224634 61125 96971 4440 16165 745476 428483 127663 316993 27658 14661 20085 1504 33467 105463 32751 1539 231634 196849 43151 29969 1152 84512 30948 16351
is_linear=0
shrinkage=0.05


Tree=3
num_leaves=31
num_cat=0
split_feature=12 1 0 12 12 0 13 0 0 13 11 13 13 2 0 13 11 13 13 13 13 0 13 13 0 0 0 13 13 13
split_gain=1.07804e+08 3.46033e+07 2.15292e+07 2.02595e+07 1.75255e+07 1.03092e+07 7.26717e+06 6.07122e+06 3.83923e+06 4.1245e+06 3.7721e+06 3.69947e+06 2.6948e+06 1.98312e+06 1.41342e+06 1.35092e+06 1.0453e+06 1.03947e+06 1.02448e+06 829720 750825 662827 601603 586327 541532 528374 481633 487852 478228 476464
threshold=28.750000000000004 1.0000000180025095e-35 1.5000000000000002 12.678571428571429 74.607142857142875 3.5000000000000004 44.81666666666667 1.5000000000000002 3.5000000000000004 6.3166666666666673 110.92857142857144 66.116666666666688 20.016666666666669 1.0000000180025095e-35 4.5000000000000009 41.416666666666671 110.92857142857144 58.150000000000006 36.850000000000009 6.9833333333333343 3.3833333333333337 2.5000000000000004 19.283333333333335 10.250000000000002 4.5000000000000009 4.5000000000000009 4.5000000000000009 93.88333333333334 15.813793103448278 26.450000000000003
decision_type=2 2 2 2 2 2 2 2 2 2 2 2 2 2 2 2 2 2 2 2 2 2 2 2 2 2 2 2 2 2
left_child=3 4 11 8 6 7 18 22 13 20 26 15 28 -1 -8 -3 -13 -16 -2 -15 -10 -4 -5 -11 -12 -14 -6 -28 -7 -27
right_child=1 2 21 5 10 12 14 -9 9 23 24 16 25 19 17 -17 -18 -19 -20 -21 -22 -23 -24 -25 -26 29 27 -29 -30 -31
leaf_value=-0.51408259835474213 1.3088347277000398 1.2364088010233649 -0.067646977027014984 0.2501725352764298 3.2415074124781778 0.25142928891198152 2.0210122373778172 -0.42733131421209836 -0.41582417638898167 -0.067896856949161671 5.7331064085417154 3.6386722607008135 0.57238583042203472 -0.3484826821467506 2.6072151133990165 2.1972737695939366 6.9291502434686327 3.4259074914556873 1.8664936757820467 -0.049701477439115266 -0.24359667785225586 -0.51751833627063448 0.70145792450299316 0.136951020061648 8.1191169903628175 0.85393881615112621 4.3343122333440709 6.2181761572651162 0.49524434256946609 1.3285623985507016
leaf_weight=214837 22226 7656 16400 19131 792 43059 7142 63695 122815 126742 316 1202 13150 69321 13180 7005 302 5493 13084 34952 130545 16351 12028 48222 961 27317 1954 417 37739 6557
leaf_count=214837 22226 7656 16400 19131 792 43059 7142 63695 122815 126742 316 1202 13150 69321 13180 7005 302 5493 13084 34952 130545 16351 12028 48222 961 27317 1954 417 37739 6557
internal_value=0 1.4511 0.444697 -0.171242 2.20195 0.247382 1.98163 -0.14755 -0.295958 -0.198147 5.23505 1.93778 0.540452 -0.427245 2.61924 1.69551 4.29939 2.84805 1.51547 -0.248332 -0.327083 -0.292246 0.424378 -0.0114385 7.52869 0.841385 4.30904 4.66564 0.36531 0.945812
internal_weight=0 114481 48916 970110 65565 222676 61125 94854 747434 428324 4440 16165 127822 319110 25815 14661 1504 18673 35310 104273 253360 32751 31159 174964 1277 47024 3163 2371 80798 33874
internal_count=1084591 114481 48916 970110 65565 222676 61125 94854 747434 428324 4440 16165 127822 319110 25815 14661 1504 18673 35310 104273 253360 32751 31159 174964 1277 47024 3163 2371 80798 33874
is_linear=0
shrinkage=0.05


Tree=4
num_leaves=31
num_cat=0
split_feature=12 0 0 13 13 0 12 0 13 13 0 13 13 13 13 0 13 0 0 0 0 11 13 0 7 0 13 13 13 13
split_gain=9.73195e+07 3.18294e+07 1.99511e+07 1.82439e+07 1.53748e+07 9.07557e+06 8.0224e+06 5.22955e+06 4.31844e+06 3.87657e+06 2.93149e+06 2.51948e+06 2.33081e+06 1.58398e+06 1.17921e+06 997371 965574 915988 932685 652637 648816 610745 610032 598011 581917 538890 484560 479968 473819 449695
threshold=26.250000000000004 3.5000000000000004 1.5000000000000002 54.616666666666674 11.250000000000002 3.5000000000000004 101.39285714285715 1.5000000000000002 37.916666666666671 54.616666666666674 4.5000000000000009 5.0500000000000007 17.450000000000003 93.88333333333334 70.350000000000009 4.5000000000000009 36.850000000000009 1.5000000000000002 3.5000000000000004 4.5000000000000009 2.5000000000000004 139.50000000000003 4.4408045977011499 4.5000000000000009 11.500000000000002 4.5000000000000009 30.083333333333339 17.016666666666669 22.483333333333338 5.4500000000000011
decision_type=2 2 2 2 2 2 2 2 2 2 2 2 2 2 2 2 2 2 2 2 2 2 2 2 2 2 2 2 2 2
left_child=4 2 9 8 10 7 14 27 25 16 17 -12 -7 -11 19 -10 -2 22 -19 -5 -4 -8 -1 -16 -17 -3 -27 -6 -14 -20
right_child=1 3 20 6 5 12 21 -9 15 13 11 -13 28 -15 23 24 -18 18 29 -21 -22 -23 -24 -25 -26 26 -28 -29 -30 -31
leaf_value=-0.39539844750270048 0.99905177658594591 0.81633411622137442 -0.081475977787479018 2.1877534340923943 0.16899224175993308 0.25286705522596936 6.1168451702902003 -0.41837104610179782 1.4923761194152354 2.8125870970372415 -0.3231607088632838 -0.036121810348519995 0.56532748588883919 6.106670507536097 2.8846103746535015 2.287977043540411 1.8023801619339566 -0.49138769385541115 -0.40490632811554983 3.0591386982459472 -0.49540393747244904 8.1802161365904578 -0.14595804022049008 4.2779255888409056 1.2414797414517362 1.068768679500737 1.4973228934108469 0.55249478394624452 0.86577429582006438 -0.19183296314100096
leaf_weight=43266 8332 8046 18934 2993 18560 81494 970 73996 6456 3136 152664 153131 39447 413 1105 17880 6788 199419 52211 7618 18934 569 56544 2541 1435 13147 13237 14558 19664 47103
leaf_count=43266 8332 8046 18934 2993 18560 81494 970 73996 6456 3136 152664 153131 39447 413 1105 17880 6788 199419 52211 7618 18934 569 56544 2541 1435 13147 13237 14558 19664 47103
internal_value=0 1.26942 0.371055 1.93774 -0.176713 0.162096 3.45012 -0.184645 1.54092 1.70877 -0.295874 -0.179422 0.426245 3.19592 3.0799 2.0304 1.3597 -0.385225 -0.42904 2.81335 -0.28844 6.87972 -0.254086 3.85565 2.21023 1.17454 1.28378 0.337572 0.665275 -0.303849
internal_weight=0 132534 56537 75997 952057 247719 15796 107114 60201 18669 704338 305795 140605 3549 14257 25771 15120 398543 298733 10611 37868 1539 99810 3646 19315 34430 26384 33118 59111 99314
internal_count=1084591 132534 56537 75997 952057 247719 15796 107114 60201 18669 704338 305795 140605 3549 14257 25771 15120 398543 298733 10611 37868 1539 99810 3646 19315 34430 26384 33118 59111 99314
is_linear=0
shrinkage=0.05


Tree=5
num_leaves=31
num_cat=0
split_feature=12 0 0 13 13 0 12 0 13 0 13 13 13 13 0 0 0 11 13 0 13 13 0 13 0 0 13 0 7 11
split_gain=8.78927e+07 2.8179e+07 1.75464e+07 1.66402e+07 1.44365e+07 8.83475e+06 5.21613e+06 5.11318e+06 4.31236e+06 3.27905e+06 3.08523e+06 3.06212e+06 1.81448e+06 1.10416e+06 1.08423e+06 1.05855e+06 1.09962e+06 899109 748419 711006 674924 604155 594359 568251 541667 524822 512110 475585 455012 442513
threshold=28.750000000000004 3.5000000000000004 1.5000000000000002 13.083333333333334 63.050000000000004 3.5000000000000004 101.39285714285715 1.5000000000000002 41.416666666666671 4.5000000000000009 6.7166666666666677 66.116666666666688 21.583333333333339 40.250000000000007 4.5000000000000009 1.5000000000000002 3.5000000000000004 139.50000000000003 7.3833333333333337 4.5000000000000009 2.9833333333333338 51.750000000000007 4.5000000000000009 6.7833333333333341 2.5000000000000004 4.5000000000000009 77.250000000000014 4.5000000000000009 4.5000000000000009 139.50000000000003
decision_type=2 2 2 2 2 2 2 2 2 2 2 2 2 2 2 2 2 2 2 2 2 2 2 2 2 2 2 2 2 2
left_child=3 2 11 9 8 7 19 -5 25 15 20 13 27 -2 -10 18 -17 -13 -1 -6 -11 -16 -8 -18 -4 -3 -21 -7 -27 -24
right_child=1 4 24 5 6 12 22 -9 14 10 -12 17 -14 -15 21 16 23 -19 -20 26 -22 -23 29 -25 -26 28 -28 -29 -30 -31
leaf_value=-0.30878941927625242 1.0885877640977817 0.89677320759355794 -0.060190826330243086 0.4308292917797541 2.5548279623897114 0.19249059192663479 4.8391584457202281 -0.38399601723852311 1.6204004341475102 -0.37761350831015994 0.051068966666479844 3.4901605969698277 0.82350790574398269 1.9565304724525838 2.1252787138206357 -0.46404743394883829 -0.36077193972197841 7.5579904969954335 -0.02646384046691895 3.345814689770608 -0.19138474670903347 2.687958113382984 6.3582990921460665 -0.12559282006006398 -0.46687222134594641 1.7333310717023835 4.4993537370260661 0.46628523103441682 1.2500279006678772 8.3902372252266364
leaf_weight=72981 7212 6775 16400 27847 2109 21299 386 62387 7049 79841 125183 1353 35422 7449 12463 216145 65474 151 34604 3631 124545 7729 728 42266 16351 7010 1309 62116 15952 424
leaf_count=72981 7212 6775 16400 27847 2109 21299 386 62387 7049 79841 125183 1353 35422 7449 12463 216145 65474 151 34604 3631 124545 7729 728 42266 16351 7010 1309 62116 15952 424
internal_value=0 1.31026 0.402068 -0.154621 1.98783 0.240468 3.89899 -0.132534 1.69981 -0.263159 -0.144407 1.74999 0.523692 1.52957 2.15428 -0.353866 -0.399003 3.89857 -0.217981 3.32337 -0.264133 2.34066 6.5372 -0.268512 -0.263227 1.28348 3.65148 0.396375 1.39757 7.10617
internal_weight=0 114481 48916 970110 65565 209071 8587 90234 56978 761039 329569 16165 118837 14661 27241 431470 323885 1504 107585 7049 204386 20192 1538 107740 32751 29737 4940 83415 22962 1152
internal_count=1084591 114481 48916 970110 65565 209071 8587 90234 56978 761039 329569 16165 118837 14661 27241 431470 323885 1504 107585 7049 204386 20192 1538 107740 32751 29737 4940 83415 22962 1152
is_linear=0
shrinkage=0.05


Tree=6
num_leaves=31
num_cat=0
split_feature=13 0 0 12 13 0 0 13 12 13 0 13 13 0 0 11 13 0 7 13 0 13 13 0 0 0 13 10 11 13
split_gain=7.95813e+07 2.72216e+07 1.68594e+07 1.42322e+07 1.31726e+07 7.16435e+06 4.49101e+06 4.42566e+06 4.04877e+06 2.67833e+06 2.53881e+06 2.67558e+06 2.07488e+06 1.2858e+06 1.03193e+06 934826 768455 729741 623424 618875 579462 572464 563393 546160 538328 532513 507054 403139 396994 393197
threshold=27.850000000000005 3.5000000000000004 1.5000000000000002 11.821428571428575 66.116666666666688 3.5000000000000004 1.5000000000000002 42.583333333333343 101.39285714285715 63.050000000000004 3.5000000000000004 5.1833333333333345 17.883333333333336 1.5000000000000002 4.5000000000000009 110.92857142857144 45.81666666666667 4.5000000000000009 4.5000000000000009 53.050000000000004 4.5000000000000009 8.7500000000000018 4.9166666666666679 2.5000000000000004 4.5000000000000009 4.5000000000000009 17.016666666666669 42.500000000000007 139.50000000000003 2.101724137931035
decision_type=2 2 2 2 2 2 2 2 2 2 2 2 2 2 2 2 2 2 2 2 2 2 2 2 2 2 2 2 2 2
left_child=3 2 9 10 7 6 26 17 20 16 13 29 -7 22 -9 -11 -2 -3 -19 -16 -6 -13 -1 -4 -10 -14 -5 -25 -26 -12
right_child=1 4 23 5 8 12 -8 14 24 15 11 21 25 -15 19 -17 -18 18 -20 -21 -22 -23 -24 27 28 -27 -28 -29 -30 -31
leaf_value=-0.34706030838746449 1.1999168371572424 0.86755944250965311 -0.057283161906417059 0.13806526179743003 2.5111047646371429 0.23892933325464477 -0.37220717674972081 1.6006479799619417 4.5972005454678611 2.9783821561386095 -0.40759928223847108 -0.11654122004115881 0.37823787109814422 -0.4423407367347994 2.0802257427805375 6.0091764689672118 1.9807442032259222 1.7949522987707802 1.2415399617034062 2.6514158677011874 3.6433489958586955 0.056948672134302873 -0.11028639242121695 1.9529814772523206 6.0446636838131944 0.71096055336316522 0.51923229658055015 -0.47236227344511578 7.9707256429600264 -0.26059913256436656
leaf_weight=48535 9443 8768 17607 17821 1624 77777 68425 7128 386 1587 67667 132525 16201 207266 12249 303 4729 7081 18089 7738 3715 74155 52085 173 725 46660 17094 17812 424 138799
leaf_count=48535 9443 8768 17607 17821 1624 77777 68425 7128 386 1587 67667 132525 16201 207266 12249 303 4729 7081 18089 7738 3715 74155 52085 173 725 46660 17094 17812 424 138799
internal_value=0 1.21668 0.351585 -0.150768 1.87453 0.179329 -0.136753 1.6409 3.9496 1.69625 -0.262463 -0.18147 0.411585 -0.371147 2.11716 3.46427 1.46047 1.26039 1.39723 2.30136 3.29895 -0.0542945 -0.224497 -0.255238 6.2127 0.625209 0.32468 -0.449033 6.75541 -0.308777
internal_weight=0 119581 51654 965010 67927 243978 103340 61053 6874 16062 721032 413146 140638 307886 27115 1890 14172 33938 25170 19987 5339 206680 100620 35592 1535 62861 34915 17985 1149 206466
internal_count=1084591 119581 51654 965010 67927 243978 103340 61053 6874 16062 721032 413146 140638 307886 27115 1890 14172 33938 25170 19987 5339 206680 100620 35592 1535 62861 34915 17985 1149 206466
is_linear=0
shrinkage=0.05


Tree=7
num_leaves=31
num_cat=0
split_feature=13 0 0 13 12 0 13 0 0 11 13 13 13 0 0 0 0 13 11 7 13 13 0 13 0 13 6 7 0 13
split_gain=7.18626e+07 2.44423e+07 1.51172e+07 1.33359e+07 1.16901e+07 6.8987e+06 4.68278e+06 4.19954e+06 2.62026e+06 2.54377e+06 2.38292e+06 2.36231e+06 1.39925e+06 922335 833240 800151 766723 764263 755893 626479 602837 589338 485671 439598 435695 421150 420119 408239 394475 367747
threshold=28.350000000000005 3.5000000000000004 1.5000000000000002 12.65 74.607142857142875 3.5000000000000004 45.81666666666667 1.5000000000000002 4.5000000000000009 110.92857142857144 66.116666666666688 5.9166666666666679 19.750000000000004 4.5000000000000009 1.5000000000000002 3.5000000000000004 4.5000000000000009 45.81666666666667 139.50000000000003 4.5000000000000009 60.38333333333334 5.0500000000000007 2.5000000000000004 2.4500000000000006 4.5000000000000009 6.7833333333333341 -0.55605299127383134 4.5000000000000009 4.5000000000000009 9.1500000000000004
decision_type=2 2 2 2 2 2 2 2 2 2 2 2 2 2 2 2 2 2 2 2 2 2 2 2 2 2 2 2 2 2
left_child=3 2 10 8 6 7 16 -5 14 26 17 23 -7 -8 21 -16 -3 -2 -12 -18 27 -1 -4 -10 -14 -17 -6 -15 -11 -13
right_child=1 4 22 5 9 12 13 -9 11 28 18 29 24 20 15 25 19 -19 -20 -21 -22 -23 -24 -25 -26 -27 -28 -29 -30 -31
leaf_value=-0.32621878693562656 1.1547448094210837 0.89293979665229528 -0.051244722925274933 0.36724719410578732 2.785212149271231 0.3119164399988803 1.6738904274851305 -0.34999615297419373 -0.3625900966076967 4.6356667488058916 3.1498210525984072 -0.049371464455271699 0.40230653330143612 2.712153080168243 -0.41941345850889189 -0.32967921703195646 1.7891371307566122 1.9194837990076168 6.8796320684698244 1.2626620680645586 2.88798476655397 -0.090045879830387851 -0.42605859263062063 -0.19839714957547694 0.74347827844843284 -0.12461157380657358 3.9735446951022051 2.0483415093291133 6.6720986961512114 0.11323089785508585
leaf_weight=50075 9043 9590 17123 29956 1196 76270 6710 64032 62321 316 1353 86243 12636 2994 212677 65474 7871 5115 151 20030 4172 55904 17451 117856 36071 40539 1967 10230 961 58264
leaf_count=50075 9043 9590 17123 29956 1196 76270 6710 64032 62321 316 1353 86243 12636 2994 212677 65474 7871 5115 151 20030 4172 55904 17451 117856 36071 40539 1967 10230 961 58264
internal_value=0 1.17451 0.343348 -0.141032 1.8068 0.202232 1.62819 -0.121395 -0.241336 4.28465 1.63204 -0.134407 0.445613 2.17187 -0.323089 -0.363477 1.27862 1.43103 3.52429 1.41118 2.36396 -0.201637 -0.24043 -0.255189 0.654968 -0.251262 3.52421 2.19863 6.16817 0.0161884
internal_weight=0 116273 50236 968318 66037 218965 61597 93988 749353 4440 15662 324684 124977 24106 424669 318690 37491 14158 1504 27901 17396 105979 34574 180177 48707 106013 3163 13224 1277 144507
internal_count=1084591 116273 50236 968318 66037 218965 61597 93988 749353 4440 15662 324684 124977 24106 424669 318690 37491 14158 1504 27901 17396 105979 34574 180177 48707 106013 3163 13224 1277 144507
is_linear=0
shrinkage=0.05


Tree=8
num_leaves=31
num_cat=0
split_feature=12 0 13 0 12 0 13 0 13 0 13 11 13 13 0 0 0 0 12 13 13 13 0 0 23 7 0 8 0 0
split_gain=6.48749e+07 2.04472e+07 1.31189e+07 1.28383e+07 1.0355e+07 6.67615e+06 4.63404e+06 3.86542e+06 2.75472e+06 2.42956e+06 2.17624e+06 1.3258e+06 1.30257e+06 1.05067e+06 895126 867889 868638 780158 776972 720902 548606 430754 399371 390673 386840 376191 374031 362252 356425 356014
threshold=29.750000000000004 3.5000000000000004 13.91666666666667 1.5000000000000002 81.821428571428598 3.5000000000000004 46.95000000000001 1.5000000000000002 6.9166666666666679 4.5000000000000009 56.31666666666667 110.92857142857144 22.483333333333338 93.88333333333334 4.5000000000000009 1.5000000000000002 3.5000000000000004 4.5000000000000009 38.750000000000007 60.38333333333334 3.5166666666666671 39.050000000000004 2.5000000000000004 4.5000000000000009 1.0000000180025095e-35 11.500000000000002 4.5000000000000009 0.50000000000000022 2.5000000000000004 4.5000000000000009
decision_type=2 2 2 2 2 2 2 2 2 2 2 2 2 2 2 2 2 2 2 2 2 2 2 2 2 2 2 2 2 2
left_child=2 3 8 10 6 7 18 -4 17 15 21 -6 23 -12 24 -10 -17 -1 -3 -16 -19 -2 -5 -7 -8 -20 -14 -26 -9 -13
right_child=1 4 5 22 11 12 14 28 9 -11 13 29 26 -15 19 16 -18 20 25 -21 -22 -23 -24 -25 27 -27 -28 -29 -30 -31
leaf_value=-0.35099109762764713 0.9372542449220278 1.0553610736446133 0.40836241705086951 -0.040373555142484259 3.719056289784088 0.19071244505872884 1.7393926596877085 -0.19914752909442882 -0.024813150497936073 0.063461137687978453 2.3679913965378847 4.4038834152059465 0.49131643800216696 5.0738747331189771 2.1259295887340062 -0.37825970524493951 -0.10549415250966801 -0.3085339434130418 1.5927994840308752 2.8295956533241391 -0.14664878263691175 1.5336403191775791 -0.39947601139691485 0.44690972810520946 2.1945476199658414 0.46580530456332714 0.86409905155084477 -1.4786632887001248 -0.44643685524410109 6.3384938050662321
leaf_weight=270173 5824 21108 26073 15461 1668 19989 6301 28851 41507 127831 2731 316 9450 413 11767 87366 43831 98520 13631 5270 111636 6306 15509 58219 106 783 23367 183 29440 961
leaf_count=270173 5824 21108 26073 15461 1668 19989 6301 28851 41507 127831 2731 316 9450 413 11767 87366 43831 98520 13631 5270 111636 6306 15509 58219 106 783 23367 183 29440 961
internal_value=0 1.16082 -0.12882 0.364858 1.75361 0.237596 1.60954 -0.0976895 -0.220506 -0.10178 1.55115 4.6473 0.492368 2.72344 2.15219 -0.224088 -0.287133 -0.29479 1.2486 2.34359 -0.22254 1.2473 -0.220203 0.381429 1.65735 1.53158 0.756752 -0.131396 -0.324042 5.85976
internal_weight=0 108338 976253 46244 62094 195389 59149 84364 780864 300535 15274 2945 111025 3144 23627 172704 131197 480329 35522 17037 210156 12130 30970 78208 6590 14414 32817 289 58291 1277
internal_count=1084591 108338 976253 46244 62094 195389 59149 84364 780864 300535 15274 2945 111025 3144 23627 172704 131197 480329 35522 17037 210156 12130 30970 78208 6590 14414 32817 289 58291 1277
is_linear=0
shrinkage=0.05


Tree=9
num_leaves=31
num_cat=0
split_feature=13 0 0 13 13 0 13 0 13 13 0 13 13 12 0 0 0 0 7 1 0 13 0 9 7 6 7 13 13 10
split_gain=5.87162e+07 2.02391e+07 1.26176e+07 1.05714e+07 9.65284e+06 5.45115e+06 4.3804e+06 3.3615e+06 2.85809e+06 2.15722e+06 1.68727e+06 1.54532e+06 1.42896e+06 958420 732425 596142 540168 533868 506623 502875 493877 476088 422845 418963 404407 402066 393556 389526 378578 377027
threshold=26.450000000000003 3.5000000000000004 1.5000000000000002 58.150000000000006 10.850000000000003 3.5000000000000004 93.88333333333334 1.5000000000000002 39.050000000000004 56.31666666666667 4.5000000000000009 16.81666666666667 4.7833333333333341 101.39285714285715 4.5000000000000009 4.5000000000000009 1.5000000000000002 4.5000000000000009 11.500000000000002 -1.0000000180025095e-35 4.5000000000000009 36.850000000000009 2.5000000000000004 0.86602540378443849 4.5000000000000009 -0.61779789220319792 4.5000000000000009 70.350000000000009 3.6500000000000004 42.500000000000007
decision_type=2 2 2 2 2 2 2 2 2 2 2 2 2 2 2 2 2 2 2 2 2 2 2 2 2 2 2 2 2 2
left_child=4 2 9 8 10 7 17 -6 20 21 16 -7 -12 -11 -10 -8 28 -5 -16 -18 -3 -2 -4 -17 -22 -20 -13 -19 -1 -24
right_child=1 3 22 6 5 11 15 -9 14 13 12 26 -14 -15 18 23 19 27 25 -21 24 -23 29 -25 -26 -27 -28 -29 -30 -31
leaf_value=-0.33619629291822695 0.84517159018533805 0.64884937645514418 -0.055403288880750849 1.9271482493865897 0.25648780610815031 0.17405155602318739 3.6717907971345172 -0.32556696138083624 1.2103779050355514 2.2603920556788162 -0.25881427860484113 0.69187265473931348 -0.040169612927412751 4.9323312348720298 1.8738580878855498 5.9117671971515815 -0.24397491055786347 2.4667079228998898 -0.4177735580625398 -0.38331489209168718 1.4125948124262757 1.4235748015272554 1.8417218569745408 2.0641654265721638 0.95944765667264953 1.426197944635283 0.42105236786244771 3.2425117014904545 -0.12955348568770406 -0.40827992374504496
leaf_weight=33935 7026 8953 19076 3048 36383 84187 503 77951 6944 2764 143625 18480 155779 382 18980 1249 96998 5113 411 194772 6741 7207 188 75 18262 1053 48943 2367 63900 19296
leaf_count=33935 7026 8953 19076 3048 36383 84187 503 77951 6944 2764 143625 18480 155779 382 18980 1249 96998 5113 411 194772 6741 7207 188 75 18262 1053 48943 2367 63900 19296
internal_value=0 0.998483 0.281395 1.54277 -0.135547 0.120325 2.87712 -0.140347 1.27402 1.39995 -0.234309 0.316907 -0.145054 2.58483 1.65404 5.13712 -0.3029 2.48492 1.80473 -0.336992 0.967513 1.13805 -0.222739 5.69381 1.08162 0.908526 0.495282 2.71221 -0.20123 -0.38657
internal_weight=0 129638 55939 73699 954953 265944 12355 114334 61344 17379 689009 151610 299404 3146 27388 1827 389605 10528 20444 291770 33956 14233 38560 1324 25003 1464 67423 7480 97835 19484
internal_count=1084591 129638 55939 73699 954953 265944 12355 114334 61344 17379 689009 151610 299404 3146 27388 1827 389605 10528 20444 291770 33956 14233 38560 1324 25003 1464 67423 7480 97835 19484
is_linear=0
shrinkage=0.05


Tree=10
num_leaves=31
num_cat=0
split_feature=13 1 0 12 13 1 13 0 13 1 13 11 0 13 13 0 13 0 8 13 0 11 13 0 0 6 0 23 6 8
split_gain=5.30817e+07 1.79002e+07 1.11111e+07 1.02482e+07 8.56159e+06 4.47095e+06 3.58565e+06 2.86336e+06 2.41035e+06 2.18344e+06 1.77829e+06 1.42151e+06 1.1784e+06 786791 741256 716566 694948 648410 477847 471678 385903 381734 365369 356800 350667 350538 330758 330096 317049 394747
threshold=28.916666666666668 1.0000000180025095e-35 1.5000000000000002 14.392857142857144 77.250000000000014 1.0000000180025095e-35 48.016666666666673 1.5000000000000002 6.9833333333333343 1.0000000180025095e-35 77.250000000000014 110.92857142857144 1.5000000000000002 21.31666666666667 50.416666666666671 4.5000000000000009 36.850000000000009 4.5000000000000009 1.0000000180025095e-35 2.5833333333333339 4.5000000000000009 139.50000000000003 10.850000000000003 2.5000000000000004 4.5000000000000009 -0.43713894533759617 4.5000000000000009 1.0000000180025095e-35 -0.10452846326765376 -0.24999999999999994
decision_type=2 2 2 2 2 2 2 2 2 2 2 2 2 2 2 2 2 2 2 2 2 2 2 2 2 2 2 2 2 2
left_child=3 4 10 8 6 13 16 -7 17 22 14 20 -11 -5 -3 27 -2 -1 28 -19 -6 -12 -10 -4 -18 -13 -15 -8 29 -17
right_child=1 2 23 5 11 7 15 -9 9 12 21 25 -14 26 -16 18 24 19 -20 -21 -22 -23 -24 -25 -26 -27 -28 -29 -30 -31
leaf_value=-0.31744507598510102 0.95335069545067841 1.0797260187494888 -0.038831412285939219 0.32693949885138268 2.2601829682146009 0.35342571786659793 1.5711877559713379 -0.28960376618775568 -0.021121623398198813 -0.017064683405547478 3.22737102092881 4.3685327171111732 -0.34038729277753216 0.36441900673655536 1.8787328058897665 1.7275208307707199 0.99275025450940968 -0.31103010960320809 2.4445200836368128 -0.15037867469216518 3.6793038687915578 6.0362363183735219 0.13348038355818634 -0.36499457781594269 1.4975107933422069 6.0578547898187765 0.69802631266312554 -0.24106738757724547 2.1686718782626904 0.089404683967331686
leaf_weight=272642 20537 10384 16624 66662 701 26262 5634 50801 116129 40815 608 536 91044 10058 4029 3496 4547 66627 6981 145392 1513 151 56960 16918 14144 719 28434 263 4569 411
leaf_count=272642 20537 10384 16624 66662 701 26262 5634 50801 116129 40815 608 536 91044 10058 4029 3496 4547 66627 6981 145392 1513 151 56960 16918 14144 719 28434 263 4569 411
internal_value=0 1.02687 0.304522 -0.119152 1.57626 0.218843 1.43793 -0.0704682 -0.197151 -0.0870198 1.4273 3.99202 -0.240308 0.430868 1.30308 1.95929 1.15412 -0.266445 2.13819 -0.200863 3.22998 3.78618 0.0297547 -0.203342 1.37472 5.33636 0.610854 1.49036 1.88589 1.5552
internal_weight=0 112765 48714 971826 64051 182217 60582 77063 789609 304948 15172 3469 131859 105154 14413 21354 39228 484661 15457 212019 2214 759 173089 33542 18691 1255 38492 5897 8476 3907
internal_count=1084591 112765 48714 971826 64051 182217 60582 77063 789609 304948 15172 3469 131859 105154 14413 21354 39228 484661 15457 212019 2214 759 173089 33542 18691 1255 38492 5897 8476 3907
is_linear=0
shrinkage=0.05


Tree=11
num_leaves=31
num_cat=0
split_feature=12 0 13 2 13 11 0 0 13 13 13 0 13 13 13 0 13 11 7 1 0 0 10 3 0 0 7 0 13 0
split_gain=4.79372e+07 1.5774e+07 1.03913e+07 1.00616e+07 6.67293e+06 4.45219e+06 4.21348e+06 2.4996e+06 2.20083e+06 2.17344e+06 1.45138e+06 1.14572e+06 929483 885838 628203 546210 528175 521066 413279 368402 355624 354999 344102 343764 342712 326841 326216 311568 309317 288748
threshold=24.464285714285719 3.5000000000000004 51.750000000000007 1.0000000180025095e-35 9.6500000000000004 96.214285714285737 3.5000000000000004 1.5000000000000002 34.95000000000001 53.050000000000004 15.216666666666667 4.5000000000000009 4.2500000000000009 93.88333333333334 66.116666666666688 4.5000000000000009 34.95000000000001 139.50000000000003 4.5000000000000009 0.87837969732492682 4.5000000000000009 1.5000000000000002 42.500000000000007 20.500000000000004 4.5000000000000009 3.5000000000000004 4.5000000000000009 4.5000000000000009 16.81666666666667 2.5000000000000004
decision_type=2 2 2 2 2 2 2 2 2 2 2 2 2 2 2 2 2 2 2 2 2 2 2 2 2 2 2 2 2 2
left_child=4 3 8 19 11 14 7 28 23 16 -8 21 -13 -11 24 -10 -5 -7 -17 22 -12 -1 -2 -3 -4 -23 -22 -16 -6 -9
right_child=1 2 5 9 6 17 10 29 15 13 20 12 -14 -15 27 18 -18 -19 -20 -21 26 25 -24 -25 -26 -27 -28 -29 -30 -31
leaf_value=-0.19715177395113792 1.7383678310954922 0.6341219891859049 1.4378032175660886 0.64612734735809785 0.07890619937507945 4.0851881352977948 0.099458220103490078 -0.20912948143608243 0.93623865444294252 1.9345255927756118 0.21326057892620176 -0.24878554384419116 -0.064634353826638957 4.3802727717752896 1.9367586517186315 1.7991498419576542 1.2125985255516314 5.9097518201871582 1.3062579914421821 -0.057261774097541768 0.6643083552077258 -0.35059766336733367 -0.37174304647676509 0.96427765387003284 2.0273764063762707 -0.23350055520774135 0.38583386502628941 2.7871042710810912 0.37530184011408285 -0.38864847596187047
leaf_weight=90419 195 26453 3402 9584 27434 1253 97853 44378 7017 3575 19782 124560 152311 413 1554 5935 7211 569 15005 21145 14450 179358 20979 11232 8948 89242 38634 3511 12961 45228
leaf_count=90419 195 26453 3402 9584 27434 1253 97853 44378 7017 3575 19782 124560 152311 413 1554 5935 7211 569 15005 21145 14450 179358 20979 11232 8948 89242 38634 3511 12961 45228
internal_value=0 0.836277 1.28138 0.237566 -0.132129 2.30332 0.0619414 -0.152534 0.981889 1.1385 0.225262 -0.223907 -0.147481 2.18781 2.05728 1.31802 0.889344 4.65499 1.44596 -0.204887 0.394207 -0.282845 -0.35231 0.732525 1.86497 -0.311692 0.461637 2.52621 0.174007 -0.29974
internal_weight=0 147981 84879 63102 936610 19237 300720 130001 65642 20783 170719 635890 276871 3988 17415 27957 16795 1822 20940 42319 72866 359019 21174 37685 12350 268600 53084 5065 40395 89606
internal_count=1084591 147981 84879 63102 936610 19237 300720 130001 65642 20783 170719 635890 276871 3988 17415 27957 16795 1822 20940 42319 72866 359019 21174 37685 12350 268600 53084 5065 40395 89606
is_linear=0
shrinkage=0.05


Tree=12
num_leaves=31
num_cat=0
split_feature=13 0 2 13 12 0 13 13 13 2 0 0 13 13 11 0 0 13 7 0 7 7 9 0 0 1 13 7 10 0
split_gain=4.33877e+07 1.50293e+07 9.43124e+06 8.31737e+06 6.6863e+06 3.61147e+06 3.48389e+06 2.06656e+06 1.69706e+06 1.41824e+06 1.37151e+06 1.16894e+06 1.10818e+06 1.01196e+06 613758 511221 506612 495200 464635 430030 401976 387471 367443 352704 373261 329533 325253 318728 313575 290911
threshold=25.616666666666671 3.5000000000000004 1.0000000180025095e-35 56.31666666666667 10.392857142857144 4.5000000000000009 93.88333333333334 39.050000000000004 60.38333333333334 1.0000000180025095e-35 3.5000000000000004 4.5000000000000009 16.016666666666669 4.6500000000000012 139.50000000000003 4.5000000000000009 4.5000000000000009 39.050000000000004 4.5000000000000009 4.5000000000000009 10.500000000000002 4.5000000000000009 0.86602540378443849 1.5000000000000002 3.5000000000000004 0.87837969732492682 16.81666666666667 4.5000000000000009 42.500000000000007 4.5000000000000009
decision_type=2 2 2 2 2 2 2 2 2 2 2 2 2 2 2 2 2 2 2 2 2 2 2 2 2 2 2 2 2 2
left_child=4 2 25 7 11 9 19 18 17 10 -6 23 -7 -13 -10 -8 -9 -4 -3 -5 -18 -21 -17 -1 -25 28 -11 -14 -2 -20
right_child=1 3 8 6 5 12 15 16 14 26 -12 13 27 -15 -16 22 20 -19 29 21 -22 -23 -24 24 -26 -27 -28 -29 -30 -31
leaf_value=-0.17881468112761414 1.6716857996628709 1.1026494262799389 0.73958869819478856 1.6218577653796684 -0.28072436271878221 0.15686471766964011 3.0718051784969944 1.0110782492550834 2.2202905016434715 0.071383089336079397 0.080727479252912668 -0.22663856678330305 0.65773777458977112 -0.038638364409190447 5.5162204878219709 5.1483917484816031 1.6237254878673022 1.3002904232346313 0.43660547821856643 2.9676451206787018 1.0052080647971295 2.1156060727824104 1.5451195154190065 -0.33105989950655451 -0.21019316850834674 -0.049135228778291469 0.36355831217196466 0.38434538800414281 -0.35328304280682149 0.80386133866178522
leaf_weight=92985 193 10086 8797 3523 78804 69416 503 6469 2187 24935 39349 138925 14753 147659 151 1249 16074 7129 7348 1645 3140 7065 75 191923 95741 20076 15413 38433 20287 20258
leaf_count=92985 193 10086 8797 3523 78804 69416 503 6469 2187 24935 39349 138925 14753 147659 151 1249 16074 7129 7348 1645 3140 7065 75 191923 95741 20076 15413 38433 20287 20258
internal_value=0 0.834306 0.231789 1.29198 -0.119871 0.0846732 2.39215 1.0479 1.17524 -0.0729471 -0.160349 -0.206045 0.288446 -0.129774 2.43316 4.42876 1.39379 0.990577 0.812218 2.08799 1.52265 2.27653 4.94428 -0.263469 -0.290833 -0.193087 0.182994 0.46018 -0.3342 0.706107
internal_weight=0 136255 58820 77435 948336 281103 14060 63375 18264 158501 118153 667233 122602 286584 2338 1827 25683 15926 37692 12233 19214 8710 1324 380649 287664 40556 40348 53186 20480 27606
internal_count=1084591 136255 58820 77435 948336 281103 14060 63375 18264 158501 118153 667233 122602 286584 2338 1827 25683 15926 37692 12233 19214 8710 1324 380649 287664 40556 40348 53186 20480 27606
is_linear=0
shrinkage=0.05


Tree=13
num_leaves=31
num_cat=0
split_feature=13 1 2 13 13 1 2 13 13 11 1 13 2 13 13 3 7 7 6 7 13 3 3 1 2 17 13 7 1 12
split_gain=3.92564e+07 1.31974e+07 8.18986e+06 7.61493e+06 6.46037e+06 3.66815e+06 2.26691e+06 2.19998e+06 1.73987e+06 1.61275e+06 1.50417e+06 1.36019e+06 915745 641607 557360 554711 528591 455689 390580 480136 361126 353711 342463 330501 317906 304547 293638 270167 264694 264477
threshold=28.916666666666668 1.0000000180025095e-35 1.0000000180025095e-35 13.750000000000002 70.350000000000009 1.0000000180025095e-35 1.0000000180025095e-35 45.81666666666667 6.0500000000000007 110.92857142857144 1.0000000180025095e-35 77.250000000000014 1.0000000180025095e-35 21.050000000000004 48.016666666666673 20.500000000000004 4.5000000000000009 11.500000000000002 -0.55605299127383134 11.500000000000002 2.3166666666666669 11.500000000000002 21.500000000000004 1.0000000180025095e-35 -0.56174490092936669 199.50000000000003 9.1500000000000004 4.5000000000000009 0.87837969732492682 53.250000000000007
decision_type=2 2 2 2 2 2 2 2 2 2 2 2 2 2 2 2 2 2 2 2 2 2 2 2 2 2 2 2 2 2
left_child=3 4 28 8 7 13 -7 16 20 24 26 14 -12 27 -4 17 -2 -9 19 -18 -1 -19 -11 -22 -6 -13 -10 -5 -3 -17
right_child=1 2 11 5 9 6 -8 15 10 22 12 25 -14 -15 -16 29 18 21 -20 -21 23 -23 -24 -25 -26 -27 -28 -29 -30 -31
leaf_value=-0.30998696935037651 1.2650015301379127 -0.31242054797755675 0.89502605848465489 0.42591930882482654 1.8583503309440907 -0.25176701973369092 0.30702531683661693 1.4836970792636079 -0.05808029586277498 4.1087218679064472 -0.29479252970354158 2.9990344170417105 -0.033031875610395819 0.52356398564155648 1.5514430014873779 1.6558312603928229 0.68187871674536538 1.0410381606572894 0.97137214494067892 -0.57814900907604982 -0.164276479896105 -0.88166153277204173 5.9785958403564363 -0.27247770691294237 2.8410884754935442 6.7396483324341858 0.062300144152263981 0.21115575469263501 -0.031493257360289295 2.236071804451599
leaf_weight=131746 10049 16918 9514 20717 1176 56845 26663 14352 109386 933 103100 700 49432 40580 4899 4258 7329 751 17291 843 166620 351 332 122433 2741 59 94352 49952 16624 3645
leaf_count=131746 10049 16918 9514 20717 1176 56845 26663 14352 109386 933 103100 700 49432 40580 4899 4258 7329 751 17291 843 166620 351 332 122433 2741 59 94352 49952 16624 3645
internal_value=0 0.883079 0.262834 -0.102467 1.35481 0.177104 -0.073352 1.20582 -0.172536 3.04731 -0.0912257 1.22678 -0.209962 0.365106 1.11814 1.58271 0.957933 1.40846 0.836748 0.551898 -0.241378 0.428636 4.59947 -0.210107 2.54604 3.28981 -0.00233156 0.274115 -0.173188 1.92345
internal_weight=0 112765 48714 971826 64051 194757 83508 58869 777069 5182 356270 15172 152532 111249 14413 23357 35512 15454 25463 8172 420799 1102 1265 289053 3917 759 203738 70669 33542 7903
internal_count=1084591 112765 48714 971826 64051 194757 83508 58869 777069 5182 356270 15172 152532 111249 14413 23357 35512 15454 25463 8172 420799 1102 1265 289053 3917 759 203738 70669 33542 7903
is_linear=0
shrinkage=0.05


Tree=14
num_leaves=31
num_cat=0
split_feature=12 0 13 0 11 0 13 2 13 0 13 13 11 3 6 7 0 0 7 12 7 0 13 13 11 3 7 6 0 6
split_gain=3.54881e+07 1.09252e+07 7.8461e+06 6.86064e+06 5.58796e+06 3.84119e+06 2.30612e+06 2.29614e+06 1.68115e+06 1.44157e+06 1.19663e+06 812746 640522 548525 542815 605412 510427 503090 456552 435681 425996 419362 371973 367655 366157 331077 316231 324588 309103 305295
threshold=31.392857142857146 3.5000000000000004 14.250000000000002 1.5000000000000002 87.642857142857153 3.5000000000000004 50.416666666666671 1.0000000180025095e-35 7.3833333333333337 4.5000000000000009 70.350000000000009 23.750000000000004 139.50000000000003 20.500000000000004 -0.5 11.500000000000002 1.5000000000000002 4.5000000000000009 11.500000000000002 66.392857142857153 11.500000000000002 3.5000000000000004 44.81666666666667 2.101724137931035 139.50000000000003 11.500000000000002 11.500000000000002 -0.61779789220319792 4.5000000000000009 0.26576896416563089
decision_type=2 2 2 2 2 2 2 2 2 2 2 2 2 2 2 2 2 2 2 2 2 2 2 2 2 2 2 2 2 2
left_child=2 3 8 10 6 7 13 -4 17 16 20 26 29 18 15 -8 -10 -1 -3 -16 22 -18 -2 -19 -12 -20 28 -28 -7 -6
right_child=1 4 5 -5 12 11 14 -9 9 -11 24 -13 -14 -15 19 -17 21 23 25 -21 -22 -23 -24 -25 -26 -27 27 -29 -30 -31
leaf_value=-0.25914337584396546 0.8719209889006434 0.9447764263297862 -0.23667836670262551 -0.15216912395431265 2.7317424571633135 0.15766177152902291 1.4196840584479484 0.32567432453648415 -0.0010555658443096125 0.070074384471064108 2.3931712112812162 0.60645361722322533 5.1535954292503519 1.3064709522611995 1.7244491376285689 -0.88838501918973733 -0.27623976684084622 -0.27608409469204198 0.67378213475440663 2.4279969432055162 -0.17688733687379177 -0.079521183224118733 1.4257185784875046 -0.12387299732437262 5.0334816168870358 -0.65716381664128187 -0.61715617542088375 0.18598198624683027 0.38987497815149563 4.0359484064862841
leaf_weight=287244 6600 23129 58470 28581 1152 19239 5707 26324 38264 117933 1007 30072 569 10980 9832 299 80976 51606 1186 2835 661 40713 5609 171559 151 771 1752 4462 56173 735
leaf_count=287244 6600 23129 58470 28581 1152 19239 5707 26324 38264 117933 1007 30072 569 10980 9832 299 80976 51606 1186 2835 661 40713 5609 171559 151 771 1752 4462 56173 735
internal_value=0 0.898412 -0.0910503 0.29232 1.34994 0.191631 1.24525 -0.0620979 -0.161512 -0.0625532 1.19793 0.384247 3.68314 1.01173 1.69628 1.30478 -0.160339 -0.215389 0.88273 1.88191 1.05941 -0.210424 1.12634 -0.159071 2.73746 0.149429 0.302383 -0.040458 0.330633 3.23974
internal_weight=0 99804 984787 42609 57195 196492 54739 84794 788295 277886 14028 111698 2456 36066 18673 6006 159953 510409 25086 12667 12870 121689 12209 223165 1158 1957 81626 6214 75412 1887
internal_count=1084591 99804 984787 42609 57195 196492 54739 84794 788295 277886 14028 111698 2456 36066 18673 6006 159953 510409 25086 12667 12870 121689 12209 223165 1158 1957 81626 6214 75412 1887
is_linear=0
shrinkage=0.05


Tree=15
num_leaves=31
num_cat=0
split_feature=13 0 12 0 11 0 13 13 0 2 0 11 13 0 11 2 1 6 7 7 7 13 13 12 6 7 6 7 0 23
split_gain=3.21325e+07 1.0637e+07 6.85757e+06 6.56325e+06 5.02342e+06 2.98996e+06 2.03158e+06 1.53672e+06 1.4635e+06 1.18278e+06 1.12795e+06 1.06956e+06 613251 584527 576216 522162 517728 467903 508783 459285 453795 398773 389780 343745 305654 403617 274627 268409 265820 255044
threshold=30.716666666666672 3.5000000000000004 14.392857142857144 1.5000000000000002 87.642857142857153 4.5000000000000009 51.750000000000007 5.5833333333333339 4.5000000000000009 1.0000000180025095e-35 3.5000000000000004 87.642857142857153 22.183333333333337 4.5000000000000009 139.50000000000003 1.0000000180025095e-35 -1.0000000180025095e-35 -0.5 11.500000000000002 4.5000000000000009 11.500000000000002 50.416666666666671 10.350000000000003 66.392857142857153 -0.55605299127383134 11.500000000000002 0.26576896416563089 11.500000000000002 4.5000000000000009 1.0000000180025095e-35
decision_type=2 2 2 2 2 2 2 2 2 2 2 2 2 2 2 2 2 2 2 2 2 2 2 2 2 2 2 2 2 2
left_child=2 3 7 11 6 9 13 28 15 10 -4 20 27 -3 26 16 -9 18 29 -15 21 -2 -10 -19 25 -21 -6 -7 -1 -8
right_child=1 4 5 -5 14 12 17 8 22 -11 -12 -13 -14 19 -16 -17 -18 23 -20 24 -22 -23 -24 -25 -26 -27 -28 -29 -30 -31
leaf_value=-0.26092316341101612 0.94717711627784229 0.6600699040189183 -0.22308325923531225 -0.14968930628240018 2.5957127456737918 0.33550539814968716 1.4383687528883122 -0.087546943206800454 -0.021355917122359236 0.28817901239406124 0.17392304397839309 3.2038035331991672 0.593444700962514 1.4228346060260559 4.8959156399032988 -0.030801171785018774 -0.26802334125791644 1.671774566160017 -0.86316156638053698 0.83984674776930612 -0.10326758497220823 1.5542441367314428 0.14592250562611089 2.3072214760068124 1.110996679060464 -0.38729139487101044 3.8341509741950199 -0.12110640042058195 -0.17743517386600696 -0.59587349543031665
leaf_weight=217514 8414 9970 53727 30614 1145 52409 4981 59766 120450 27641 26823 614 28220 8125 569 54578 118579 8564 267 5957 777 3987 48987 2832 14260 755 735 3429 169743 159
leaf_count=217514 8414 9970 53727 30614 1145 52409 4981 59766 120450 27641 26823 614 28220 8125 569 54578 118579 8564 267 5957 777 3987 48987 2832 14260 755 735 3429 169743 159
internal_value=0 0.84139 -0.0880281 0.258313 1.28537 0.179769 1.18821 -0.153229 -0.0847981 0.0059626 -0.0908809 1.16395 0.403474 0.990473 3.50182 -0.166129 -0.207543 1.64795 1.2649 1.10368 1.06891 1.14235 0.027007 1.82969 0.980039 0.701812 3.07989 0.307465 -0.224329 1.37544
internal_weight=0 102725 981866 44406 58319 192249 55870 789617 402360 108191 80550 13792 84058 39067 2449 232923 178345 16803 5407 29097 13178 12401 169437 11396 20972 6712 1880 55838 387257 5140
internal_count=1084591 102725 981866 44406 58319 192249 55870 789617 402360 108191 80550 13792 84058 39067 2449 232923 178345 16803 5407 29097 13178 12401 169437 11396 20972 6712 1880 55838 387257 5140
is_linear=0
shrinkage=0.05


Tree=16
num_leaves=31
num_cat=0
split_feature=13 1 0 13 13 0 13 13 13 2 0 13 13 0 11 0 0 0 7 13 2 7 7 0 10 23 7 2 7 8
split_gain=2.90624e+07 9.9903e+06 6.44099e+06 5.89934e+06 4.25986e+06 2.65502e+06 2.51955e+06 1.48014e+06 1.20095e+06 1.01463e+06 887489 733722 706956 676591 451019 442268 438572 388718 358368 350182 348532 332662 302840 285807 293666 282384 275714 273570 268459 263324
threshold=24.81666666666667 1.0000000180025095e-35 1.5000000000000002 54.616666666666674 9.5425287356321853 4.5000000000000009 93.88333333333334 36.850000000000009 60.38333333333334 -1.0000000180025095e-35 3.5000000000000004 15.016666666666667 3.916666666666667 4.5000000000000009 110.92857142857144 4.5000000000000009 4.5000000000000009 4.5000000000000009 4.5000000000000009 37.916666666666671 -0.56174490092936669 4.5000000000000009 11.500000000000002 2.5000000000000004 42.500000000000007 1.0000000180025095e-35 4.5000000000000009 1.0000000180025095e-35 4.5000000000000009 0.50000000000000022
decision_type=2 2 2 2 2 2 2 2 2 2 2 2 2 2 2 2 2 2 2 2 2 2 2 2 2 2 2 2 2 2
left_child=4 3 8 7 12 9 17 20 19 10 -6 -7 -1 27 -10 -8 -9 25 -19 -3 -2 -18 -17 -4 -25 -5 -22 -14 -13 -27
right_child=1 2 23 6 5 11 15 16 14 -11 -12 28 13 -15 -16 22 21 18 -20 -21 26 -23 -24 24 -26 29 -28 -29 -30 -31
leaf_value=-0.23966693338480596 0.36195540822901989 0.59141512932396445 -0.0277068518137428 1.3461132110566485 -0.23159869045342943 0.11568134720988005 2.3789798069960084 0.75336640146794043 1.7387263036056144 0.13815404859407832 0.038887759951794151 0.5239451880883802 -0.22282315767537578 -0.0549115308686422 3.8064195898745719 4.2992651116322769 1.5362303144370002 2.4489487427292165 1.6875744175722773 1.0495627166699903 0.9701392845987713 1.0881549475027541 0.91999364333493361 1.5965224712214821 -0.30499581944605114 1.8986051171166556 0.61254041395161174 -0.091549348181478751 0.28606925088512336 -1.9000397005153975
leaf_weight=255487 9982 9275 21065 3783 90737 72989 503 6973 2035 42685 45549 16546 160610 162270 303 1254 5720 1911 8081 7579 7305 15018 70 205 21290 70 20564 52713 41888 131
leaf_count=255487 9982 9275 21065 3783 90737 72989 503 6973 2035 42685 45549 16546 160610 162270 303 1254 5720 1911 8081 7579 7305 15018 70 205 21290 70 20564 52713 41888 131
internal_value=0 0.663837 0.184317 1.02777 -0.100912 0.0507399 1.89495 0.818745 0.944751 -0.0745717 -0.141198 0.221388 -0.175502 -0.131855 2.0067 3.64111 1.0964 1.66668 1.83319 0.797437 0.615471 1.21174 4.1206 -0.158593 -0.286861 1.24908 0.706274 -0.190385 0.353426 -0.577129
internal_weight=0 143117 61752 81365 941474 310394 15803 65562 19192 178971 136286 131423 631080 375593 2338 1827 27711 13976 9992 16854 37851 20738 1324 42560 21495 3984 27869 213323 58434 201
internal_count=1084591 143117 61752 81365 941474 310394 15803 65562 19192 178971 136286 131423 631080 375593 2338 1827 27711 13976 9992 16854 37851 20738 1324 42560 21495 3984 27869 213323 58434 201
is_linear=0
shrinkage=0.05


Tree=17
num_leaves=31
num_cat=0
split_feature=13 0 13 2 13 0 13 13 0 0 0 13 11 13 3 0 0 0 0 7 0 7 7 13 13 7 15 0 3 7
split_gain=2.62635e+07 8.59899e+06 5.84058e+06 5.31958e+06 4.07815e+06 2.60908e+06 1.35315e+06 1.34971e+06 1.15485e+06 1.06657e+06 1.02229e+06 873777 716337 433465 423247 415738 400989 390458 390181 384850 328390 326552 308474 306857 272550 261396 254400 250434 241728 238979
threshold=31.31666666666667 3.5000000000000004 14.816666666666668 1.0000000180025095e-35 77.250000000000014 4.5000000000000009 49.183333333333344 7.5833333333333339 4.5000000000000009 1.5000000000000002 3.5000000000000004 77.250000000000014 139.50000000000003 22.483333333333338 20.500000000000004 4.5000000000000009 4.5000000000000009 1.5000000000000002 4.5000000000000009 11.500000000000002 3.5000000000000004 11.500000000000002 4.5000000000000009 1.9166666666666667 50.416666666666671 4.5000000000000009 197.00000000000003 2.5000000000000004 11.500000000000002 11.500000000000002
decision_type=2 2 2 2 2 2 2 2 2 2 2 2 2 2 2 2 2 2 2 2 2 2 2 2 2 2 2 2 2 2
left_child=2 3 7 -2 6 9 18 16 17 -4 27 19 15 -7 21 -6 -1 -9 -3 24 -19 -8 -20 -18 -5 -10 -13 -11 -23 -17
right_child=1 4 5 11 12 13 14 8 25 10 -12 26 -14 -15 -16 29 23 20 22 -21 -22 28 -24 -25 -26 -27 -28 -29 -30 -31
leaf_value=-0.22264267987415176 -0.1319466034168767 0.5851897760701914 0.2965910026548691 0.87291616127527139 1.6079519887545695 0.30584706150194302 1.3015536466476598 0.0044127005127187202 0.19044023381811301 -0.092388992409625198 0.1757776405671006 2.4413529464803725 4.4620029224871756 0.5508464573810935 1.7250306867937448 3.0576287011635581 -0.25033009996819328 -0.23733029622908164 1.2547667821834072 -0.13315161060121269 -0.063129092134797268 0.87574409345601412 0.86638274094094569 -0.10540972165335641 1.3844647991393 0.024653526313190659 5.7593364000320442 -0.30780127260277323 -0.90952346130304074 0.86509907008113718
leaf_weight=294355 29674 8499 25400 8014 871 50221 12001 38114 33072 26874 27113 696 569 28186 6659 1896 45647 80818 7154 744 40667 583 17916 182830 3857 84587 63 27097 281 133
leaf_count=294355 29674 8499 25400 8014 871 50221 12001 38114 33072 26874 27113 696 569 28186 6659 1896 45647 80818 7154 744 40667 583 17916 182830 3857 84587 63 27097 281 133
internal_value=0 0.773706 -0.078244 0.241196 1.17899 0.175033 1.07046 -0.136773 -0.0475948 0.0138605 -0.0747064 1.06912 2.83993 0.39392 1.40145 2.52167 -0.184065 -0.135212 0.87796 0.969985 -0.179017 1.23396 0.977212 -0.134363 1.03912 0.0712534 2.71676 -0.20054 0.295119 2.91391
internal_weight=0 99610 984981 43048 56562 184891 53093 800090 277258 106484 81084 13374 3469 78407 19524 2900 522832 159599 33569 12615 121485 12865 25070 228477 11871 117659 759 53971 864 2029
internal_count=1084591 99610 984981 43048 56562 184891 53093 800090 277258 106484 81084 13374 3469 78407 19524 2900 522832 159599 33569 12615 121485 12865 25070 228477 11871 117659 759 53971 864 2029
is_linear=0
shrinkage=0.05


Tree=18
num_leaves=31
num_cat=0
split_feature=13 1 2 13 13 1 13 12 2 12 13 13 1 2 2 13 7 3 6 18 7 6 7 7 6 7 1 10 1 7
split_gain=2.37499e+07 8.13484e+06 5.27804e+06 4.92942e+06 3.49327e+06 2.0434e+06 1.86153e+06 1.46091e+06 1.26703e+06 990625 701404 638484 604465 448808 409502 371500 367743 364139 349856 310767 291587 286265 328674 268975 253874 279265 251145 265044 240106 227083
threshold=24.81666666666667 1.0000000180025095e-35 1.0000000180025095e-35 63.050000000000004 9.8477011494252888 -1.0000000180025095e-35 40.250000000000007 101.39285714285715 1.0000000180025095e-35 69.750000000000014 16.81666666666667 4.0339080459770118 1.0000000180025095e-35 -0.56174490092936669 1.0000000180025095e-35 42.583333333333343 4.5000000000000009 20.500000000000004 -0.5 156.50000000000003 11.500000000000002 -0.55605299127383134 11.500000000000002 4.5000000000000009 -0.5 11.500000000000002 0.87837969732492682 42.500000000000007 0.87837969732492682 4.5000000000000009
decision_type=2 2 2 2 2 2 2 2 2 2 2 2 2 2 2 2 2 2 2 2 2 2 2 2 2 2 2 2 2 2
left_child=4 3 26 6 11 10 16 24 28 15 23 -1 -13 -8 -14 -4 -2 20 -9 -11 -15 22 -18 -6 25 -5 27 -3 -7 -12
right_child=1 2 9 7 5 8 13 18 -10 19 29 12 14 17 -16 -17 21 -19 -20 -21 -22 -23 -24 -25 -26 -27 -28 -29 -30 -31
leaf_value=-0.21577148555323294 0.82716811893215736 1.5259958356982324 0.57727257915351926 1.4359635406401106 0.21585556090820568 -0.29114845066585843 0.77102537448099095 2.4567402593590844 0.13007517731147325 1.8446795230527284 0.46038382474695894 -0.060422213156631543 -0.24412190458246599 1.1421358837083346 -0.074638101569390311 1.0514061581345118 0.370422593581759 1.5093496259758914 4.025768593837916 4.1363333493158851 0.32977126286059805 0.60267747960635187 -0.62320898272946923 0.040747542706259458 1.9601123412195609 -1.2679128948003056 -0.020321903929534688 -0.2804819630566191 -0.12472088891071453 0.24245046687246063
leaf_weight=266464 11725 205 11174 2120 30409 43521 7526 557 40641 1296 16520 217710 107948 13258 53207 6555 9305 7214 981 167 1205 21628 914 78650 4832 100 21065 21290 43167 43237
leaf_count=266464 11725 205 11174 2120 30409 43521 7526 557 40641 1296 16520 217710 107948 13258 53207 6555 9305 7214 981 167 1205 21628 914 78650 4832 100 21065 21290 43167 43237
internal_value=0 0.600103 0.167398 0.928505 -0.091224 0.0509501 0.794798 2.06128 -0.10028 0.855767 0.165015 -0.156468 -0.114759 1.10369 -0.188165 0.752576 0.587773 1.21918 3.45753 2.10627 1.07445 0.499635 0.281551 0.089573 1.75677 1.31417 -0.143015 -0.263253 -0.208274 0.302699
internal_weight=0 143117 61752 81365 941474 296145 72775 8590 127329 19192 168816 645329 378865 29203 161155 17729 43572 21677 1538 1463 14463 31847 10219 109059 7052 2220 42560 21495 86688 59757
internal_count=1084591 143117 61752 81365 941474 296145 72775 8590 127329 19192 168816 645329 378865 29203 161155 17729 43572 21677 1538 1463 14463 31847 10219 109059 7052 2220 42560 21495 86688 59757
is_linear=0
shrinkage=0.05


Tree=19
num_leaves=31
num_cat=0
split_feature=13 0 13 0 11 0 12 13 0 0 0 13 3 6 9 13 11 9 0 0 13 13 0 9 0 6 3 3 8 9
split_gain=2.1504e+07 6.88781e+06 5.09642e+06 4.28765e+06 3.26259e+06 2.34001e+06 1.12889e+06 1.11376e+06 1.04779e+06 945944 854838 716462 496636 493273 487056 415800 414419 356081 339987 291720 280035 262451 262281 259083 241557 226406 222920 221492 220783 217217
threshold=32.650000000000006 3.5000000000000004 14.816666666666668 1.5000000000000002 87.642857142857153 4.5000000000000009 53.250000000000007 6.5166666666666675 4.5000000000000009 1.5000000000000002 3.5000000000000004 93.88333333333334 20.500000000000004 -0.5 0.93301270189221952 23.750000000000004 139.50000000000003 0.93301270189221952 1.5000000000000002 3.5000000000000004 2.508620689655173 53.050000000000004 4.5000000000000009 0.93301270189221952 4.5000000000000009 0.57622690609284799 11.500000000000002 21.500000000000004 1.0000000180025095e-35 0.93301270189221952
decision_type=2 2 2 2 2 2 2 2 2 2 2 2 2 2 2 2 2 2 2 2 2 2 2 2 2 2 2 2 2 2
left_child=2 3 7 11 6 9 13 20 18 29 -11 17 23 14 -3 -7 25 21 -9 -20 -1 -2 -15 -8 -22 -6 -25 -18 -10 -4
right_child=1 4 5 -5 16 15 12 8 28 10 -12 -13 -14 22 -16 -17 27 -19 19 -21 24 -23 -24 26 -26 -27 -28 -29 -30 -31
leaf_value=-0.23222518821915622 0.84154058156892431 0.6683961073439243 0.31219200735167146 -0.11276091219034801 2.1953240173783066 0.29121738189808788 1.2396266303812107 -0.014976772391828206 -0.013403621688675336 -0.18144141120527546 0.1567018492441932 3.0487931075887014 1.7933281187689769 0.709072271055323 -0.59813241484932134 0.53563720540865012 3.4571871496122153 -0.15944823511605355 -0.21706136217796845 -0.069912160892950534 -0.18721548211467059 1.3642351085357032 1.079779723262879 0.94519224006024027 -0.097785776985316791 3.4363826516145717 -1.0349923305527873 5.6642094071503664 0.10903393438600753 -0.29149773213119817
leaf_weight=146285 8004 9635 24635 27761 1379 55871 10415 47895 77614 55884 28083 413 4749 6539 824 25270 412 705 100675 50615 172911 3431 17651 362 134044 501 234 157 70051 1586
leaf_count=146285 8004 9635 24635 27761 1379 55871 10415 47895 77614 55884 28083 413 4749 6539 824 25270 412 705 100675 50615 172911 3431 17651 362 134044 501 234 157 70051 1586
internal_value=0 0.726243 -0.0682512 0.233982 1.10168 0.16357 1.0151 -0.123688 -0.0562518 0.013518 -0.0683484 1.00081 1.36594 0.855521 0.568614 0.367338 2.88388 0.931134 -0.131077 -0.167832 -0.175294 0.998372 0.979571 1.18161 -0.148162 2.52605 0.167737 4.06615 0.0446797 0.275677
internal_weight=0 93172 991419 40314 52858 191329 50409 800090 346850 110188 83967 12553 15760 34649 10459 81141 2449 12140 199185 151290 453240 11435 24190 11011 306955 1880 596 569 147665 26221
internal_count=1084591 93172 991419 40314 52858 191329 50409 800090 346850 110188 83967 12553 15760 34649 10459 81141 2449 12140 199185 151290 453240 11435 24190 11011 306955 1880 596 569 147665 26221
is_linear=0
shrinkage=0.05


Tree=20
num_leaves=31
num_cat=0
split_feature=13 0 13 0 13 0 13 0 11 13 0 0 11 13 0 7 7 7 2 0 6 7 13 3 13 0 7 0 7 23
split_gain=1.94237e+07 6.39858e+06 4.19602e+06 3.94735e+06 3.12604e+06 2.27118e+06 893458 854382 833124 756347 729606 695036 679706 515907 372458 334317 329843 315284 307421 275016 259481 310889 255751 255074 246915 235848 235567 235089 222176 212978
threshold=30.716666666666672 3.5000000000000004 12.116666666666669 1.5000000000000002 70.350000000000009 4.5000000000000009 46.95000000000001 1.5000000000000002 110.92857142857144 4.4408045977011499 3.5000000000000004 4.5000000000000009 87.642857142857153 20.516666666666669 4.5000000000000009 11.500000000000002 4.5000000000000009 4.5000000000000009 1.0000000180025095e-35 3.5000000000000004 -0.55605299127383134 11.500000000000002 21.31666666666667 21.500000000000004 48.016666666666673 2.5000000000000004 4.5000000000000009 4.5000000000000009 4.5000000000000009 1.0000000180025095e-35
decision_type=2 2 2 2 2 2 2 2 2 2 2 2 2 2 2 2 2 2 2 2 2 2 2 2 2 2 2 2 2 2
left_child=2 3 9 12 6 7 17 22 27 -1 25 18 15 28 29 24 -16 -3 19 -11 21 -19 -4 -10 -2 -9 -15 -6 -7 -8
right_child=1 4 5 -5 8 13 14 10 23 11 -12 -13 -14 26 16 -17 -18 20 -20 -21 -22 -23 -24 -25 -26 -27 -28 -29 -30 -31
leaf_value=-0.18973747199597524 0.71392773739817184 0.96329696369855378 0.10633650153217528 -0.11447143445571201 1.2190857881843273 0.34580707142428685 0.85636224310936349 -0.089622440370432266 2.8628064684290342 -0.2158567263509007 0.09372646006839444 -0.013439242679818296 2.5304221989119773 0.6492597822549947 1.7029323340632592 -0.1775855473931903 1.1415412466884713 0.48330100419539906 -0.043365753872915434 -0.08738691553266098 0.73200830604077971 -0.56865843697356511 0.40266673432912015 4.4765650901449732 1.171788717754382 -0.26974702737091227 0.36125915939397046 2.0641785766353133 0.14627888084813609 -0.65270992629230029
leaf_weight=299368 7590 9155 23387 30614 1176 19589 5596 36155 933 124716 36537 186222 614 9558 3328 777 12238 6461 60579 62551 15327 788 10573 332 4811 36539 27611 2741 48481 244
leaf_count=299368 7590 9155 23387 30614 1176 19589 5596 36155 933 124716 36537 186222 614 9558 3328 777 12238 6461 60579 62551 15327 788 10573 332 4811 36539 27611 2741 48481 244
internal_value=0 0.654171 -0.0684408 0.201942 0.998512 0.109159 0.884195 -0.0204469 2.17074 -0.128597 -0.0885472 -0.0864304 0.904284 0.285504 1.13382 0.828517 1.26157 0.715798 -0.141273 -0.172945 0.615432 0.368948 0.198595 3.28634 0.891556 -0.18016 0.435318 1.81046 0.203699 0.793312
internal_weight=0 102725 981866 44406 58319 248430 53137 143191 5182 733436 109231 434068 13792 105239 21406 13178 15566 31731 247846 187267 22576 7249 33960 1265 12401 72694 37169 3917 68070 5840
internal_count=1084591 102725 981866 44406 58319 248430 53137 143191 5182 733436 109231 434068 13792 105239 21406 13178 15566 31731 247846 187267 22576 7249 33960 1265 12401 72694 37169 3917 68070 5840
is_linear=0
shrinkage=0.05


Tree=21
num_leaves=31
num_cat=0
split_feature=13 0 0 13 13 0 13 13 13 0 0 13 0 6 7 0 13 7 17 7 13 9 0 7 6 7 0 10 0 7
split_gain=1.7569e+07 5.99164e+06 3.90972e+06 3.70917e+06 2.63501e+06 1.69545e+06 1.23841e+06 1.23562e+06 757596 637631 504198 465989 434300 365094 451834 359830 307885 287811 278243 273138 273080 255419 234869 231823 222313 250527 221708 239219 217829 215627
threshold=24.81666666666667 3.5000000000000004 1.5000000000000002 60.38333333333334 9.2500000000000018 4.5000000000000009 93.88333333333334 39.050000000000004 66.116666666666688 1.5000000000000002 3.5000000000000004 17.016666666666669 4.5000000000000009 -0.5 11.500000000000002 4.5000000000000009 3.5833333333333339 11.500000000000002 199.50000000000003 4.5000000000000009 40.250000000000007 0.86602540378443849 4.5000000000000009 4.5000000000000009 -0.55605299127383134 11.500000000000002 2.5000000000000004 42.500000000000007 4.5000000000000009 4.5000000000000009
decision_type=2 2 2 2 2 2 2 2 2 2 2 2 2 2 2 2 2 2 2 2 2 2 2 2 2 2 2 2 2 2
left_child=4 2 8 7 12 9 22 19 17 -6 -11 29 -1 14 -9 -8 -14 20 -10 -3 -2 -17 -5 -24 25 -21 -4 -28 -15 -7
right_child=1 3 26 6 5 11 15 13 18 10 -12 -13 16 28 -16 21 -18 -19 -20 24 -22 -23 23 -25 -26 -27 27 -29 -30 -31
leaf_value=-0.17606334552906866 0.5221791198533059 0.70602157099728002 -0.0070984226436089613 1.020891553060334 0.10367517441701385 0.22935485690018603 1.719525361657291 0.75737510655517748 1.6771438202643478 -0.17945955204770772 0.019811970884933063 0.30646164241560253 -0.1604285729859499 0.75684396042431124 -0.60116554408928147 3.460644633724117 -0.04988311750260202 -0.17351662500528389 5.1801920644307549 0.29813033888726242 0.93176230970980978 0.45644756158192951 2.2411904123348729 1.4472947213522336 0.50885812980136147 -0.59709812500786086 1.4644982092991108 -0.25171658925549378 1.138339473893627 0.061095747992108679
leaf_weight=347952 9628 11053 21065 2536 44661 26393 503 8942 1445 94922 47692 42981 100904 5030 657 1249 167616 1011 59 8979 7049 75 1126 5015 20734 856 205 21290 14610 68353
leaf_count=347952 9628 11053 21065 2536 44661 26393 503 8942 1445 94922 47692 42981 100904 5030 657 1249 167616 1011 59 8979 7049 75 1126 5015 20734 856 205 21290 14610 68353
internal_value=0 0.516143 0.144787 0.797983 -0.0784608 0.0367441 1.67481 0.668007 0.737245 -0.061191 -0.112821 0.169912 -0.139196 0.917116 0.66439 2.85796 -0.0914237 0.645642 1.81456 0.493011 0.695301 3.29047 1.42569 1.59286 0.415992 0.220213 -0.122377 -0.235349 1.04063 0.107967
internal_weight=0 143117 61752 81365 941474 325002 10504 70861 19192 187275 142614 137727 616472 29239 9599 1827 268520 17688 1504 41622 16677 1324 8677 6141 30569 9835 42560 21495 19640 94746
internal_count=1084591 143117 61752 81365 941474 325002 10504 70861 19192 187275 142614 137727 616472 29239 9599 1827 268520 17688 1504 41622 16677 1324 8677 6141 30569 9835 42560 21495 19640 94746
is_linear=0
shrinkage=0.05


Tree=22
num_leaves=31
num_cat=0
split_feature=12 0 12 0 12 0 0 13 0 12 13 6 7 11 6 6 13 6 7 7 13 2 7 0 7 5 0 13 0 5
split_gain=1.59379e+07 4.65125e+06 3.99432e+06 2.94498e+06 2.42016e+06 1.70886e+06 1.10336e+06 891414 778712 762662 561928 536066 577370 406424 384996 374455 315809 314106 310191 304241 287336 297255 272299 255466 252288 243286 243074 215514 214178 203902
threshold=33.964285714285722 3.5000000000000004 15.250000000000002 1.5000000000000002 81.821428571428598 3.5000000000000004 1.5000000000000002 7.7833333333333341 4.5000000000000009 51.964285714285722 93.88333333333334 -0.5 11.500000000000002 139.50000000000003 -0.5 -0.5 24.083333333333339 0.26576896416563089 11.500000000000002 11.500000000000002 2.5833333333333339 1.0000000180025095e-35 11.500000000000002 3.5000000000000004 11.500000000000002 0.7624881539727123 1.5000000000000002 53.050000000000004 3.5000000000000004 0.34685948904333835
decision_type=2 2 2 2 2 2 2 2 2 2 2 2 2 2 2 2 2 2 2 2 2 2 2 2 2 2 2 2 2 2
left_child=2 3 7 10 9 6 -4 20 26 15 22 12 -7 17 19 18 -13 24 -3 -11 -1 23 27 -22 -6 -16 -9 -2 -28 -17
right_child=1 4 5 -5 13 11 -8 8 -10 14 -12 16 -14 -15 25 29 -18 -19 -20 -21 21 -23 -24 -25 -26 -27 28 -29 -30 -31
leaf_value=-0.20131770201115651 0.70227803493589225 0.5543292132332821 0.2399210099667132 -0.087733980349399832 1.7781418287596857 0.17762765512616352 -0.15394029077341553 0.010538095944715451 0.068406242100843798 0.90826666780082865 2.6653888355715081 0.28371230107822026 -0.61779694334427349 3.5477088980808831 1.492869357763396 0.99007033110430109 0.50531772969900857 2.8088730038007328 -0.50575310951462304 -0.7468812086617036 -0.21295515965579301 -0.069926497216833694 -0.24857762581257462 -0.1042936762027529 -1.0267755511797527 0.9821312687969187 -0.18372271242718397 1.1760200086638504 -0.043949644508365242 0.67230974681585698
leaf_weight=151384 8016 9686 26492 25227 1410 34483 54081 36285 113168 6048 413 46898 2443 569 7099 11222 24463 881 743 291 108278 167327 600 108085 85 3472 81559 3427 41279 9177
leaf_count=151384 8016 9686 26492 25227 1410 34483 54081 36285 113168 6048 413 46898 2443 569 7099 11222 24463 881 743 291 108278 167327 600 108085 85 3472 81559 3427 41279 9177
internal_value=0 0.643559 -0.0570842 0.222861 0.95635 0.149919 -0.0244407 -0.105507 -0.0318581 0.870533 0.851906 0.279655 0.125003 2.34743 1.14037 0.722519 0.35968 2.05998 0.478805 0.832285 -0.142985 -0.119971 0.789715 -0.158673 1.61866 1.32512 -0.103166 0.844156 -0.136753 0.847118
internal_weight=0 88366 996225 37683 50683 188860 80573 807365 272291 47738 12456 108287 36926 2945 16910 30828 71361 2376 10429 6339 535074 383690 12043 216363 1495 10571 159123 11443 122838 20399
internal_count=1084591 88366 996225 37683 50683 188860 80573 807365 272291 47738 12456 108287 36926 2945 16910 30828 71361 2376 10429 6339 535074 383690 12043 216363 1495 10571 159123 11443 122838 20399
is_linear=0
shrinkage=0.05


Tree=23
num_leaves=31
num_cat=0
split_feature=13 0 13 13 2 1 0 13 0 0 13 0 12 7 11 7 12 13 0 7 7 24 7 1 6 6 13 7 0 13
split_gain=1.44122e+07 4.64836e+06 3.44562e+06 2.25615e+06 1.79502e+06 1.73062e+06 1.66595e+06 735306 685098 648853 566358 552726 506248 340229 331075 307276 293957 287506 274051 246907 246029 244992 248204 240723 217255 202844 202802 197383 188916 186943
threshold=32.650000000000006 4.5000000000000009 14.250000000000002 77.250000000000014 1.0000000180025095e-35 -1.0000000180025095e-35 4.5000000000000009 4.9166666666666679 4.5000000000000009 1.5000000000000002 48.016666666666673 3.5000000000000004 101.39285714285715 10.500000000000002 110.92857142857144 4.5000000000000009 61.178571428571438 21.883333333333336 1.5000000000000002 11.500000000000002 11.500000000000002 1.0000000180025095e-35 5.5000000000000009 1.0000000180025095e-35 -0.55605299127383134 -0.61779789220319792 8.3833333333333346 11.500000000000002 2.5000000000000004 58.150000000000006
decision_type=2 2 2 2 2 2 2 2 2 2 2 2 2 2 2 2 2 2 2 2 2 2 2 2 2 2 2 2 2 2
left_child=2 4 7 10 5 16 9 -1 18 27 -3 28 19 17 -5 -12 -2 -8 -9 29 26 22 -18 -20 -15 -22 -10 -4 -11 -6
right_child=1 3 6 14 12 -7 13 8 20 11 15 -13 -14 24 -16 -17 21 -19 23 -21 25 -23 -24 -25 -26 -27 -28 -29 -30 -31
leaf_value=-0.15902314022497033 0.48129711712086731 0.7437744172675359 0.24978304255634731 2.0216761453763534 0.71894241098722089 -0.090496936785742776 0.25649464896650326 -0.023774284745953125 -0.02502572535636572 -0.059563552186426727 1.5772997132881796 0.11451109314101758 2.6121205333717832 -0.20093558118968016 3.2164854920037254 1.0282887607868969 -2.7890098963028347 0.45956537178950302 -0.065527215689903898 -0.1405575469020969 -0.47295846083510473 1.1707242347694913 2.1834909696836728 -0.18322146814316495 0.2167049964584416 -0.068722561782357874 0.081928616200695012 -0.30564249379335173 -0.23806827865430163 1.2245499453602822
leaf_weight=337348 11331 20983 26095 1513 9177 27761 43881 62710 92044 29489 3219 29856 382 4930 940 12238 78 28915 65233 711 4310 2519 37 130080 8453 11085 85485 1704 29801 2283
leaf_count=337348 11331 20983 26095 1513 9177 27761 43881 62710 92044 29489 3219 29856 382 4930 940 12238 78 28915 65233 711 4310 2519 37 130080 8453 11085 85485 1704 29801 2283
internal_value=0 0.594549 -0.0558748 1.01176 0.2956 0.13789 0.127753 -0.103191 -0.0614239 0.00483111 0.912957 -0.0609371 0.819826 0.294559 2.47953 1.14262 0.5919 0.337156 -0.114714 0.763573 0.00984823 1.06769 -1.18916 -0.143913 0.0628555 -0.181893 0.0264757 0.215737 -0.149286 0.819667
internal_weight=0 93172 991419 38893 54279 41726 203124 788295 450947 116945 36440 89146 12553 86179 2453 15457 13965 72796 258023 12171 192924 2634 115 195313 13383 15395 177529 27799 59290 11460
internal_count=1084591 93172 991419 38893 54279 41726 203124 788295 450947 116945 36440 89146 12553 86179 2453 15457 13965 72796 258023 12171 192924 2634 115 195313 13383 15395 177529 27799 59290 11460
is_linear=0
shrinkage=0.05


Tree=24
num_leaves=31
num_cat=0
split_feature=13 0 13 13 2 0 0 13 11 2 23 8 13 2 0 13 0 7 11 7 7 15 7 3 7 3 3 8 1 7
split_gain=1.3031e+07 4.49664e+06 2.42907e+06 2.32667e+06 1.75064e+06 1.61634e+06 1.40479e+06 878142 527145 521208 506621 548886 455079 415558 414448 413089 368130 345452 309878 302128 232176 222989 220416 217855 256273 207885 204180 204149 201918 198258
threshold=27.850000000000005 4.5000000000000009 11.050000000000002 77.250000000000014 1.0000000180025095e-35 3.5000000000000004 4.5000000000000009 45.81666666666667 74.214285714285737 1.0000000180025095e-35 1.0000000180025095e-35 0.50000000000000022 3.7833333333333337 -1.0000000180025095e-35 3.5000000000000004 58.150000000000006 3.5000000000000004 4.5000000000000009 139.50000000000003 4.5000000000000009 4.5000000000000009 197.00000000000003 11.500000000000002 20.500000000000004 11.500000000000002 20.500000000000004 11.500000000000002 0.68301270189221963 0.87837969732492682 11.500000000000002
decision_type=2 2 2 2 2 2 2 2 2 2 2 2 2 2 2 2 2 2 2 2 2 2 2 2 2 2 2 2 2 2
left_child=2 4 12 7 5 -2 9 20 22 14 15 -12 -1 16 28 -7 -14 -8 27 -9 -3 -10 -6 24 -19 -21 -26 -5 -4 -15
right_child=1 3 6 18 8 10 17 19 21 -11 11 -13 13 29 -16 -17 -18 23 -20 25 -22 -23 -24 -25 26 -27 -28 -29 -30 -31
leaf_value=-0.16512399785413281 -0.10004604496145977 0.83235063174156698 -0.22852228876494562 1.8378082758381393 0.65670391228410441 0.41669014200926685 0.34100441073844734 1.4384959592853368 1.5377245672253554 0.13344956266647659 0.94007632731499668 -1.8615468709365182 -0.18164578552797053 -0.010389356935064108 0.049838459498204993 1.0350295003311638 -0.062308636158863701 0.12860781432839971 3.5849032544021338 0.80949473685530027 0.51898066937310783 4.5937132187335505 -0.16395936652212068 0.26305489384169456 0.0045603575590553802 1.214527910462059 -0.58189910560773872 3.0629605211317541 -0.068147025411749537 -0.19925514588797927
leaf_weight=244793 35592 8213 39471 1597 13993 13806 31573 3905 1137 36688 282 460 129227 178524 39470 3358 129267 48598 424 9647 21086 63 869 26861 4110 4717 2323 432 39037 15068
leaf_count=244793 35592 8213 39471 1597 13993 13806 31573 3905 1137 36688 282 460 129227 178524 39470 3358 129267 48598 424 9647 21086 63 869 26861 4110 4717 2323 432 39037 15068
internal_value=0 0.492335 -0.0610086 0.8539 0.232331 0.0948896 0.0668792 0.776463 0.690112 -0.0311454 0.482366 -0.796779 -0.110215 -0.0804827 -0.0823301 0.537663 -0.121968 0.200498 2.35556 1.04852 0.606824 1.69816 0.608719 0.146327 0.089351 0.942504 -0.207214 2.09866 -0.148778 -0.0250895
internal_weight=0 119581 965010 50021 69560 53498 268131 47568 16062 154666 17906 742 696879 452086 117978 17164 258494 113465 2453 18269 29299 1200 14862 81892 55031 14364 6433 2029 78508 193592
internal_count=1084591 119581 965010 50021 69560 53498 268131 47568 16062 154666 17906 742 696879 452086 117978 17164 258494 113465 2453 18269 29299 1200 14862 81892 55031 14364 6433 2029 78508 193592
is_linear=0
shrinkage=0.05


Tree=25
num_leaves=31
num_cat=0
split_feature=12 0 13 0 0 13 13 0 13 13 23 8 13 0 13 0 11 0 7 5 3 7 0 10 13 7 6 7 7 13
split_gain=1.18539e+07 3.78242e+06 2.764e+06 1.6489e+06 1.48427e+06 1.45763e+06 1.14402e+06 1.06747e+06 727851 614832 472123 506848 503540 336900 311957 310136 287588 269773 250096 225034 221790 215203 214130 233288 191486 187808 191878 180994 172850 169601
threshold=22.607142857142861 4.5000000000000009 53.050000000000004 1.5000000000000002 3.5000000000000004 8.3833333333333346 93.88333333333334 4.5000000000000009 34.150000000000006 54.616666666666674 1.0000000180025095e-35 0.50000000000000022 54.616666666666674 1.5000000000000002 15.813793103448278 3.5000000000000004 139.50000000000003 4.5000000000000009 4.5000000000000009 -0.81970999721622462 20.500000000000004 7.5000000000000009 2.5000000000000004 42.500000000000007 1.6103448275862071 11.500000000000002 0.32816112360988392 10.500000000000002 4.5000000000000009 35.850000000000009
decision_type=2 2 2 2 2 2 2 2 2 2 2 2 2 2 2 2 2 2 2 2 2 2 2 2 2 2 2 2 2 2
left_child=5 3 8 9 22 17 18 13 20 25 12 -12 -6 -7 28 -15 -11 -1 -4 -10 -3 -8 -5 -24 -19 29 -27 -21 -9 -2
right_child=1 2 6 4 10 7 21 14 19 16 11 -13 -14 15 -16 -17 -18 24 -20 27 -22 -23 23 -25 -26 26 -28 -29 -30 -31
leaf_value=-0.14985858343422917 0.36112382771059987 0.2940357765718068 1.6504088013345861 0.0065330567681904667 0.31661871129321278 0.053594342746203019 3.2142421631518157 0.17181629998907028 1.0592959823756261 1.0562609012000577 0.7593210643386934 -1.6400281550499001 0.91930086648033482 -0.14961536131260758 0.23160169822491025 0.00011376990696987369 3.2862647159666518 -0.18592461572855726 1.0554705763773953 0.73014084773733567 0.56549809509125193 1.8945435774924193 1.3969246479140389 -0.22072487047917103 -0.062287439475523745 -0.81090766457682961 0.55055996938376262 0.31877852157468251 0.028467858173616717 0.67431521644696468
leaf_weight=321462 12094 24828 2193 23813 18646 46768 833 29080 4354 3399 357 574 4257 103294 40429 51992 151 36737 9082 15914 10796 491 225 23611 212260 590 461 3214 75959 6727
leaf_count=321462 12094 24828 2193 23813 18646 46768 833 29080 4354 3399 357 574 4257 103294 40429 51992 151 36737 9082 15914 10796 491 225 23611 212260 590 461 3214 75959 6727
internal_value=0 0.388002 0.66208 0.180924 0.0616256 -0.0704209 1.33446 0.0103023 0.518757 0.545017 0.383773 -0.719977 0.42864 -0.064052 0.11358 -0.0994839 1.15111 -0.119597 1.17119 0.734869 0.376304 2.72484 -0.0995122 -0.205455 -0.0805289 0.436741 -0.213727 0.661021 0.0681538 0.473065
internal_weight=0 166610 71705 94905 71483 917981 12599 347522 59106 23422 23834 931 22903 202054 145468 155286 3550 570459 11275 23482 35624 1324 47649 23836 248997 19872 1051 19128 105039 18821
internal_count=1084591 166610 71705 94905 71483 917981 12599 347522 59106 23422 23834 931 22903 202054 145468 155286 3550 570459 11275 23482 35624 1324 47649 23836 248997 19872 1051 19128 105039 18821
is_linear=0
shrinkage=0.05


Tree=26
num_leaves=31
num_cat=0
split_feature=13 0 13 2 13 1 0 13 13 21 11 0 7 0 0 3 7 12 7 9 1 10 7 17 10 13 3 7 3 3
split_gain=1.07352e+07 3.7261e+06 2.35762e+06 1.61466e+06 1.3883e+06 1.35713e+06 965741 853408 661187 525897 413744 324931 280924 266589 264185 245049 222254 223217 207545 203538 198401 211309 198215 192312 191974 182907 171684 204562 174578 167987
threshold=23.083333333333339 4.5000000000000009 63.050000000000004 1.0000000180025095e-35 8.7500000000000018 -1.0000000180025095e-35 4.5000000000000009 37.916666666666671 93.88333333333334 96.500000000000014 46.928571428571438 1.5000000000000002 4.5000000000000009 3.5000000000000004 4.5000000000000009 20.500000000000004 11.500000000000002 48.607142857142868 11.500000000000002 0.86602540378443849 0.87837969732492682 42.500000000000007 4.5000000000000009 199.50000000000003 942.50000000000011 1.6833333333333336 20.500000000000004 11.500000000000002 11.500000000000002 21.500000000000004
decision_type=2 2 2 2 2 2 2 2 2 2 2 2 2 2 2 2 2 2 2 2 2 2 2 2 2 2 2 2 2 2
left_child=4 3 7 5 14 10 11 22 -4 16 -2 -6 -8 -13 -1 18 17 -5 -9 24 21 -7 -3 -11 29 -16 27 -14 -29 -10
right_child=1 2 8 9 6 20 12 15 19 23 -12 13 26 -15 25 -17 -18 -19 -20 -21 -22 -23 -24 -25 -26 -27 -28 28 -30 -31
leaf_value=-0.14093752862983608 0.23540879244811697 0.61102538585512756 1.325662995983458 0.43861492259984153 0.059114495598397904 1.3186716357842032 0.22850790258870998 0.7389461310368296 2.5166589189107524 1.4902309912866094 0.69639808802698866 -0.14115363761034469 0.05776148449714566 0.0018322609082928321 -0.17365046024995726 1.0192714978693433 -0.174299542534644 0.82883582656279897 0.10423889420106953 0.058716322183609004 0.0078653462734773229 -0.21076115759699399 0.34505824213415326 4.5284124643152408 0.67282665176588363 -0.055775363435738329 0.16435914132238577 -0.036032465729785183 -0.51934815538636758 3.8208378713660771
leaf_weight=333004 17138 9481 4770 14390 45924 228 39422 14994 786 983 6798 97443 60645 48986 38735 8193 1161 4917 1409 75 23582 23812 26826 55 103 218836 33414 5207 2914 360
leaf_count=333004 17138 9481 4770 14390 45924 228 39422 14994 786 983 6798 97443 60645 48986 38735 8193 1161 4917 1409 75 23582 23812 26826 55 103 218836 33414 5207 2914 360
internal_value=0 0.37806 0.662386 0.173372 -0.0654523 0.0591973 0.0160266 0.568563 1.60005 0.553271 0.366333 -0.0569261 0.115126 -0.0933195 -0.111527 0.795964 0.497591 0.537994 0.684425 2.5886 -0.0951767 -0.196256 0.414511 1.65121 2.74051 -0.0735021 0.0713823 0.026204 -0.209457 2.92635
internal_weight=0 160061 66997 93064 924530 71558 333955 60903 6094 21506 23936 192353 141602 146429 590575 24596 20468 19307 16403 1324 47622 24040 36307 1038 1249 257571 102180 68766 8121 1146
internal_count=1084591 160061 66997 93064 924530 71558 333955 60903 6094 21506 23936 192353 141602 146429 590575 24596 20468 19307 16403 1324 47622 24040 36307 1038 1249 257571 102180 68766 8121 1146
is_linear=0
shrinkage=0.05


Tree=27
num_leaves=31
num_cat=0
split_feature=13 1 13 2 11 1 2 13 15 6 7 12 21 6 7 11 23 6 6 7 1 1 5 7 6 5 3 5 13 1
split_gain=9.7317e+06 3.05297e+06 2.39063e+06 1.9196e+06 1.55998e+06 946218 687175 591253 538318 525011 565282 468911 372575 309634 417196 292270 231962 233417 221762 220634 190128 235258 184518 174909 183383 174450 168413 157781 157757 152772
threshold=32.650000000000006 1.0000000180025095e-35 16.016666666666669 1.0000000180025095e-35 82.785714285714292 -1.0000000180025095e-35 1.0000000180025095e-35 5.2500000000000009 2.5000000000000004 -0.5 11.500000000000002 55.964285714285722 127.50000000000001 -0.5 11.500000000000002 139.50000000000003 1.0000000180025095e-35 -0.88765774202350045 0.57622690609284799 11.500000000000002 1.0000000180025095e-35 0.6078576107927941 0.34685948904333835 11.500000000000002 0.32816112360988392 0.34685948904333835 21.500000000000004 0.85733483063959492 10.350000000000003 0.87837969732492682
decision_type=2 2 2 2 2 2 2 2 2 2 2 2 2 2 2 2 2 2 2 2 2 2 2 2 2 2 2 2 2 2
left_child=2 4 7 29 9 13 -7 -1 28 10 16 22 23 14 -4 18 -2 -18 19 -6 -10 -22 -11 -5 -25 -15 -17 -13 -9 -3
right_child=1 3 5 12 15 6 -8 8 20 11 -12 27 -14 25 -16 26 17 -19 -20 -21 21 -23 -24 24 -26 -27 -28 -29 -30 -31
leaf_value=-0.12881557003936153 0.54843820479155359 -0.18732506942054197 0.14801560294129348 0.67493704675740585 1.4473364688868 -0.11625260800119115 0.21371439826839606 0.0024999691372116183 -0.036211975697158602 0.80109075738866098 -0.66381237513263947 1.2783635409134919 2.2967124440079165 0.3646141719647904 -0.58585432291759698 2.3316733055467744 0.82591318920254708 -1.7137078837344522 2.4411851955699007 -1.3036844269813677 -0.19285730408824889 -0.072139228773207775 0.53307669684087899 -0.92344182972896882 0.69347237746649126 0.19950657922959025 4.2561603388209255 0.76952381947650605 0.11690386675894181 0.047273680296313451
leaf_weight=362734 14765 14017 29434 11507 1777 49388 23186 107111 134805 14760 1086 5350 344 35811 2073 412 150 228 599 76 62672 113359 11368 361 341 28917 157 2130 41929 13744
leaf_count=362734 14765 14017 29434 11507 1777 49388 23186 107111 134805 14760 1086 5350 344 35811 2073 412 150 228 599 76 62672 113359 11368 361 341 28917 157 2130 41929 13744
internal_value=0 0.488559 -0.045914 0.160829 0.738514 0.125481 -0.0108345 -0.0810862 -0.0434389 0.671637 0.438102 0.78441 0.673917 0.22828 0.0997307 1.84177 0.517127 -0.705922 1.60486 1.3345 -0.0808978 -0.115118 0.684481 0.628193 -0.138018 0.290853 2.86268 1.13347 0.0346849 -0.0711792
internal_weight=0 93172 991419 40314 52858 168809 72574 822610 459876 49837 16229 33608 12553 96235 31507 3021 15143 378 2452 1853 310836 176031 26128 12209 702 64728 569 7480 149040 27761
internal_count=1084591 93172 991419 40314 52858 168809 72574 822610 459876 49837 16229 33608 12553 96235 31507 3021 15143 378 2452 1853 310836 176031 26128 12209 702 64728 569 7480 149040 27761
is_linear=0
shrinkage=0.05


Tree=28
num_leaves=31
num_cat=0
split_feature=13 0 13 0 0 13 0 13 13 13 23 8 13 7 0 7 13 2 5 18 0 0 10 0 15 7 7 7 6 6
split_gain=8.82858e+06 3.11344e+06 2.10387e+06 1.36319e+06 1.08072e+06 987320 765052 744134 633233 468061 423349 477186 402556 243012 241206 237074 212306 225536 208548 203041 196502 191634 203868 187512 176173 175888 175141 170314 178380 167616
threshold=21.583333333333339 4.5000000000000009 60.38333333333334 1.5000000000000002 3.5000000000000004 8.0500000000000025 4.5000000000000009 34.150000000000006 93.88333333333334 63.050000000000004 1.0000000180025095e-35 0.50000000000000022 43.716666666666676 4.5000000000000009 1.5000000000000002 4.5000000000000009 1.8166666666666669 1.0000000180025095e-35 -0.85733483063959459 190.50000000000003 3.5000000000000004 2.5000000000000004 42.500000000000007 3.5000000000000004 255.50000000000003 4.5000000000000009 7.5000000000000009 11.500000000000002 0.32816112360988392 -0.55605299127383134
decision_type=2 2 2 2 2 2 2 2 2 2 2 2 2 2 2 2 2 2 2 2 2 2 2 2 2 2 2 2 2 2
left_child=5 3 7 9 21 16 14 25 -4 27 12 -12 -6 18 -7 -8 -1 23 -9 -11 -16 -5 -23 -18 -14 -3 -10 -2 -29 -15
right_child=1 2 8 4 10 6 15 13 26 19 11 -13 24 29 20 -17 17 -19 -20 -21 -22 22 -24 -25 -26 -27 -28 28 -30 -31
leaf_value=-0.17215794515542382 0.44534301617023947 0.51856687677163682 1.1515814342584336 0.010118549774548626 0.20824331087037329 0.035552602823750071 0.18713719176972587 1.4934088543496733 2.798688500264094 1.1286554790252985 0.62433493636330373 -1.4880343873852067 0.61304436608887691 0.37973646915389625 -0.13142188438826505 0.047941387993816448 -0.16447254350051918 -0.050684387069858561 0.79645086096610773 3.8541643669907479 -0.012434474597567172 1.2492115558852792 -0.19397712808468909 -0.078836619794473692 3.354991198394258 0.27284728722420931 1.6081474111781526 -0.74826886037172435 0.44299172773553236 0.68220939572051609
leaf_weight=96960 20716 9795 6141 26130 17047 49065 42598 1289 833 1819 444 672 8262 6760 103609 108510 128000 198610 6415 71 52169 247 26331 127692 59 28395 491 630 627 14204
leaf_count=96960 20716 9795 6141 26130 17047 49065 42598 1289 833 1819 444 672 8262 6760 103609 108510 128000 198610 6415 71 52169 247 26331 127692 59 28395 491 630 627 14204
internal_value=0 0.322617 0.569285 0.14472 0.0448963 -0.063078 0.00183451 0.480395 1.36541 0.475998 0.305471 -0.647629 0.3474 0.672923 -0.0611239 0.0871813 -0.104992 -0.0906571 0.913063 1.23104 -0.0915738 -0.0860336 -0.180565 -0.121706 0.632486 0.33587 2.35718 0.411053 -0.15406 0.584675
internal_weight=0 177378 74323 103055 79192 907213 355951 66858 7465 23863 26484 1116 25368 28668 204843 151108 551262 454302 7704 1890 155778 52708 26578 255692 8321 38190 1324 21973 1257 20964
internal_count=1084591 177378 74323 103055 79192 907213 355951 66858 7465 23863 26484 1116 25368 28668 204843 151108 551262 454302 7704 1890 155778 52708 26578 255692 8321 38190 1324 21973 1257 20964
is_linear=0
shrinkage=0.05


Tree=29
num_leaves=31
num_cat=0
split_feature=12 0 13 0 11 0 0 3 13 2 7 0 21 3 11 6 7 3 11 2 5 7 7 7 0 11 13 1 10 13
split_gain=8.01104e+06 2.23062e+06 2.18688e+06 1.43646e+06 1.24093e+06 975514 507532 489652 461892 409662 370677 341171 318652 282061 278625 276004 279923 235376 218275 201892 178450 164840 161325 159674 147330 142296 135936 129054 148024 126774
threshold=35.392857142857146 3.5000000000000004 16.016666666666669 1.5000000000000002 87.642857142857153 4.5000000000000009 4.5000000000000009 20.500000000000004 7.2373563218390808 1.0000000180025095e-35 11.500000000000002 3.5000000000000004 127.50000000000001 13.500000000000002 63.500000000000007 -0.55605299127383134 11.500000000000002 21.500000000000004 60.357142857142868 -1.0000000180025095e-35 0.34685948904333835 1.5000000000000002 10.500000000000002 11.500000000000002 3.5000000000000004 139.50000000000003 3.0500000000000003 0.87837969732492682 42.500000000000007 26.033908045977018
decision_type=2 2 2 2 2 2 2 2 2 2 2 2 2 2 2 2 2 2 2 2 2 2 2 2 2 2 2 2 2 2
left_child=2 3 6 12 7 9 19 10 -8 11 18 27 23 -12 -9 16 -7 -6 -3 24 29 -22 -10 -2 -1 -19 -21 28 -4 -17
right_child=1 4 5 -5 17 15 8 14 22 -11 13 -13 -14 -15 -16 20 -18 25 -20 26 21 -23 -24 -25 -26 -27 -28 -29 -30 -31
leaf_value=-0.14960410873396043 0.62242703095245056 0.49734720961784373 0.89739877147771707 -0.052387306168958418 1.5008272651675219 0.16231100377198299 -0.073447673841598421 0.79477009544022015 0.067286263375547564 0.20156276703254333 0.31241562497264275 0.1116769958164299 2.1290852223266987 -0.86103218519394531 1.4615329918712794 0.33628358296629324 -0.50335813200766311 2.1906670269374717 0.82663614210937553 -0.14870889621853509 0.95851599222492245 0.19117472968676985 -0.081899725417019967 -0.25019381225595894 -0.08085420008917367 3.9238437197010989 -0.020701706107970317 -0.028324347247429427 -0.19630015344639301 0.56610224974181644
leaf_weight=234134 10790 21834 313 23629 1817 21263 219506 12566 114792 24056 1491 26891 342 780 1790 20714 1706 482 6540 27060 723 21891 21518 551 116802 157 88798 26535 26672 8448
leaf_count=234134 10790 21834 313 23629 1817 21263 219506 12566 114792 24056 1491 26891 342 780 1790 20714 1706 482 6540 27060 723 21891 21518 551 116802 157 88798 26535 26672 8448
internal_value=0 0.472762 -0.0390589 0.171851 0.696666 0.119212 -0.0735394 0.636935 -0.0285558 0.0205374 0.524049 -0.0336187 0.625377 -0.090618 0.877906 0.257124 0.112869 1.7911 0.573246 -0.107828 0.321118 0.215708 0.0437357 0.580031 -0.126722 2.6165 -0.0505993 -0.106622 -0.183614 0.40286
internal_weight=0 82769 1.00182e+06 35312 47457 179212 822610 45001 355816 104467 30645 80411 11683 2271 14356 74745 22969 2456 28374 466794 51776 22614 136310 11341 350936 639 115858 53520 26985 29162
internal_count=1084591 82769 1001822 35312 47457 179212 822610 45001 355816 104467 30645 80411 11683 2271 14356 74745 22969 2456 28374 466794 51776 22614 136310 11341 350936 639 115858 53520 26985 29162
is_linear=0
shrinkage=0.05


Tree=30
num_leaves=31
num_cat=0
split_feature=13 1 13 2 11 13 1 21 7 1 6 7 6 7 6 7 6 13 15 13 23 13 13 12 1 10 15 10 7 10
split_gain=7.23609e+06 2.39772e+06 1.95165e+06 1.70451e+06 831955 818228 544510 406208 363196 337496 277171 354152 267200 305324 256691 380305 195659 191457 190940 186398 185737 184984 182312 180840 164763 175083 156729 156613 150854 132083
threshold=21.583333333333339 1.0000000180025095e-35 49.183333333333344 1.0000000180025095e-35 96.214285714285737 8.1833333333333353 1.0000000180025095e-35 96.500000000000014 4.5000000000000009 0.6078576107927941 -0.55605299127383134 11.500000000000002 -0.5 11.500000000000002 -0.5 11.500000000000002 -0.43713894533759617 3.0500000000000003 1.0000000180025095e-35 42.583333333333343 1.0000000180025095e-35 34.95000000000001 13.41666666666667 66.392857142857153 0.87837969732492682 42.500000000000007 197.00000000000003 42.500000000000007 11.500000000000002 942.50000000000011
decision_type=2 2 2 2 2 2 2 2 2 2 2 2 2 2 2 2 2 2 2 2 2 2 2 2 2 2 2 2 2 2
left_child=5 2 8 24 12 17 14 19 -2 27 11 20 13 -4 15 -7 28 -1 -19 -5 -10 -12 -16 -14 25 -3 -9 -8 -6 -18
right_child=1 3 4 7 16 6 9 26 10 -11 21 -13 23 -15 22 -17 29 18 -20 -21 -22 -23 -24 -25 -26 -27 -28 -29 -30 -31
leaf_value=-0.13595409026314306 0.51083610142788793 1.1597616349622186 0.58993076412784273 0.29275587100751077 1.414129331811723 0.0096348162931254311 0.63981651033887754 1.2580153202178981 0.20460983789876114 -0.015022445835873342 0.27119271622272645 -0.58378853742127201 0.79548050645251289 -0.91594890026211684 0.049593134575602313 -0.45685671858575944 2.4715441807175065 -0.027360483325732307 -0.10142008097037335 0.60265946957691752 -0.8342678157435689 0.50962434601633555 0.16899349629087482 1.2201580250805337 0.011572534659252974 -0.17766688511129247 4.0744706935607473 -0.18302386198888476 -2.0432699222456328 0.35972394293174148
leaf_weight=186395 20921 247 6496 15828 718 60515 585 986 16169 98463 26944 1685 11077 355 80583 4709 994 138535 234094 6997 442 11653 52995 3240 26130 26331 52 50339 33 80
leaf_count=186395 20921 247 6496 15828 718 60515 585 986 16169 98463 26944 1685 11077 355 80583 4709 994 138535 234094 6997 442 11653 52995 3240 26130 26331 52 50339 33 80
internal_value=0 0.292075 0.452291 0.0811473 0.857012 -0.0571063 0.00306094 0.431749 0.332701 -0.0690696 0.267196 0.106903 0.768702 0.5119 0.0572624 -0.0240446 1.88132 -0.0945816 -0.0738864 0.387757 0.176966 0.343179 0.0969634 0.891587 -0.077584 -0.165238 1.39911 -0.173571 1.26221 2.31424
internal_weight=0 177378 100807 76571 22993 907213 348189 23863 77814 149387 56893 18296 21168 6851 198802 65224 1825 559024 372629 22825 16611 38597 133578 14317 52708 26578 1038 50924 751 1074
internal_count=1084591 177378 100807 76571 22993 907213 348189 23863 77814 149387 56893 18296 21168 6851 198802 65224 1825 559024 372629 22825 16611 38597 133578 14317 52708 26578 1038 50924 751 1074
is_linear=0
shrinkage=0.05


Tree=31
num_leaves=31
num_cat=0
split_feature=12 12 0 13 0 0 0 0 13 0 3 23 8 15 0 3 7 7 2 11 7 23 8 6 7 7 6 7 11 17
split_gain=6.58551e+06 1.90756e+06 1.86592e+06 1.01877e+06 786292 736019 629602 452592 416890 337485 289099 275327 342226 270983 267926 253597 203066 188018 182437 182062 160461 154593 159412 154041 191341 150939 148483 189487 147366 145649
threshold=36.964285714285722 16.964285714285719 4.5000000000000009 77.250000000000014 4.5000000000000009 1.5000000000000002 3.5000000000000004 4.5000000000000009 7.7833333333333341 1.5000000000000002 20.500000000000004 1.0000000180025095e-35 0.50000000000000022 138.50000000000003 3.5000000000000004 20.500000000000004 11.500000000000002 11.500000000000002 -1.0000000180025095e-35 139.50000000000003 11.500000000000002 1.0000000180025095e-35 0.50000000000000022 -0.55605299127383134 11.500000000000002 4.5000000000000009 -0.55605299127383134 11.500000000000002 49.214285714285722 208.50000000000003
decision_type=2 2 2 2 2 2 2 2 2 2 2 2 2 2 2 2 2 2 2 2 2 2 2 2 2 2 2 2 2 2
left_child=1 7 5 10 9 13 -7 18 -9 -3 17 20 -13 26 -11 16 -6 -4 -1 25 29 -16 -23 24 -10 -5 27 -2 -12 -8
right_child=2 4 3 19 15 6 11 8 23 14 28 12 -14 -15 21 -17 -18 -19 -20 -21 -22 22 -24 -25 -26 -27 -28 -29 -30 -31
leaf_value=-0.11446110227097357 0.39633232285684095 0.18889935310500316 0.58891038343307622 2.3093206423067527 0.20721240425127588 -0.040083310300461174 0.49655627617995129 -0.062209955547028184 0.00063517209331030895 -0.096021689276564515 0.70624932709066834 0.9914363791177303 -1.9236414841243201 2.215991168475151 0.13286020945387086 0.37717422970316006 -0.17613908632847403 0.021297804493762798 -0.042610238310629885 2.6520741427528129 -0.32586385576968502 0.25922719153753226 -1.0603757021461335 0.087050403267327187 -0.40349533638140422 1.2793577356305175 0.68261706959012569 -0.92732950290380911 1.0992512000322776 2.031569375062753
leaf_weight=361049 3239 23760 19336 460 45545 21989 9839 233747 35288 48491 5519 162 266 250 23332 23699 3738 1578 116968 424 593 388 558 87872 3194 1569 7085 295 4201 157
leaf_count=361049 3239 23760 19336 460 45545 21989 9839 233747 35288 48491 5519 162 266 250 23332 23699 3738 1578 116968 424 593 388 558 87872 3194 1569 7085 295 4201 157
internal_value=0 -0.0340502 0.445804 0.729308 0.118922 0.232008 0.11449 -0.0649891 -0.022656 0.0252861 0.650797 0.423006 -0.820271 0.588876 -0.0281356 0.242769 0.178136 0.546083 -0.0968796 1.70978 0.473259 0.107455 -0.519143 0.0505163 -0.0329076 1.51286 0.55057 0.28584 0.876105 0.520666
internal_weight=0 1.00763e+06 76962 33087 169511 43875 33006 838118 360101 96529 30634 11017 428 10869 72769 72982 49283 20914 478017 2453 10589 24278 946 126354 38482 2029 10619 3534 9720 9996
internal_count=1084591 1007629 76962 33087 169511 43875 33006 838118 360101 96529 30634 11017 428 10869 72769 72982 49283 20914 478017 2453 10589 24278 946 126354 38482 2029 10619 3534 9720 9996
is_linear=0
shrinkage=0.05


Tree=32
num_leaves=31
num_cat=0
split_feature=13 0 11 13 0 0 0 13 15 23 8 7 5 11 0 7 0 5 3 5 5 7 11 13 13 10 7 13 5 10
split_gain=5.96236e+06 1.98855e+06 1.48195e+06 983310 769794 639722 626138 380450 349282 293069 337060 282118 277622 259044 251216 219741 198477 178153 174604 433230 173410 164432 157074 155238 152899 146166 141569 124758 123013 211912
threshold=32.650000000000006 4.5000000000000009 15.357142857142859 77.250000000000014 1.5000000000000002 4.5000000000000009 3.5000000000000004 4.3833333333333337 1.5000000000000002 1.0000000180025095e-35 0.50000000000000022 6.5000000000000009 -0.85733483063959459 96.214285714285737 1.5000000000000002 11.500000000000002 3.5000000000000004 -0.81970999721622462 22.500000000000004 -0.97150251552401368 0.99935825358552643 11.500000000000002 110.92857142857144 63.050000000000004 49.183333333333344 1077.5000000000002 11.500000000000002 10.950000000000001 -0.85733483063959459 140.50000000000003
decision_type=2 2 2 2 2 2 2 2 2 2 2 2 2 2 2 2 2 2 2 2 2 2 2 2 2 2 2 2 2 2
left_child=2 4 7 11 13 14 -6 -1 27 23 -11 12 -3 28 26 17 -16 -7 19 -13 24 22 -5 -8 -14 -21 -4 -9 29 -2
right_child=1 3 5 21 6 15 9 8 -10 10 -12 18 20 -15 16 -17 -18 -19 -20 25 -22 -23 -24 -25 -26 -27 -28 -29 -30 -31
leaf_value=-0.1104739608732101 -1.0831209060049405 1.181083318732874 0.16903711326678617 1.3950759910261141 -0.053771732375253879 0.38060880086116378 0.32494901373271062 0.0016951903630634806 -0.0672763624471336 0.81486498159771803 -1.7023714111349677 -2.9418695099499761 0.52874772913169721 1.7040658684393954 -0.092429075624636647 -0.14370550846626248 0.077824881282682862 0.18186774861377375 0.71031143569901012 0.41461873510295821 -2.2079577161174901 -0.065406358318732066 2.2395592788604399 0.77112907517118923 0.87103480737940375 -0.84274425634044281 -0.37450056562795409 0.11885318454556711 0.41051488398675889 0.94677896484848478
leaf_weight=293946 137 2942 25110 1416 27761 13770 11030 135825 350470 213 354 98 8673 453 51371 4448 25673 62260 5157 14052 53 136 901 2368 5230 235 1258 27288 9873 2090
leaf_count=293946 137 2942 25110 1416 27761 13770 11030 135825 350470 213 354 98 8673 453 51371 4448 25673 62260 5157 14052 53 136 901 2368 5230 235 1258 27288 9873 2090
internal_value=0 0.382412 -0.0359385 0.655295 0.186881 0.0921643 0.0836023 -0.06511 -0.0391462 0.356688 -0.756743 0.590066 0.739677 0.530179 0.00989464 0.197879 -0.0356962 0.217862 0.460697 0.371211 0.646626 1.62429 1.72347 0.403808 0.657509 0.393937 0.143105 0.0212951 0.486231 0.821904
internal_weight=0 93172 991419 38893 54279 183890 41726 807529 513583 13965 567 36440 16898 12553 103412 80478 77044 76030 19542 14385 13956 2453 2317 13398 13903 14287 26368 163113 12100 2227
internal_count=1084591 93172 991419 38893 54279 183890 41726 807529 513583 13965 567 36440 16898 12553 103412 80478 77044 76030 19542 14385 13956 2453 2317 13398 13903 14287 26368 163113 12100 2227
is_linear=0
shrinkage=0.05


Tree=33
num_leaves=31
num_cat=0
split_feature=12 0 11 2 12 0 12 0 11 11 6 7 21 6 7 6 10 3 6 7 6 1 7 17 2 5 6 0 5 1
split_gain=5.40762e+06 1.83443e+06 1.33705e+06 795229 647543 592116 519845 419169 365559 346340 232699 235977 205304 195643 209484 195136 183416 178633 176249 198754 173911 167536 159582 159236 149815 140200 139495 134020 133682 132292
threshold=22.035714285714288 4.5000000000000009 64.785714285714292 1.0000000180025095e-35 8.8928571428571441 3.5000000000000004 39.678571428571438 4.5000000000000009 110.92857142857144 65.785714285714292 -0.37145036674625276 11.500000000000002 74.500000000000014 -0.55605299127383134 11.500000000000002 -0.55605299127383134 68.500000000000014 20.500000000000004 -0.55605299127383134 11.500000000000002 -0.55605299127383134 1.0000000180025095e-35 11.500000000000002 195.50000000000003 1.0000000180025095e-35 0.7624881539727123 -0.55605299127383134 3.5000000000000004 0.34685948904333835 0.87837969732492682
decision_type=2 2 2 2 2 2 2 2 2 2 2 2 2 2 2 2 2 2 2 2 2 2 2 2 2 2 2 2 2 2
left_child=4 3 6 5 21 29 20 24 17 18 11 16 -12 14 -9 -8 -7 -4 19 -5 22 -1 -3 -11 27 -17 -10 -6 -22 -2
